-10
12
-11
-29
7
-27
22
1
21
-20
-26
-26
-9
26
1
15
17
5
22
21
22
27
17
-17
-9
-14
1
9
-30
-23
-19
10
-7
17
21
27
17
-20
-14
2
-12
25
24
-20
-10
-10
16
-2
3
-27
19
6
-23
10
15
-8
25
-24
9
-10
2
-17
0
14
29
-7
10
3
-26
3
28
7
-12
-11
3
26
-27
7
22
-30
-1
-28
-24
27
-13
4
3
12
-28
-1
-28
10
0
25
-30
-25
-5
-21
-20
26
10
-17
-7
-30
-25
-18
-13
18
-23
18
-12
-13
-17
9
20
0
-23
3
-3
-6
20
28
1
5
0
-13
-24
-7
-11
-2
1
24
-4
26
-10
-14
8
-25
22
-26
-14
14
5
-17
-20
14
-4
21
-26
-1
28
22
12
16
-24
11
11
18
-1
17
-24
24
-1
8
-13
-6
21
-13
-12
4
21
-29
10
-8
-22
-25
-7
-13
-5
15
20
-15
-12
19
0
9
-18
10
19
8
5
20
6
-25
28
-9
-15
26
25
16
23
-22
3
0
8
27
-19
-11
7
-30
-12
-7
-8
14
26
20
6
9
-22
8
-18
-19
-2
9
29
-29
-6
5
-7
16
19
-3
-8
9
22
11
11
18
-19
3
-3
22
-28
19
-10
-19
-3
22
-22
-23
14.5246529171667
3.36205277730462
16.8661500823705
-13.0845763604062
4.71274791279911
13.3599044813762
8.87832186012571
23.0824349174313
1.2054301139428
4.74430561855369
2.62215076498614
5.89872630041712
23.8534258465684
21.0835731331663
-21.7002821993518
19.7568965897236
-27.3713369150425
14.26837433856
23.9020049137883
-16.0680292972922
-21.3133929146524
16.5797754191603
0.171584841863199
4.180425273144
-18.7134373988524
-10.0605123384151
-22.7287225554355
10.4761847054047
-11.5795078979393
17.5688792281914
3.67721006931156
1.07402793112152
-5.22573803360667
-12.7318681205044
-27.7950841646029
-20.1589885042343
9.1373476358932
-25.2896849808294
-25.386754295568
-19.6931916883156
-24.780978661484
17.751641527163
-13.9644338471338
3.22142398739888
-29.3510024838275
18.2939434693061
24.9241445762477
-19.2018543004439
8.30278691032192
-3.61435687079107
-22.1706466985019
14.6187692888525
-30.5902328270183
23.4097882878808
27.5606324780093
23.8241842415675
-22.5055911829518
-16.6396686532181
-23.3535418142868
-18.4224300699953
1.66516646309208
-27.6826093520728
2.74442437214019
13.4410839060893
-25.8929761330335
31.7376661569984
-18.2623697226546
11.0622422064696
20.2141741528791
23.9143747967679
-20.2819352341522
26.3965662092111
6.44799927633107
11.0143791142073
-17.9307253573554
-9.83797939382088
-1.54695524156286
22.8490964119976
4.1058628031392
-12.2730986425533
-5.22087073521799
27.9673447442137
-30.068452009697
22.0426973596204
5.53922470981798
19.3073131706327
-1.08203145927087
3.22027007753283
-14.0046927783874
-29.3469035123459
-24.42183276723
-2.60542985988174
24.9340438723752
22.7738056199375
4.85269521395291
29.7616639195487
-17.4263713685492
4.40115882402435
2.98313706782039
-29.8765513148826
11.834801903014
-15.9015899787067
-8.70300624307901
12.084678795802
-15.2537055719183
-18.9039280411077
-25.8316033300393
-12.0488737342627
10.6813896341336
7.20409961878165
-3.65389768801298
-14.4500844333782
5.3610228819803
13.26875570757
18.4881705139868
5.41638479360252
-28.9765971204125
14.7160452286448
-24.6538299754701
-17.3047746445276
-3.62615128664553
6.04980016110112
-6.48235197011957
14.1166918061289
18.2018540743269
11.9301278093977
27.9717908005273
14.9299811115411
-25.9212943966194
-15.0111056635547
-24.6291637456792
26.93414343185
-10.2999890388544
3.56262279503168
8.90127488070218
-21.1451292854453
2.56951001545048
-11.0621373673071
5.04948042033431
-8.66037335292878
11.1485727854117
-17.7914716562767
22.7642372053288
8.60859871236543
8.26882898036008
22.8271499896473
19.5796318388086
-18.2917168295289
-32.0353186724437
29.8753855124988
27.7885436944648
1.41290858085148
-1.55515137921758
-12.3877413467934
4.40590276552206
-30.4973405351063
24.1108697627112
3.80383795792483
21.4322881499598
2.84509664045587
-18.5121739936766
-10.3186291233277
-19.3115016703965
-5.43073899885014
0.438046072625352
-4.86782432779207
18.5146371215549
-27.7352125129564
-22.9132309317066
5.74730936547383
-31.589827621303
12.2464772980678
-21.2589140039637
7.88786748150503
0.952088317215397
-16.5363996221338
12.3423359880356
14.1382989442821
-21.3313938457545
26.1959924760496
21.5963072319831
16.7760305491826
14.1828508899329
-23.144341993776
-15.4196727566703
7.24767344976415
-2.28536542444678
-25.2311430736559
27.7952945737711
2.19756071075154
-13.8663242699921
-29.5675160852555
-3.3344762881774
29.2590234153537
-19.9508228061222
-9.30629854215392
30.0387001654059
-1.71071688187968
-20.9332729305131
-18.9190891875255
-29.3258667514573
18.4871175760849
-27.0096211060158
-9.47940302070419
27.8863413811569
-14.4859540879018
-13.4213376337978
17.1590113676297
14.8258975630897
-10.7811957250672
-13.2062576510044
-19.5462921578261
-3.61089210007169
22.1206767713596
9.32757311849182
-2.4992106358052
7.78240631953609
-23.2802323679671
-20.9578684732305
21.7905294102205
25.5139448396463
14.9737339706205
-23.7120901456368
4.70045051159903
-6.57801742405012
28.4815095456822
-15.6364442307221
-20.0607302780672
0.298168786351518
-17.6550025196726
-16.6193049929024
-15.1181205125442
4.05253206395062
27.2888363425065
23.6376322401649
-24.1575852483957
13.3369855843296
-13.377005338937
-20.7732392162522
26.3692016004039
-11.0078379821392
16.9681603315755
-10.4005708520585
6.44934881257109
-23.2103142729296
-21.7813586877323
5.67724533492574
5.67094478394965
-13.7027659610527
11.9566143498616
12.3336706914629
17.7383348839579
-14.4051685589175
-15.694264962244
-14.2331205664045
-10.5701822095302
5.15340876875184
-1.12187908056905
24.9720526898292
30.862017905917
-26.3129322210141
-24.5285842741023
-13.5292054279505
5.08911331109267
-28.4625688335368
-26.97438400184
3.58744537599767
0.397862810774421
26.4955796369938
4.95526147107173
13.934024882269
-19.2477255516162
-27.6185364229425
-21.3094245553166
1.08096930237447
-18.2799370285994
-4.2595641063413
-1.8698711667027
-4.95004473461028
-12.4338029587273
-1.8570390234418
5.88944246870922
21.7540288148724
17.7519401039384
-1.54761297674996
-10.4204377059975
28.5820090334483
-12.8631535823829
9.29244670251291
7.59727309555946
-3.96254226563357
-16.7737454962787
-7.42019719610813
-23.1822159284247
21.8137767241386
-15.6439233197754
-4.26967337402234
16.3298104163081
-1.31639991048184
-25.6722287130088
3.152358624877
-28.7028411890312
7.14316141041055
12.9755538028963
25.2204977169359
-4.55516634746584
22.8425725783915
-23.4353653903458
12.4346410923924
-27.5182425875803
20.416613379895
-14.1781035237758
-24.8961190167221
11.2156624574445
-0.363697585461182
-0.10604114159569
-15.6183406051951
5.08941527245403
-25.8679093368687
12.0498244696534
-26.3337592691168
-18.3198484992003
18.3872374536573
-11.9974332663239
-18.1301747812646
-0.243633501341786
20.3041393145457
23.2952034712624
-14.4862330933679
-14.3306369882045
14.4803174193122
7.55422703872219
26.7393332935251
-11.2488396084965
8.62389425960494
-3.83578844021631
-33.4650483959046
-20.3452062742371
15.4405572448956
-29.9726574907322
1.90068582531044
20.3890301277317
4.24849527623608
11.8398457808273
17.0529185195357
-19.3380882844572
-21.5828969184952
14.1009997980594
5.96115742749195
-3.86878362547955
-28.6212451042442
20.1936086268967
14.8171502946381
16.6663352247868
28.4950415738918
-8.02550722338963
-17.3331986988758
-12.6948315734886
-0.936409979840154
-3.76714511843172
3.15018803466323
29.8163798305336
20.0848539459092
-5.50919358944547
-15.3994169984148
-23.230181025955
-17.0170279697494
13.6125621422307
-27.3174282224258
-25.5297131468525
-5.12858012281672
-28.0048480862315
15.2888849449561
-29.3659676691284
-20.5658524117323
-15.9258081944441
11.6239523406859
-20.1325767883228
1.57656157493465
-30.9056124257218
-13.3185539345812
-23.4419176911459
-17.3322532094775
24.1167611265112
-11.7724072914845
21.4759134168458
25.5620599241505
-20.2309001273282
-9.93022978287096
-10.8923732550443
-16.3910698495185
12.9649196946862
10.3681073976429
-14.5396160440906
-0.318610708819618
3.94330660024019
-21.5080474666019
-20.5573723015781
-6.58160089700231
5.79457869496761
22.31863604361
-5.8952148867555
9.72743854252478
-1.26059187620475
26.2280268801127
22.9306751813106
-20.8053184823173
7.25028755842961
5.54729720775111
18.3689798851669
15.7190490615061
-27.6610543954518
15.2387664352558
-1.40427288038501
-26.4455035673333
-8.35621171933366
6.51693611697297
23.9023189724372
-24.6009963819696
-11.4030075872912
-19.0334638899409
-24.2527897948292
-8.67852832498111
8.18866710955533
24.2917394584357
14.7076548652383
-8.26003534750193
-4.85440039733782
5.80218864492153
5.5600253435968
-26.9728281080106
-5.25385139768793
11.7610366544914
28.1965795954585
-26.5878108576757
25.258532639537
-2.27509578784749
17.642736603376
21.8915524874025
-10.4642837238478
13.8980191722382
-11.0841922319122
2.81765631545514
5.35932706300015
3.66607188710246
-14.973057026427
25.2182040459604
-18.7095205562745
-16.8152164419613
-26.474345959772
24.5313472583778
-18.3791449450351
-28.2028499022657
-30.9090082372401
-8.94898067083729
21.0479765630141
-30.6305546834237
-31.0967646282825
4.860266768808
-18.9277528024383
-0.775250094244558
14.7332061838172
-27.0948701420536
-29.8707840223497
5.46061554011171
-12.3310626506009
-15.3178098334227
18.8433281954682
-4.75322789126048
-17.1418412411079
21.5105551942253
19.0236979543014
-26.7853980808736
13.2019230482164
8.5167381555493
26.118669820243
2.4798959963451
16.4678474282514
-23.1825984834027
11.000023068713
18.8118961907359
-18.4652869531754
-22.1380982827372
0.0647074885509453
6.10129795520246
21.7153749000275
-9.51803801543982
14.4430190264361
4.24370467407837
-18.7657201602029
21.6937113337797
1.64671556601421
-17.2767233472187
5.23343281505458
13.3398878750909
-28.7126926109852
-13.4830428195999
4.25641167354449
23.9585724265411
-12.9281681017951
26.4848856025477
-35.0549324097667
9.59370089728893
-29.3925607442325
-21.3853599264495
-19.5801428811253
-28.1876005008536
-8.67633742064597
-11.323129458664
-7.75018785810522
-10.705508626216
-17.0260078137004
21.0676255935332
23.477860788292
-9.42674901356039
-11.3195589644957
3.85768408870902
3.83321081389282
-5.196815334728
11.1592239606109
28.527560139124
-5.44882870836171
-10.6269492097225
-21.543773684033
-17.9284792319207
-4.46559885263635
5.72831482144285
-6.82365846599604
28.3014105565821
9.02768556363801
12.2322018028278
22.6935475200632
18.872850303346
21.066373160329
15.5895922972297
14.0015241612338
5.2775647344384
-20.9695456257168
-12.0230893322849
0.254893462514352
16.2660749948023
25.2753331488082
-6.80793937115812
-24.7604098368049
15.3607221622874
9.30409003836072
4.67723343095174
-7.48787253389251
-13.050265978613
-2.56710937239111
1.7466192189281
10.1698586719903
-20.8461539151156
-17.9644161616508
-14.8632456061918
1.5277225513832
14.0860086010384
0.950207394005302
14.7434234064745
11.6831833968491
-1.66209214994291
19.6112844393041
-10.9609792103253
19.1677430493936
9.55766317211914
0.61249863750929
-7.09687500600328
-19.8424804834275
-23.1685121265417
0.408840102600575
7.28232276089231
-15.8309271762127
-15.8502920958568
18.9478760230387
28.1225009407453
29.1028747788207
-30.6560544470009
-20.9406285588269
-9.60566581985329
4.68979119460072
21.794682775952
-17.6580230125581
-25.2263758800546
0.403694672538551
-30.769172554377
-23.8037813202553
4.85092583779869
11.5505263538827
-3.09875588355889
-16.7261552740854
-24.8882656210957
-27.1266867805349
-10.24389887639
12.3351789509584
26.7493120103489
-31.5473024151252
3.36962085079696
10.2952295989184
-0.868965575850828
-1.71982625998685
-10.1116481494009
-1.89859478575447
-13.3760048622761
13.6260807263829
21.7150213073741
-7.94469565646276
-10.7328046543419
-9.63605731007339
-20.1635125228969
-13.7345105018803
-4.77407560747732
10.0793952121931
-25.2706991235421
-17.0339734773909
17.4720289610226
-15.9713529029363
7.54015966152675
24.9394839708485
21.5335369779172
4.60367613983592
10.6683508867598
8.52867582563124
1.96661809736311
16.4733954606685
-7.66219779697838
5.22726283442415
25.3047425944441
2.6473738331301
19.8906781433949
31.2055702251279
-9.60038626219479
-6.15934554097739
8.46283962041083
27.4335746985836
-18.9163850121972
-11.2898990364893
-31.1601794593391
-12.019682322771
3.64422338299644
11.2831378139188
13.7748852798526
-11.644249210635
2.18918216958422
-21.5862643189188
26.5019318019483
1.60601638859678
-24.2079360615652
-21.4656858960233
20.5520063823355
15.2050701310228
-15.4374535264188
5.70689039619171
24.0714233464672
20.8047543076004
10.4784205136536
10.7161689825402
30.5570433316349
-8.40395098543414
-8.87087347619279
-15.4473048950607
4.35123588912135
17.0314335300555
-0.417702842360606
-15.7644896088385
19.7603563922703
28.5082348307687
17.5649788550135
-20.1210572587902
-29.8295636515353
-11.434279964923
-19.9384789068212
-9.61061837869149
-14.3022295422734
-32.5754736416447
23.7014854354722
-8.16805149293397
-20.5919616005266
-14.6023923017761
28.749069430235
24.8243454058684
-2.11854097743886
3.08775231362672
13.1345302117812
-22.881531720492
7.28841848011767
18.1704664237385
-0.478516601963123
22.8802564936495
-16.9756521794758
-4.99884873473782
-6.03708646905234
7.61339918513343
-31.0582874045426
-6.69928874773712
-19.0882416353959
33.0437544090726
20.9846757735248
-12.1413638389102
-9.71478416431991
22.6526533480028
6.67973930248248
21.9192744351522
-18.1818352089698
-10.0855100144939
-2.41880271406888
-32.8438885053001
-12.0910192568988
19.1304878862168
24.1628717281956
-13.9237601210663
-3.66659772166721
14.8959860025751
-5.02036201075787
-5.47547655195745
10.0626473897917
24.5274370414066
23.480599348273
-10.5641486336592
3.29041252154749
-19.2931126500727
-6.75032254242053
26.0574973880176
27.3556602716498
3.44886108372702
-26.6477100516564
5.35522820294832
-7.21880160582957
23.3041083861893
20.4057268759273
25.4205528407447
3.0558292568233
20.2087738991069
22.295131593648
-24.0030231527707
-23.6709499999205
6.29609677007365
-7.34313229468208
-12.7970875701239
6.55229346579896
6.37413111894898
-6.08709824185776
15.3833621241448
26.7627345855137
22.3218075585556
24.2667672305606
10.0153615944233
-15.6367971453271
-1.22334896735445
8.37269896239633
-14.4477315247351
-28.5151143974523
-15.0549324097667
7.59370089728896
-17.3925607442325
-5.38535992644945
18.4198571188747
20.8123994991464
8.32366257935402
-9.32312945866399
18.2498121418948
11.294491373784
-6.0260078137005
-30.9323744064668
-28.522139211708
10.5732509864396
7.68044103550431
16.857684088709
-7.16678918610719
-11.196815334728
-28.8407760393891
4.52756013912404
1.55117129163828
18.3730507902775
23.456226315967
5.07152076807937
16.5344011473637
28.7283148214429
-28.8236584659961
11.3014105565822
-8.97231443636197
-2.76779819717223
10.6935475200631
-19.127149696654
5.066373160329
23.5895922972297
-19.9984758387661
-13.7224352655616
12.0304543742832
4.97691066771514
-4.74510653748568
11.2660749948023
10.2753331488083
27.192060628842
13.239590163195
17.3607221622874
-27.6959099616392
7.67723343095174
29.5121274661075
-18.050265978613
-15.5671093723911
-31.2533807810719
19.1698586719902
-14.8461539151156
7.03558383834918
8.13675439380823
-1.4722774486168
4.08600860103836
14.9502073940053
4.74342340647451
7.68318339684908
13.3379078500571
29.6112844393041
24.0390207896748
-21.8322569506064
-9.44233682788085
-24.3875013624907
-18.0968750060033
5.15751951657254
-23.1685121265417
-5.59115989739942
-14.7176772391077
25.1690728237874
15.1497079041431
17.9478760230387
-5.87749905925462
21.1028747788207
3.34394555299906
-28.9406285588269
-27.6056658198533
3.68979119460073
-21.205317224048
-31.6580230125581
18.7736241199454
-3.59630532746146
-15.7691725543769
12.1962186797446
-14.1490741622013
8.5505263538827
16.9012441164411
-5.72615527408538
11.1117343789043
0.873313219465103
-26.24389887639
33.3351789509582
6.74931201034885
12.4526975848748
13.369620850797
24.2952295989185
-3.86896557585083
25.2801737400131
23.8883518505992
-22.8985947857545
22.6239951377238
13.6260807263829
29.7150213073741
-20.9446956564628
27.2671953456582
-1.63605731007336
-21.1635125228969
18.2654894981196
18.2259243925227
9.07939521219307
5.72930087645786
-27.0339734773909
-3.52797103897732
12.0286470970637
-25.4598403384733
2.9394839708484
26.5335369779172
9.60367613983593
3.66835088675977
0.528675825631259
6.96661809736312
6.47339546066853
11.3378022030216
16.2272628344242
22.3047425944441
12.6473738331301
-21.1093218566051
13.2055702251279
-27.6003862621947
12.8406544590226
2.46283962041084
-16.5664253014164
7.08361498780273
-32.2898990364892
-21.1601794593391
-29.0196823227712
-9.35577661700355
-20.7168621860812
12.7748852798526
21.355750789365
-0.810817830415779
-33.5862643189187
14.5019318019483
-21.3939836114032
31.7920639384348
-27.4656858960233
1.55200638233548
27.2050701310228
1.56254647358123
-22.2931096038082
-25.9285766535328
12.8047543076004
-15.5215794863464
-8.28383101745974
4.55704333163486
-22.4039509854342
-26.8708734761928
-18.4473048950607
-6.64876411087865
-15.9685664699445
-11.4177028423606
2.23551039116154
9.76035639227026
-28.4917651692313
21.5649788550135
-4.12105725879031
-5.82956365153523
-10.434279964923
-1.93847890682133
-25.6106183786916
-24.3022295422735
4.42452635835509
29.7014854354722
11.831948507066
-25.5919616005266
2.3976076982239
30.749069430235
5.82434540586834
12.8814590225612
6.08775231362672
-17.8654697882189
-15.8815317204919
-28.7115815198822
28.1704664237385
9.52148339803689
25.8802564936495
24.0243478205242
-20.9988487347378
-1.03708646905233
-28.3866008148667
-31.0582874045426
-16.6992887477371
19.9117583646041
6.04375440907257
4.98467577352481
26.8586361610899
-11.7147841643199
6.65265334800282
-19.3202606975176
0.919274435152203
11.8181647910302
-29.0855100144939
-8.41880271406887
0.156111494699864
28.9089807431013
-7.86951211378325
10.1628717281956
0.0762398789337036
-16.6665977216672
30.895986002575
-20.0203620107579
-4.47547655195746
-6.93735261020827
10.5274370414066
21.480599348273
-28.5641486336592
-2.70958747845251
20.7068873499273
-13.7503225424206
27.0574973880176
3.35566027164974
-16.551138916273
29.3522899483436
-0.644771797051693
-22.2188016058295
23.3041083861893
18.4057268759273
-0.579447159255327
-20.9441707431766
-23.7912261008931
-18.704868406352
-7.00302315277065
-16.6709499999205
-17.7039032299264
26.6568677053179
-24.7970875701239
20.552293465799
-2.62586888105099
23.9129017581422
-6.61663787585525
-16.2372654144863
-9.6781924414444
22.2667672305606
-0.984638405576766
22.363202854673
-2.22334896735446
15.3726989623963
-21.4477315247352
5.48488560254772
-12.0549324097667
-7.40629910271103
0.607439255767549
-13.3853599264494
-8.58014288112532
-35.1876005008537
-2.67633742064602
-24.3231294586641
17.2498121418948
0.294491373784
-26.0260078137004
4.06762559353316
-16.522139211708
-10.4267490135604
-21.3195589644956
13.857684088709
19.8332108138928
-17.1968153347279
-21.8407760393891
15.5275601391241
11.5511712916383
-12.6269492097225
-33.543773684033
14.0715207680794
-29.4655988526363
11.7283148214429
-20.8236584659961
-6.69858944341785
-1.97231443636198
12.2322018028278
-4.30645247993684
-26.127149696654
10.0663731603289
23.5895922972297
12.0015241612338
17.2775647344385
13.0304543742832
-29.0230893322849
-30.7451065374857
-16.7339250051977
-5.72466685119169
-29.807939371158
-32.7604098368049
20.3607221622874
21.3040900383608
11.6772334309517
-25.4878725338925
-29.050265978613
11.4328906276089
20.7466192189281
30.1698586719902
-9.84615391511557
8.03558383834919
-9.86324560619176
22.5277225513833
-20.9139913989617
-4.04979260599471
12.7434234064745
-15.3168166031509
3.3379078500571
26.6112844393041
-28.9609792103252
16.1677430493936
-25.4423368278809
-21.3875013624907
27.9031249939967
35.1575195165726
-11.1685121265417
0.408840102600575
-15.7176772391077
21.1690728237874
17.1497079041431
-22.0521239769613
28.1225009407453
-11.8971252211793
10.343945552999
-14.940628558827
-26.6056658198533
23.6897911946007
-10.205317224048
5.34197698744191
-23.2263758800546
11.4036946725385
-0.769172554376895
16.1962186797447
-34.1490741622013
1.55052635388272
-20.0987558835589
-30.7261552740854
8.11173437890427
-10.1266867805349
-33.24389887639
23.3351789509583
-9.25068798965111
-11.5473024151252
-8.630379149203
-10.7047704010816
25.1310344241492
24.2801737400131
26.8883518505992
11.1014052142455
16.6239951377238
-2.37391927361709
-2.28497869262605
-25.9446956564628
-23.7328046543418
-16.6360573100734
5.83648747710309
-26.7345105018804
-23.7740756074773
29.0793952121931
-13.2706991235421
20.9660265226091
22.4720289610226
26.0286470970636
13.5401596615267
-5.0605160291516
-10.4664630220827
-10.3963238601641
-32.3316491132403
-5.47132417436874
13.9666180973631
-16.5266045393315
19.3378022030216
26.2272628344242
26.3047425944441
23.6473738331301
14.890678143395
11.2055702251279
22.3996137378053
-4.15934554097738
-11.5371603795892
-15.5664253014164
24.0836149878028
3.71010096351073
22.8398205406609
4.98031767722889
-21.3557766170036
-0.716862186081162
7.77488527985255
16.355750789365
25.1891821695842
-26.5862643189188
31.5019318019483
16.6060163885968
-19.2079360615652
-23.4656858960233
26.5520063823355
-2.79492986897715
-1.43745352641878
22.7068903961918
-23.9285766535328
1.80475430760041
20.4784205136536
0.716168982540254
31.5570433316349
-6.40395098543412
9.1291265238072
-0.447304895060659
-14.6487641108786
-16.9685664699445
-3.4177028423606
30.2355103911616
-24.2396436077297
7.50823483076871
-4.43502114498662
-25.1210572587902
25.1704363484647
-21.434279964923
-31.9384789068212
-21.6106183786916
-19.3022295422735
6.42452635835509
14.7014854354722
-19.168051492934
3.40803839947342
1.3976076982239
-8.25093056976491
-24.1756545941316
13.8814590225612
5.08775231362672
-30.8654697882189
-8.88153172049184
-27.7115815198822
-27.8295335762615
-10.4785166019631
22.8802564936495
-9.97565217947587
-11.9988487347378
7.96291353094766
-1.38660081486658
-32.0582874045426
13.3007112522629
-12.0882416353959
2.04375440907255
-8.0153242264752
24.8586361610899
30.2852158356801
-11.3473466519972
-16.3202606975175
-29.0807255648478
-15.1818352089698
5.91448998550609
-8.41880271406887
-6.84388850530014
9.90898074310122
-7.86951211378325
14.1628717281956
7.07623987893372
23.3334022783328
-1.10401399742492
-25.0203620107579
0.524523448042552
9.06264738979173
4.52743704140665
-26.519400651727
-26.5641486336592
24.2904125215475
-18.2931126500727
-17.7503225424206
5.05749738801759
16.3556602716498
5.44886108372701
9.35228994834352
2.3552282029483
-17.2188016058295
-1.69589161381061
-6.59427312407276
-11.5794471592553
21.0558292568234
7.20877389910693
-0.704868406351939
31.9969768472293
11.3290500000794
14.2960967700737
-8.34313229468207
-12.7970875701239
26.552293465799
5.37413111894899
-13.0870982418578
33.3833621241448
-24.2372654144863
8.32180755855561
-8.7332327694395
-20.9846384055768
-5.63679714532711
-8.22334896735447
-30.6273010376036
12.5522684752649
-10.5872929958821
-21.0162611479769
24.6019767481784
19.6507979585372
-30.8049405662214
16.5984783250767
-18.5755067532624
8.46276731371637
-31.6923756525094
19.8776614348024
-12.7962903940607
-20.4543363428212
-32.2070212065139
2.04078938673464
18.9201191758207
-13.2116370775707
25.3491653486618
-24.0112548284115
22.1658796551251
23.0483452853197
-16.1900495845341
12.2460600105688
-15.3527001233139
-7.14529278739148
15.6898425262907
-14.5087285028528
-2.7130327666425
-26.3873242459733
-16.5999021064305
-2.80427301068305
-16.2043426910701
7.93380602070418
-4.11568808414096
10.5925499370533
28.3671195740923
12.4241522206897
19.7993625331385
15.3067837118218
24.1013419598941
-27.9927935697889
-3.06055430562011
7.37767337958189
-14.0086833579364
-21.5774170535047
-18.9773474650643
-22.0789449315522
24.447795484464
11.291707357206
25.8962310744446
-27.2383180454842
-8.91256008629138
-12.2094859776248
6.21016729815415
-25.3624336295018
-5.16536013632516
9.85210704199371
24.8300658435429
13.6755452164931
-24.0972663607145
13.481224130133
-16.5399641476583
-13.3249743249606
-4.2860126013969
10.5185198354568
2.18633443940335
15.7709379639728
14.6592412387227
-6.55850872536835
0.384007050148222
-29.7682195051512
-2.81929126300279
-24.7015693861997
-20.791092436068
10.270819349434
-1.05976760230471
2.6670930532981
0.263260637878136
-32.1791056475197
-29.8874167329494
6.99420464821631
-11.3367493207007
17.3841260317885
-22.0702544593369
-19.6919826221422
-31.4817597588515
29.8158912786828
20.1543719852215
-5.78174374225278
-22.8330563372934
-7.84756584007548
14.8489171105116
-22.3272495139366
4.28136134050284
-17.2342589412565
19.0866670056494
-16.9981215348431
-14.18965211204
12.2997950563446
8.51385076936748
13.500422388836
-2.8652321003628
3.66305123081034
-19.0556574571447
22.3329325101745
8.50958959287767
-7.63887791172967
-28.0938155695635
24.6597199957595
5.55293568059167
24.9537837873791
-22.1445689379842
30.807083356798
-1.726901750859
4.04279875822532
-9.97013182791021
-3.31840289481517
-22.29111894852
-16.4344246594795
6.08796384257945
2.91779358912714
8.75967539275519
-12.6661401944622
-16.6604655215757
-30.977643786694
-19.2814345678492
-12.5887075686858
2.13206670615059
26.1719303970139
24.1613395106837
-10.720909237162
-16.8956721410522
17.4140618287756
-8.35271658381789
-1.35844129820419
-23.8826595402205
19.1101259389985
9.78088256411691
-19.972271074306
3.53801917411462
19.33719268747
28.5201787630008
-35.3842888912712
13.6165586677607
-20.8185502383942
-10.3529362486485
22.9587525247599
4.6523922135314
-28.4662861868719
21.956249824282
-8.24959231270421
-26.7422979864805
31.6021656970507
-27.7941237153251
30.3202434434041
26.6281426496202
-20.6921374908333
-13.5849659511124
-27.8472112331444
15.4982022096435
-17.4911535076009
18.154221227647
-24.0253051570752
-29.7140682559962
-6.66072641648363
6.67938197882783
-9.03314674922773
-6.51981424985914
-19.7311197122472
-4.96854816555523
-4.5335820566768
16.905959314253
26.2739892161189
16.3123438159936
16.1827213769717
8.3840116200136
7.87103067751597
4.98147638022406
-30.2907690217491
18.0103008943688
-11.86715664374
9.16633919896593
-13.8391837017991
-24.1383375611216
5.08869949698316
-21.9785288802579
-12.2988589179417
8.21021256215048
0.125242348422326
-3.82393235624903
20.6953817841264
1.19291725482823
-1.52597018753746
-3.4853323479745
-10.6211868919536
25.3478803842271
22.9097264809488
32.9248106348568
-2.68113178496449
3.76192847842018
-30.8128676089592
-6.92767792463258
-3.29862084192684
8.87125285499364
-15.5847883593206
-3.73836905039237
-15.6656468792801
-14.1351361104013
-18.1764427914427
-11.8515753542732
-12.7871618788897
0.903484403824794
-11.6312535660015
-12.1164489144352
-3.3429929428144
-2.49563833574049
-6.68068065103461
21.1954342200675
-9.3708716587039
-18.0510537102483
-11.2959747578992
1.49841500938425
25.0389963149328
19.5139714187061
4.4051617744385
30.3487307246577
-13.0029483950883
-4.58866163464812
-9.57321541025801
26.0436987168456
10.4231832366383
10.5386933755895
-21.9650107867841
-10.1934383680134
18.4193351138274
15.8228760082564
-12.3333250348896
16.3772723662174
16.432458004303
-28.5383899399133
24.8407775011098
-29.3338394190779
1.73948028118978
-21.8351795090484
-25.2905162681164
-12.1210535708994
-13.9593029959609
-19.0443304657509
-30.2214343438427
15.134527006632
0.894728338118611
23.1224153561701
4.05481167592692
-19.8752805686152
-8.39892611903917
-5.67236721552414
2.58414869461217
6.32507328734599
-28.8137740829016
-11.3861404695547
-23.170949674888
20.1501835254632
21.6122219920837
-14.0838580183288
8.19818299341603
11.4545321538358
-11.0932437046695
28.5904044136824
8.49559853990172
7.03243280087435
-16.2014703405697
9.49997922694581
-20.9907024193841
-6.97984316470901
-11.1092276218838
-16.677427361875
-27.133887103174
15.2820653241638
7.76620015763115
-14.3334589665972
14.6757717625049
-11.1317143344157
-14.8333101449826
5.24617078508646
-2.6425196294875
23.0561158246629
-19.335475519331
-27.6187549294941
-24.7906712891268
-13.3636053140426
-12.9189900646731
7.04016027661551
11.0280305671164
-9.15462858067487
-24.9259454029953
-29.6306325968035
-23.4513012480139
-19.066764802909
6.54134301995549
2.64319286457228
25.2184434026491
-9.95583008827518
0.343740609985207
-3.87095489195556
0.708384261718059
17.0703338421561
14.5694754431639
-19.4121365184318
30.4066757265817
-20.4043300532781
-10.1362367775734
15.5092555165161
-28.7987884089806
14.4343023045644
8.16321523750376
13.3242591760822
11.1338557514482
-11.1861810396679
19.5417578477427
12.7036456705039
-5.73066036327386
-12.4292191904242
23.0022889870891
-11.0378399754563
-13.8515329991431
8.8372870791953
26.0754970665652
23.17456841505
-18.7976832526935
-18.3578339511713
-26.7117902371809
19.8577502616197
-19.150502958846
-22.0422234156276
-10.575750933443
-10.9427648649094
20.7371124845582
10.5471380544651
-24.7854486610609
1.61324120158497
-22.76327224007
-30.7127630601083
-23.9463521326648
21.3604129893018
25.8685456821383
4.52604132306384
7.50696580804014
28.865054283271
15.136700341445
-7.85037600423079
-0.373073704405044
24.2747765561933
-9.71937902991576
22.0171803824219
-26.4348102196132
10.0256554688552
2.1071237176878
-24.4623805887819
-20.3499455707268
27.496960908075
24.0538296291098
24.7446504101191
29.7422535147335
9.45012854619997
-22.8679172907534
-0.622679034978558
4.94393155737979
23.9849097513548
-7.47119619718
-15.2660948438579
23.3149240033589
19.2021086851242
-20.6484693121053
-10.4249871508377
-1.83024642106572
-5.32284993885463
-21.7697757382366
29.7307846838259
-6.17575869515587
15.9177492266006
-27.9264620654704
24.3164431505609
-26.9558975325729
23.3140759481669
22.557167095151
-19.7248692240066
5.23101169816582
-14.097896549132
-27.2441222043185
13.6061456417978
25.1646724682462
14.4058115551629
0.46255855406996
-21.0585682857653
6.70842283632787
-12.121332614835
-24.1663918040579
-9.06758471422259
15.9401399678525
-5.53060402969313
24.8244852941972
11.5665988248026
6.65992716422862
-3.5493439235822
-7.75274725000686
3.36589683528797
10.424022296911
23.7389707119953
-9.71573656443439
11.7052227192459
-2.73850557978898
-3.51508401084346
13.7446458206829
-7.12382625434362
24.6491466099385
25.7682297749983
20.9430691784563
25.6546013175952
25.6383947141132
23.312653969239
22.9148507867114
-10.718504768265
24.1423411348272
15.1018362661405
-7.12101500576478
-18.8274567649334
-15.7419101490655
-29.6495990560913
12.0869791583647
-14.0607247206235
-12.4789869928119
13.2095749129523
-21.6237608232236
29.3874177439006
23.5977037378827
-12.47400535094
-8.61440803466466
2.74784690783902
3.84102699964234
-19.7063166102898
-3.49127755482684
5.43831344709186
20.5923789410134
-9.90730544752113
-13.6862343662525
-10.0946302210197
-31.2662369494353
-18.8360351006503
-11.8588787552356
10.9528660654866
-1.53820639197794
-25.0344858905093
0.242521379799341
22.4279128960836
-5.2968134307512
-0.388476244695034
24.4866344259337
22.5059332924051
-28.5119270476986
-19.3720508740706
-10.3812018038475
6.13331453277773
-13.8535205071313
-22.2326416809388
-7.22789172152352
2.86032489888338
-15.8221215115368
9.35518672520866
-1.41265330080674
4.73688579822303
1.9037656472956
-20.2749077632985
-6.99356501278081
19.185793750342
-2.2429322794878
-6.51190785779164
-2.8379795215167
-3.78386802544101
-6.34070310562531
-24.9410999896338
-23.8421944202395
-22.7692753386029
14.5287369149806
28.2423817494516
14.8430310362523
-20.3695028665155
-12.1641530971329
-8.43492200825859
-0.236022595073252
-12.5730332236882
-5.59616408294089
0.449925901572162
6.47241256045268
-9.16510798535958
17.5265689630077
18.9357866538
-5.41286938319038
16.8227865458577
-29.2664515380562
5.97301292531109
-24.4301974178476
-16.3776194326692
10.9822284459204
8.0213743332658
-14.2518189492055
-12.6454218231283
14.6696828572144
8.71868640798974
-9.21269536126384
-23.5702991602938
29.5084300614612
-3.07179805594862
-5.59261584813821
23.7217517538529
-25.6857932309846
-12.9042055534311
18.4395757379088
-8.43013791866325
-1.52177567905022
-15.9578909367638
-8.89906352718649
24.5991173003293
-16.5825454510908
-15.8008053720096
-15.5735664951973
30.1774775927555
5.49271378349622
-30.4426986860465
24.8648043181022
10.8618301296991
30.396170892856
23.4355321477832
-6.05861328588573
17.6049475761725
29.3630267601715
26.7761147968487
-3.13160783977512
-20.6544789233936
18.9939151066828
-4.16422626483603
-3.62011001889704
11.0306549679315
28.0361062106345
-12.1736783868208
-5.25594080269461
26.284417444282
-26.7714114146546
8.97317054055838
-8.37933021316326
8.11673582131104
23.4904254386076
-26.843562477602
-16.3832433925046
17.7291529770063
-14.9665016735743
-21.0178950336101
32.120042927061
-3.49873831001608
0.284144468533843
-12.1955679519404
9.35290240424761
12.542361893427
11.6367390825713
8.57549526647634
-24.116138204577
-22.2033770551944
-22.8776316150782
8.25391647517698
23.9153480641906
-24.3612238993779
13.8516425282353
13.1034538760654
2.71107273846045
-30.1312438168694
16.0623574612288
15.5734530187756
26.469945303262
29.9811566579516
12.1299472563582
-16.1174889199098
20.8792273074486
26.2356056447804
10.1902943725651
-7.0007193152353
15.9020823755642
22.8581711901955
9.71632681294846
0.0591240328675228
4.91050335791706
17.8918514461821
26.0640683761074
-28.4893914328809
15.2527840140496
-7.50357337373944
9.40074243077278
15.471148848135
25.2938489806398
-14.0855257634572
-15.8184529413624
-9.90297879549643
25.7591177255261
2.38139976419761
11.6589022667642
-14.5341843154833
19.9879064604564
-15.5641962663238
1.38939503781589
-19.4302535990874
-28.5403994280893
3.80547888957568
-17.7298702915716
-26.8672428233995
11.8530707791299
-26.5170095992831
-5.20510500820656
15.6347375560908
-28.5073107364631
-8.54279803246258
25.8420702839594
-22.6847479364
-3.36116269928698
-2.7778353459154
-29.1485099273657
-18.2029031576139
-27.7024974444676
11.9942583043427
22.1543722701188
-23.7929993388869
-11.0309756281034
-29.048228147359
21.453653405668
9.34219134247453
14.2146954909512
-4.39509442393889
-5.58419808579086
-8.48240751070537
-11.4089439567479
-8.98899992505771
2.27917460206613
1.06820754255183
-3.8005494529187
-0.99176291715717
-1.34009952392924
-28.3082150431685
1.8293010882258
28.3397390979055
-10.6086813627224
-1.82561235398542
-27.9113449726293
20.4641339646392
11.062852441051
1.56190425935401
-7.6599232219854
-27.4334254911632
21.43982901615
-3.36427046581552
-6.24595477161704
-2.56040232747079
-19.3716221377785
-22.6777119639822
-13.1699119000691
-11.5083112754946
21.1793470894727
-30.560985690167
13.6961595440439
5.27561234770435
-10.5118276277778
-21.1170155818479
20.6379511892926
-29.9469500834127
-2.18183527238133
7.18827992881346
20.6196460688292
-2.49618460877918
14.8116438976767
28.7881817673894
25.694013039561
27.133968530679
9.69422405910808
-22.4037387236091
-11.7299994179989
-8.77828820927958
-27.0636722398471
-1.09155555863804
-8.53280551509758
-13.5807326526986
-10.9126345507635
8.90356804882691
8.04877375466744
22.4015991661556
25.0809232881447
17.1320720618644
-22.0029507854866
-5.50932823464628
-17.0271119485578
-30.3568676111929
5.75848534905124
-0.602607772749091
-5.17641507876978
-28.8570403493557
10.4985081761521
-21.0864317568414
10.4369969813608
29.0048512629968
-7.97725042373536
28.0947936992828
15.7618373394695
24.5157266872793
-15.5109557122503
19.7705014298256
-0.702931048861774
-4.39109005075401
20.3367796983494
-24.1984915832326
18.7058462738025
20.1260043922481
-13.8503788708688
-5.53445474004785
4.95640294621684
-7.07995028011385
-19.9860157190258
5.72491212305622
2.94044775850551
31.1426866988772
-22.3615170556015
12.1540476005372
0.047404284156439
-9.67414875359545
-19.9352755307326
15.3134975178041
-8.25084823515508
-0.353883903242987
1.60201419919491
7.23739946307062
-5.7664066072448
-18.5343800984713
12.3326435035968
-22.8508765068976
27.5645378712944
-11.4839626649512
1.40587701691134
-7.00991356086052
1.44399052113678
17.0809381680232
-5.14850204000575
-6.67376348160064
-28.9253584346729
-25.2116145607983
8.24496846994385
-12.0422688086687
14.0234328513055
-22.3776194326692
22.9822284459203
30.0213743332657
24.7481810507945
-23.6454218231283
7.66968285721443
9.71868640798974
17.7873046387361
11.4297008397063
-3.49156993853886
-5.07179805594863
10.4073841518618
-5.27824824614712
2.31420676901545
-24.904205553431
18.4395757379088
-12.4301379186633
14.4782243209498
8.04210906323614
-16.8990635271865
-21.4008826996707
-3.58254545109074
-7.80080537200957
23.4264335048027
15.1774775927555
-23.5072862165037
13.5573013139535
3.86480431810221
11.8618301296991
12.396170892856
4.43553214778323
9.94138671411426
22.6049475761725
-27.6369732398285
-15.2238852031513
5.86839216022488
6.34552107660639
16.9939151066828
-12.164226264836
4.37988998110295
33.0306549679314
-11.9638937893656
-17.1736783868208
27.7440591973054
-24.715582555718
11.2285885853454
28.9731705405584
-10.3793302131633
-5.88326417868894
2.49042543860762
15.156437522398
-11.3832433925046
-27.2708470229937
-26.9665016735744
3.98210496638991
12.120042927061
-0.498738310016081
-16.7158555314661
-17.1955679519405
26.3529024042475
21.542361893427
-25.3632609174287
-26.4245047335237
-31.116138204577
24.7966229448056
19.1223683849218
19.253916475177
-8.08465193580942
-14.3612238993778
-7.1483574717647
-13.8965461239346
1.71107273846045
-6.13124381686936
-28.9376425387712
-13.4265469812244
20.469945303262
-12.0188433420485
-12.8700527436418
13.8825110800902
27.8792273074486
-22.7643943552196
-3.80970562743494
-15.0007193152353
-21.0979176244358
22.8581711901955
-15.2836731870515
0.0591240328675228
21.9105033579171
-4.10814855381794
3.06406837610732
-21.4893914328809
-0.74721598595036
-3.50357337373945
-14.5992575692272
15.471148848135
25.2938489806398
-19.0855257634572
-14.8184529413624
-23.9029787954964
-7.2408822744739
29.3813997641976
4.65890226676415
-26.5341843154832
26.9879064604564
-10.5641962663238
-14.6106049621841
22.5697464009126
-27.5403994280893
21.8054788895756
14.2701297084284
-4.86724282339945
-20.1469292208702
-13.5170095992831
-18.2051050082065
21.6347375560908
-6.50731073646311
21.4572019675374
26.8420702839594
-29.6847479364
7.63883730071301
-19.7778353459154
24.8514900726343
-29.2029031576139
5.29750255553242
-16.0057416956574
12.1543722701188
-29.7929993388869
-23.0309756281034
-13.048228147359
-7.54634659433201
7.34219134247454
-28.7853045090488
-15.3950944239389
-1.58419808579086
-28.4824075107054
7.59105604325212
-9.98899992505771
-12.7208253979338
18.0682075425518
12.1994505470813
-6.99176291715717
-2.34009952392924
-30.3082150431685
8.8293010882258
-16.6602609020945
-31.6086813627225
-31.8256123539854
-11.9113449726292
-9.53586603536079
-11.937147558949
-28.438095740646
-13.6599232219854
-19.4334254911632
-2.56017098385005
-18.3642704658156
25.7540452283829
0.439597672529211
-4.37162213777853
12.3222880360178
1.83008809993092
-22.5083112754946
14.1793470894727
13.439014309833
0.696159544043918
-21.7243876522957
-5.51182762777783
17.8829844181521
-30.3620488107074
-21.9469500834127
-15.1818352723813
-29.8117200711865
5.61964606882925
-18.4961846087792
-8.18835610232326
-15.2118182326106
8.69401303956093
22.133968530679
-8.30577594089193
-4.4037387236091
-18.7299994179989
11.2217117907204
11.9363277601529
16.9084444413619
29.4671944849024
-12.5807326526986
-6.91263455076345
17.9035680488269
22.0487737546675
-18.5984008338444
-27.9190767118553
-27.8679279381356
21.9970492145134
4.49067176535372
-15.0271119485578
-3.35686761119285
6.75848534905124
14.3973922272509
6.82358492123022
4.14295965064431
20.4985081761522
-20.0864317568414
-29.5630030186393
-23.9951487370032
-24.9772504237354
-17.9052063007172
1.7618373394695
-25.4842733127207
15.4890442877497
-21.2294985701744
1.29706895113822
-27.391090050754
-17.6632203016506
-27.1984915832326
0.705846273802531
15.1260043922481
-2.85037887086877
-31.5344547400478
10.9564029462169
-20.0799502801138
10.0139842809743
1.72491212305622
26.9404477585055
21.1426866988772
-21.3615170556015
-15.8459523994628
-20.9525957158436
25.3258512464045
22.0647244692674
26.3134975178042
7.74915176484491
26.646116096757
-14.3979858008051
15.2373994630706
2.23359339275519
-26.5343800984713
12.3326435035968
8.14912349310248
3.56453787129435
12.5160373350488
16.4058770169113
-13.0099135608605
-20.5560094788633
13.0809381680232
11.8514979599942
24.3262365183994
24.0746415653271
21.7883854392017
-24.7550315300562
-6.04226880866867
29.0234328513056
4.01961565151028
24.2461047249537
-6.57893233660578
26.6941489383615
-9.53933853016912
-17.0766883278754
-18.950204374483
26.3609709433875
23.1184230991321
-32.5526210431195
4.75944887094286
-19.971001958383
17.8149926272728
0.887888729699552
5.50264068764699
13.5736391233804
-2.61182228317465
1.40398076369023
-4.32680835630959
-21.0365025141945
20.0179537232906
-2.08102543289468
-29.9271689676785
-10.7094111067972
-12.1716970990254
-5.27227478079828
-15.7534004566816
-20.3513111361032
-16.3425087793745
-9.15581854047297
-6.16355479637802
16.2030717401431
-1.00584605964266
27.623262003385
-26.5815949935864
25.5245449627525
23.7148616197092
14.7733756301427
-17.002436857132
20.0654123080255
0.543474948092121
10.9447096722828
11.0883432493479
14.8330860888439
-19.3528226251705
-21.2473828142401
-13.0257363952574
-17.3639886099932
-26.7324371736195
-18.8212816266583
-4.52566060146868
-14.9953675860692
11.6403141822606
-15.9692216321813
-20.9935274490686
-27.8680850668083
27.6901319217418
-28.8343133093705
8.41071975636247
24.0433471006046
26.812749851001
-26.5731230319898
13.152185093987
2.62718519942928
4.78234345403272
16.9550688355402
9.57890589477761
22.1328306469164
-3.74532987466013
6.86437864631436
15.8251318125537
12.0467050630154
-11.4760928132139
4.69981587025142
8.94250942559422
-23.3750486284271
13.3639012487026
-15.9399233085646
-19.9590018975304
-23.2408834723068
-23.1487792527542
-29.445212281649
-24.1131478234187
-29.1747172922077
23.7191991666886
-21.3718639322101
-24.97808724893
-14.6282153835569
13.5846816810478
24.9433146345694
29.0445906059015
21.3098434780821
-23.4978058404279
-9.77491861051004
18.6769432006711
-4.2711003154439
29.2416715219085
-20.9667396365426
-20.0126543405956
-6.19839718825253
-0.0630220591480076
-5.33945617574695
15.3928172596918
-6.96128582400368
-8.4956098293469
13.8049731475447
23.8944925586053
-23.9318040995771
3.53924275437807
-29.2062372226337
-9.66284282557004
14.6190199009649
24.1547881178603
-3.19963158870418
15.7441883450572
27.0535959607119
25.2230799378267
12.1435350211713
9.77574707924242
-4.21734889937793
10.1475676833742
-7.00312213834276
-25.0158600586176
-0.430580632913663
6.65811700713518
24.8714870209653
3.301381287092
-31.4986856698325
13.6535810304642
-15.7568930109041
-21.9424547119928
4.88068561335407
-27.0833034600773
15.8972558682767
8.25508461249055
10.8984186444903
-16.6696439278185
13.1223583316177
7.01339030329345
-24.4320037977179
-19.0340265372289
28.0820354377346
14.6190538219956
14.4547903361827
6.52890635175561
-13.7679770583421
-27.8454168875787
7.15331452889706
0.320854212191673
23.2624556520441
0.0964742843728036
-13.9008319761447
1.9921566909788
12.2571787400813
11.9456857933709
-25.7263348027481
-7.82818077891619
-14.4538603615265
13.3874074743319
-0.922322422582392
-18.1574114536294
25.6626339225872
-7.98939174998195
-12.0462322682154
20.7348228276746
9.17615384648934
9.90877384321854
-24.1716724750913
20.9896368756284
-26.3019404281781
10.1195748356577
-18.7873181909532
-27.6226798208555
-0.992148837210328
-15.1616669745978
11.9811733313136
10.0229573908969
-12.0418919232059
23.9740055376899
-6.96472277950029
22.4513545987408
27.2047943581349
-3.94378147475094
21.5826840421068
12.0438783801479
23.657359039382
-23.3312591015573
-10.4761876759184
-27.0387780255848
0.636205441159668
-10.9593249723728
-27.9878128277325
28.7525498412971
-23.2179219091924
25.3989930864381
-14.4659398102699
5.70356188942803
-7.13680254833774
23.083908313424
24.0673818776624
3.69764924392157
24.5561888981928
15.688940644908
-4.34050443049409
-17.1169872031999
-13.5049078508154
-19.0153833224053
-29.9999467733321
-3.07953560910127
27.8994171084457
-7.055442640419
-27.6294264294085
-11.0775855673006
-12.5667114275161
5.02753952782002
-12.8965426199681
-0.558113851297469
1.62478803180524
4.24883959678762
-28.5941699188971
3.96285364882108
-9.99608398926995
-28.0698770058422
-9.95595759178498
15.0675982920161
6.93026518488151
-15.9204694478112
27.1021751174486
3.89933450848539
-26.1301782765062
-25.5250355845125
-13.776858966378
-4.1633896458547
29.1906403647735
16.5142288540161
28.6963953507084
-21.3303917813756
-31.2077400230964
9.15289657030912
-6.80274605515357
9.7865136740828
-22.438183734752
21.9384856950998
-26.0443172565295
-26.625648295946
-12.3061510839151
11.8790223893711
10.6999594985234
-0.0428505556671121
7.69940016700156
15.7075475072901
-29.0217646589856
15.4299070757701
18.6022288824576
-11.3689020896147
-11.5980052838167
16.36802350968
-2.76002201960778
7.97426883353535
5.5992641057327
-23.9589522298919
-16.4132025408467
-4.19750293960719
-0.892431841136451
15.9054904303288
-19.8754061461309
4.88961349909517
-10.4553086866671
4.51900452240865
3.72103821119851
-21.7311849674165
-6.05911851130515
26.8215068426262
-18.5988564618463
-11.2737910868283
-1.85441305360976
-3.0449246473542
30.0819750837442
-15.1289235741013
-2.14457549459255
24.1731531654153
0.724052568793036
-7.41502504314853
23.5052979510061
-16.2187581282991
-32.476917012708
-1.7377692273239
2.95858244096188
6.59811892730509
0.974312766461997
-26.0940546715701
11.3154789745613
-9.01198576407873
-29.2333424389652
-14.8632534805083
-3.90946312905131
9.72233750045061
-4.25964557061783
-20.7873034942112
22.149516229651
11.9451777823831
-6.28898206728036
-22.8926940810118
27.0658357905486
-3.52220766839195
-9.63242469844994
-21.5108563294638
8.23810953730671
0.451135029666974
19.0876306972477
16.1628137182361
30.0254002686963
-19.6566273988472
-13.7750803745455
8.76773100534204
6.03410455607499
22.5130659011126
6.50603801435512
-16.9813726530424
19.7596127555505
7.23918695030431
23.5180128816192
8.74007433672226
28.8725715767763
-3.6985924652365
-4.33152231463237
-25.2145972999046
23.8890296904296
22.1207289719593
21.3023083152934
15.9627010363779
-30.3674196154624
14.7381587049107
-9.48053993060118
10.9868448237766
2.49368382193335
-10.0929980579787
-0.473822360756745
-8.64575043458443
22.5959699024229
21.0343752318296
19.3865844887323
-28.6462012299621
22.6638410455947
11.6513275647332
-21.0146040301706
0.366184515963833
-21.302005763252
-7.59993495464092
15.55105848989
4.28289950483553
-26.8553602738057
-12.5514511747
-9.63634711408518
-18.477765944556
19.0164262729665
12.1997520339565
-23.9986292929408
-8.90359656674914
-28.6329835881835
-19.2913122211673
-10.5987543829053
13.0534597050425
7.96172674440102
-30.7108942927912
10.7793094967207
-20.3343414941257
18.3043838420554
5.46481004499241
-23.2627319214743
-25.9767297106601
-9.74599054314243
-21.6135068944691
-13.3807770342988
26.6869663207954
18.0381550708994
29.0478278206987
19.7827861552522
-15.5293736372462
-11.7445647607598
20.4914651658793
-29.7320538055628
-1.20111895214253
-17.6727421695398
-12.2537077869448
9.78586407303787
20.8140923098512
-7.41655635078879
-22.2069858649288
24.661158353245
19.643908969103
-13.1077505309232
-27.1303859403489
-14.6068782384268
13.5246815437312
6.83354208203503
-16.8168897752381
-5.50859454660503
21.7571072168264
29.6032255183587
-32.8874493589219
13.8685213656485
1.96314350751554
-17.1991150027369
5.4046309220832
-20.1808033555971
30.0118086245616
20.3730953102157
-4.39290260643838
-4.90027847702718
23.0480753710471
23.2968107846638
20.6042977836675
-25.2651457303735
-21.3050271978092
-21.4454107156894
8.28035556243694
3.0307947813044
-10.8025606038671
-19.2035645305376
21.9392765856858
13.8712617697327
10.8217945876133
0.677072422014303
-10.727527431967
18.7497070746769
-11.4191655214452
18.7317744658468
6.43098833504737
-10.4539287184107
2.03501711856229
-5.72316598624635
23.9190357340436
-13.5957218968789
-12.8959019055276
-15.2650375015233
-6.00487356844587
-7.88802189385864
-2.68477970750871
-29.4593010621014
14.9610685050641
27.0745800714676
27.0866709183584
10.3181154190257
-26.163006124321
31.272525571591
-2.40172746505709
30.6073007178493
-19.1890517697105
2.5416623767445
24.1371313115457
6.36605370558145
-25.1165934881967
-1.15462168179599
-27.4356317887018
-13.3585791432383
26.8541794341479
-30.4004688349761
20.858835084659
17.0702731670243
21.2161684479578
-18.6510389048938
-15.5773770201389
-21.8051527651557
17.3956169701302
-3.18621075690685
23.6797320390272
2.79334846578263
17.9180776872352
26.4434709288342
9.98862210686682
-12.9733182420089
-22.7805709625432
-13.7170486216419
2.32231943491318
28.5961986864515
18.8640134381488
-29.5501048548371
2.34736084580382
-8.49631231995273
-7.28594983199929
-12.6346812576364
2.03334080698174
-25.7550525837132
-14.9045768474781
27.877493768226
-7.37226566639063
-6.18185045284699
-17.2336766662269
-30.9319716263966
-17.0042749553496
-1.27440612343506
-0.827949554153866
4.0370383048021
-29.6473808028399
6.28749609539753
8.84845701643867
19.5314208729671
17.888912269681
7.87554183943544
-29.0824292746148
9.84715744036498
-23.6667462611886
-18.6539333684305
17.6052534737893
13.2671544498431
-5.35231082742819
19.3611778014037
26.0172121528443
-29.6450336184637
2.07283708478845
28.008422102861
-3.92649160328809
-1.1563469986243
-9.49334825089438
5.39678696187527
1.38871488831295
-13.5044123967764
20.6480059265821
16.0131207096469
-24.333215007782
-6.03488711358477
-3.4220635392896
15.3914865210224
7.30555275151644
-12.375584198935
17.8510598921201
-0.828391938266387
-19.8876976047042
26.4117070633376
-9.820529469954
18.616268400078
-21.6277624264339
25.2315417009361
-8.19977910724415
3.11134593850054
-12.6956548372447
-8.77523860557317
-20.4872923168906
7.93158354105597
-1.31888575650642
-0.310499372460597
-2.20181938375868
-24.4760354043494
-6.61108649640506
-13.8709325335351
27.5370174779545
-27.1065507963064
-19.2746639048118
1.67127370229625
-24.0802499009781
-7.98067494229209
-26.4566206046303
-26.9284853924521
-2.31701135922883
6.2869479495772
-10.8752661898873
-5.01785243062753
1.95761922810515
-0.150303499138299
20.5986970524908
-20.0016725112853
7.24442598175263
-22.9639997453924
8.48002355301321
15.5542677567319
18.4772472296396
11.7153434166391
-24.1714382950017
13.6093114271429
-16.3990114280421
-28.1782273842838
-26.192984939039
-25.6003902038814
-12.5432460992404
3.75478208312369
25.1782813233027
-14.0892850418643
-13.5126765592231
-7.02454227078934
-10.8045921042245
11.5168886173746
-18.1728051885736
8.34013744209896
15.9892586775451
-27.7425270411262
8.0842298222113
-20.2582944876194
-9.02789713546965
13.9104019747242
-15.1913152640837
18.8158435834552
14.6769859129596
16.6152161445039
13.691583820657
-7.67156791789705
22.2996324019019
-4.47310377702329
-1.29246736196632
17.501498911559
-0.984748553620533
-9.90785495266263
29.3217647005837
-3.3176921713656
-15.3468674237407
-22.6975840755765
-15.7423776326243
-31.8354026752228
5.28028461531489
25.8365405437152
3.96117895936301
-19.908745723329
-28.5090276442017
-16.303370142778
-23.7576267524933
-24.3850959448276
20.1343109555614
-29.6979393941598
-7.42301721653762
8.40674226819265
24.0833116226753
6.99867545046569
-21.7377733908249
-13.9638651746644
-3.92674645263878
-2.48651261967798
-10.3404310932143
-11.6011142116655
-11.746131502352
25.5966126000678
6.05963376455598
4.88857864011116
15.2379926969546
2.26118524981032
20.6332533327169
23.7714422738831
18.5677723601722
11.8770636979121
-9.86788244343477
9.81980609469568
15.6647666092578
12.6994837496158
-1.31181165791561
-6.16000309844439
-15.3169707468921
-17.2113486341666
23.3907201440089
2.2194111519717
8.77502834740998
9.74388107537
-1.21262218352066
23.6038101591496
-24.5574617049988
17.7858606575964
18.3108015603325
21.5130542662064
-13.0440951793739
3.91820483349887
-27.1068195812826
17.5621737205437
24.5087958062435
26.0825033049464
7.57317943408336
14.2750407148326
-16.8216328443189
26.3948280139865
-18.773859130862
0.264569983593413
-6.33330675861159
-28.2372287112832
-13.7114206180143
-23.2330103783938
8.30415649452039
-1.59086842722287
24.9699423673132
-18.463218583456
-20.2164848943103
10.5144376489962
-22.6351131309567
-14.1371715737025
0.441714286601215
3.80636333035659
8.27687381410553
12.591265218879
-8.80267399309776
19.064184901369
-2.74331096356124
-26.9099208110606
10.492498492513
19.8917858292226
13.2884545421703
-17.9258297528365
11.8267649575569
0.297068699054019
22.0575657780979
22.9339645173634
-20.2988464347055
14.7209142831166
-18.8405014903833
-15.2346185357313
24.6890683903783
-7.96286801652966
-19.4748958485044
-6.17392517110743
-12.4918220309902
-6.20574056808908
-20.3208025604584
1.55523040586103
20.3902874585485
5.09593880344538
10.72614603676
6.43729888146291
-2.15672203589043
13.6319538231737
-16.0483350962567
-16.4943400178162
-18.6427827473369
23.7398846463951
-8.07305484122341
-0.394076468589507
-5.9328838884896
-19.9395944661641
22.3200467886993
1.45122365476068
-4.60603980142971
-23.437562469889
-1.18331373136805
-21.3109806832804
12.4010779515557
-26.6327449153759
-25.8575027911946
-4.91903253098353
-7.33557927475748
23.8248242707662
-20.9275411919014
-15.8754427089605
-2.36100610673249
-18.1892948979483
-7.09106191470463
25.9451498486898
4.12486722199195
30.8430517689219
-18.9538714824024
-30.9365192371378
-25.6030900532701
-22.5786370484367
11.6429574700509
22.0527176824191
-19.2394149413763
7.26874629007459
8.82841283425038
-28.1710306804112
-12.8863311870904
11.9918707517052
15.5879200029361
22.4770422192901
-7.36775709549212
7.61334308844473
-30.6098314189644
-21.8624193153504
-31.2435514383464
-28.0226423701947
19.3568703493772
16.8177273522524
-2.92669388167983
-12.2163486807484
-22.7602875088665
8.74193250651575
5.49224542659044
-32.6359194978719
18.3393825675412
21.7003771848328
7.37467936606223
-9.23967897193888
19.4282719691589
0.530742232286164
28.2405562144947
15.0427181413808
-3.68168764524129
-10.8224269119384
-1.73015665995761
-6.7390662743527
21.9330792872207
-25.0894484136699
-3.7722667537294
-31.2625620225428
-19.9258966300639
16.2831159100432
-26.2427959569605
-7.32717916287681
16.1836154919903
13.0391054357361
-17.3759451082112
-20.8136824870856
19.964954739039
-0.363499519081427
-25.3465427929025
-2.84400332870443
4.56211759674009
18.4857844563447
-25.2687503402084
31.0747550439083
-7.67110335991142
-16.7708682640991
17.8351628133954
11.5660884219777
0.208948198998976
25.2946377449153
20.2890700572506
-15.5542153083797
18.9848567322567
15.3004134353115
-20.1432169024763
18.8995297944391
8.76505730347018
12.4183579683362
-23.9660306997113
20.9351390050643
-12.1144391704096
-6.21375144078902
-29.4548501582117
-17.106140114319
4.81608403714532
-25.5836972313676
-16.2274494195981
-28.9392582714815
8.97760262698584
-6.87380946573312
-1.88111712643732
-11.4752367115772
-4.27949384870984
0.302821297844323
-18.2002698049733
9.05684514227968
-24.809668426891
-1.06837171564874
22.0169689216641
10.8717532919238
-20.3528796232513
12.3511446469014
3.0567125251903
-16.4956895945192
21.8870184478664
24.0724536586577
-0.770350692481927
-28.3856976857546
2.68407407787371
-1.67042712923656
2.66155120151058
-10.0445355392351
-5.3709796351707
-14.2077314283434
-20.8776655814672
-23.8603055479982
20.6306002324812
24.9597937151122
-10.3236079815707
-12.6315563057885
28.3577150045542
16.7652415098499
28.1096666115745
-19.8804130972702
-7.21286731197419
4.09224741942008
14.4889925490928
-11.4298411269637
-1.62884010712164
6.24870591738709
12.4873914614469
-21.5210745523079
5.65177726058341
-7.50829790910626
5.67927857521262
-1.78508296783462
19.3940205951573
18.6571094911667
-8.19928120232918
11.1508096044459
5.23190302537768
-18.5484632717218
-5.51177878672171
-14.7217567935906
17.4689917833788
-16.2985859968942
18.9206467750658
-23.6909438960342
-7.12256706052834
-28.0294390718879
14.1742680889219
-16.8371504853366
-21.7059193438643
7.53410200803002
16.7269632525412
-9.95277082603142
25.3362227364494
-2.07666910977232
28.455424485078
-11.6422549546425
-26.335203224778
-14.8188554433521
-1.70185108761811
23.6582497134872
18.4628308326633
-7.68413042722404
12.2032342808361
-28.7579270705075
12.7336216158406
1.65814546060883
-13.0042466552843
26.5109244282205
6.90982949006699
8.20986502252024
13.6718703866786
20.9339496616036
-11.6945610074379
9.41969524797739
-20.231999511948
-20.491818937178
14.0930805785525
-0.489168270398191
20.0641452760355
-3.73626849569641
14.74993918984
-11.3508615910022
-25.7628591066126
28.095050820277
10.1243401545236
-23.6483722145452
13.0321690822078
-7.15920493519739
18.1494657758938
23.1952624036494
9.04730799459322
-8.38847770935836
4.27828031998816
4.19123108592633
-3.39771293190763
2.83331286304954
3.59922477871982
10.6150431243592
-3.12211764454449
19.7767698717076
15.7620312003062
22.5829503696929
9.52790057568438
6.38587687366076
25.8859496304809
25.0058790749579
-25.0622214616874
-21.373399953522
-17.0869483280749
12.3993228654004
7.51550837746506
-4.67206073030853
-12.4008950666429
-23.1657119913025
-23.6557837161342
-7.08564582009107
-15.8116185591712
7.89638979879477
-12.4464288309075
6.90969682982172
21.3111931153371
22.9687498406586
-27.2467936731193
10.0828832950082
21.1291794919989
-11.0575013781389
-16.7675665379941
21.9759138104194
-21.1751665182023
7.99090398238026
6.91442629023769
-29.7009916980449
-21.4352142851765
-27.6004965346734
12.4857610341203
24.336484139641
13.1382283254573
3.2460767261777
-26.8519378256023
14.8494449859366
-30.0983184967399
3.75733202823083
-28.5192812756682
-26.5623950715421
-14.3517045050365
-21.9262941983473
-28.2587880267711
-3.10793648362166
-8.19206578729975
-21.8391014732471
-13.1226540970848
21.9690501413619
-11.10696751421
21.408796934583
30.5105053052385
18.0999561600239
14.150530633653
28.103510677669
7.0158730346683
1.46823362793056
8.27751763134758
-13.2611761661424
27.6794581234923
8.56517145505253
-21.0169032255651
5.51013264308496
-10.4496599174555
-19.3069447818427
2.04163080611644
-21.4482360732656
8.86844686946906
17.2205503464858
3.96649439808157
3.11219271699834
3.26020792125958
-7.97096641280147
24.7387255923415
-32.1697893012543
-4.0481388260655
9.52503615632555
-4.28793107411942
20.4275904914759
-6.34897989547261
-21.3540370223124
-11.981459683741
13.4653394324461
10.3404425108336
-16.4704201834822
-23.6978304597377
11.9790685543412
-23.5699523414911
14.7396466106241
24.5233746517132
-0.663542183733176
-21.2593955644567
21.5890267601704
2.13900910282411
-2.17765803996897
25.442617510087
7.07004035375725
19.3228762945565
18.5260187756088
21.2545646144646
-19.2843340381707
-11.060554980226
5.66722518991759
-8.08660493603778
12.4908887546091
-5.57640392156458
9.035248143177
-27.6663883321554
16.1545586818967
-0.754127868006582
30.1746995092686
-23.1620352961296
26.1233060868159
28.2316457416965
15.0021227896803
-13.898687917231
0.267119843053508
21.9671719783382
-19.4796958371378
-21.2896050103584
21.2175829181327
-25.0357711237378
26.4648014530081
20.7799829097883
27.4258094604467
-8.49846809195986
8.59563918229532
15.7455002529818
-9.36782182541974
-27.0524552396021
17.0070078615443
20.826321292204
-0.216149833039192
23.5304712478869
-26.7287108613602
18.569210009092
13.8234354367316
-7.1150417272684
26.4956647612518
13.9403209210558
0.673935142888031
3.45308712186346
-4.84632811215948
-20.6097745522501
21.5760104038318
-5.3111114204602
-11.4398181468675
16.1039242796344
13.4498190850303
-22.2534989059964
-4.65376708051754
13.1052271929104
13.8118018607835
14.523274481775
-20.0194373473569
-14.7774776858707
-8.72952280968518
15.4900314748705
-10.2760617024192
-10.0326136141185
17.2363016817169
15.9971896923503
10.2239987528814
10.3775350570448
10.1980540160429
-21.9715859048
10.0569564666559
20.6063842777104
19.0661837369358
28.0674486067715
1.55577574692445
-20.6370316190122
-30.3225729950446
-10.1267625897393
4.68846962671322
-25.4784172503847
6.10722547738063
15.8788449443433
21.8521125574484
1.90519404400548
-32.0101774435724
19.9322574282179
-27.6142983543609
-22.5005823290757
13.8578080597258
-27.7902442690578
-21.1947550101116
18.6527363733188
21.5235544864348
20.2913766063249
0.799425343934432
-30.4066114671756
-27.7841232897769
2.80484176378754
-30.6790216423473
13.0091893642354
22.669265688196
11.8123454408353
-3.78317076992771
19.7119377022119
20.5135770607303
-12.9798715502004
29.2907473112408
10.1236962906596
10.1339549164861
-12.547706858805
18.202981054274
-8.20556383519372
-23.2415153703008
-27.2419806304742
1.91623188872723
6.42854400049188
17.2973252524811
18.7694956961602
-13.3614926848455
18.663303580417
13.7998461921753
-0.1848460917372
29.78905442584
12.150911544903
25.5751272223558
9.55517770683459
-18.4052454769314
-32.1588774296819
-6.28433264380586
-2.7194047599022
-28.0436205575621
-0.618541517040213
-13.6920996270746
22.607247902389
-22.2827614196868
22.9977957476326
-12.7614930009133
-24.8009334957934
8.2913237404933
7.68091161603405
17.6718075297293
-7.87733795383661
1.25757703467171
-8.84494532040248
-6.77884565244176
13.8425311666712
18.0418275815145
11.7864889456595
-18.2778886089492
24.2357964223176
-19.8319913098391
-15.4877637904459
-20.2862455017246
-24.7869525361783
29.5381281367994
-4.5189773943385
19.0036036470163
20.853032636319
23.5818983903311
-23.782998459752
-23.2616154698299
29.7800483219738
-20.5633682987854
-24.5088446217815
-13.1496262175983
-17.0149225175544
-27.814606692276
-21.3104658634246
23.1945120290465
7.54488585102938
-8.67689181977004
13.2414159713814
-20.7952338965196
7.08854535008658
-23.6020695971429
-7.09502671889549
-34.4687887516636
2.84019489516941
-14.9948734679806
-22.8341673154812
23.9473475729253
4.07763681136527
19.7635536827554
4.02722717191713
-13.5448016647536
17.7894992403971
-12.8510526963725
-14.2572086445039
30.122638099673
15.0232344895094
-28.3442390716441
-7.75455109306512
-18.3955263147355
-3.02602604713567
5.19115772250361
22.9645040607761
-30.2680716310851
-6.80844743494745
-27.5631205044359
-23.9213861759069
23.0846850969355
7.46819765618787
19.6107861932123
-7.2866804554775
7.76867918779487
-3.0010923353887
-23.7800628321102
-3.15477952119586
28.5265429595377
-2.32765419703437
-9.41566810142502
-18.2424502842731
7.35439233791995
15.7061781941069
-13.4920136453629
5.16325336907341
-22.7795478660058
7.83704204284475
11.8052866754025
7.57967361824682
22.5483984832286
10.579202113625
-13.1193162174745
-19.533560733799
7.00898243325103
29.8781795188351
9.12031189457558
12.049664831023
-24.3746458427715
-15.8599612544827
-9.62416973686904
11.7104403500958
2.12349577938185
-23.7057310965523
-10.3503781072349
-17.4937010767927
14.5989628250693
-7.67645928734296
27.3796922920943
26.2645280030477
-0.58831765124296
17.3698186746342
-15.104531815377
-1.1147662973277
-14.3994559999565
21.9440658000456
18.3363652244103
-10.6412842725003
-15.5955854145778
27.5250770128989
13.3062680668294
-7.10911796839034
8.57929142588945
-6.34966796228689
-18.6167444807285
-28.0367787563717
-1.97664401527052
11.3010114886091
15.4379949258732
11.438965637572
19.1303517712588
1.15856111264041
-9.03898921565498
11.5474637124062
-14.8636663613258
12.7150251059098
19.7788757359059
3.68599909092038
-8.760478505091
-31.5456367994306
26.5779908470462
9.14940967048924
15.7885174178167
21.5030008582905
-21.5882764126942
-19.1666154300298
1.68718196451633
16.7259099536562
14.0484010038363
12.2387048271441
-23.1291478795982
-16.9208758800204
-5.83624857101347
-19.7025048792588
-1.95085908815349
27.1926642182172
24.717031073867
-27.1940774455291
19.4363170448177
-13.3566133662461
16.8625911263291
-26.1411478023497
3.84251429151061
-19.0191832064302
-19.0614744617186
21.2870440379981
2.83244494979942
-4.35565081255763
-17.501289517155
5.74391043325379
-22.0708153328832
-24.0269930446221
25.7125443773308
-17.7338362031657
-28.8153718098882
-30.2092260341664
12.7774585889385
22.9927577044137
-3.69472806810863
-17.5181462001008
1.57961383290375
11.9916921940614
23.2103245719618
-27.9481925392256
8.33181231014183
-1.41200698042092
-21.7805022514036
-23.1436924704064
-18.3016979956874
-15.8553281238518
22.0167647761191
1.54855246614242
9.93996284012476
-22.9495149812986
-20.9857360290482
23.5319681496362
-19.6317949415833
1.91938292673107
8.81322031885704
-27.4618436242083
3.14419921211816
-29.8338155335062
-3.88940901404843
-23.1510243481303
-2.4400241003149
28.4362812249911
-13.1177341256767
-25.8418072110585
-13.3881584434246
-3.87885174453088
-14.6323437574984
-23.3534157896492
14.2557151819126
10.4543448190618
18.2004702034793
-22.4442238659864
-20.7743665406603
-2.72520294213788
6.44126665690813
9.48999398795225
13.490914469531
-10.7254356421217
-19.4166642628152
-28.1223532322892
21.1962625590994
-4.64323209684359
-0.53268363013987
15.0109058977731
-24.8421195091389
-21.2833092976056
25.2516217369786
-17.5969713213897
-21.7526306354764
-12.9667943976566
1.39032794177495
4.25196571628623
-21.7647711935619
15.9028688752517
1.68027799187334
5.1047099794713
-18.3785853002894
-31.2744193207765
27.090615155398
18.6058289446112
26.6636668051471
2.35215607379606
-27.0344837985437
-31.0815216597696
-15.2294443383307
-31.722028942759
10.0820295594429
16.3292897508465
18.0832883222826
-29.9284075555262
-14.5458637328978
-16.7185060074177
17.284486911856
-3.0840331477661
-14.725125918441
-30.5870951372986
-7.43570256029339
2.2098842633513
-25.2354769764618
-27.8348071602729
10.2003896853703
-30.2382725033843
-27.9112287878857
-15.7883880125361
-26.8917804680462
-13.6791724021903
28.0046380035866
-5.30808239529476
19.4315153808454
26.5969052527414
-2.80399432778879
17.5797487487054
0.856360733148229
-1.79953006631351
-23.3920483081441
-18.0163108291946
-4.74166390007814
-0.917295264461085
-8.97681758297079
-30.5267522692075
-1.82780273159583
-27.4501580583189
-10.5984729859681
-25.3359755760578
-25.6256378908146
-12.6752830397304
18.3093973529833
12.9098608452865
-1.23946028913567
-0.602013587002377
-16.1575158507445
10.2563931373787
22.0245639928162
18.898173954711
-24.2638999284728
19.5906766603006
3.01394097856266
22.5188707927774
-30.0865935354728
-24.1852685945628
-28.5890769271321
-14.9150633995528
24.1165715501758
27.010289905966
9.29711421423994
0.931001571935142
10.0150898415261
-15.3611010026772
-11.155881495737
23.822305228612
11.0496495641194
31.9730762711304
-31.1388650028618
-27.9973659423772
-2.08105290186527
3.183581369535
22.3071486943273
25.3535863387864
-19.036456389594
6.08705428929296
3.37524384763499
-16.1483947859542
-35.1033679594886
-15.9326111924526
12.9753007571335
10.4127070041179
14.9837388520233
5.60197674817841
-8.34920204146277
-17.8049405662215
16.5984783250767
-1.57550675326239
-5.53723268628367
-14.6923756525093
26.8776614348024
-10.7962903940607
-23.4543363428212
-11.2070212065139
3.04078938673464
6.92011917582073
7.78836292242936
1.34916534866176
-1.01125482841162
5.165879655125
21.0483452853197
-16.1900495845341
6.24606001056879
28.6472998766862
-7.14529278739148
-2.31015747370931
-28.5087285028528
7.28696723335751
8.6126757540267
-9.59990210643041
4.19572698931696
24.7956573089299
-23.0661939792957
5.88431191585905
-16.4074500629466
27.3671195740923
13.4241522206897
-17.2006374668615
25.3067837118218
-31.8986580401059
-15.9927935697889
-27.0605543056201
0.377673379581891
9.99131664206355
-23.5774170535047
-25.9773474650643
-5.0789449315522
-5.55220451553604
-1.70829264279401
8.89623107444452
-30.2383180454842
-24.9125600862913
14.7905140223752
-3.78983270184584
-8.36243362950171
-5.16536013632516
35.8521070419936
16.8300658435429
-6.32445478350684
24.9027336392855
-20.5187758698671
-25.5399641476583
28.6750256750394
-25.2860126013968
21.5185198354569
-31.8136655605967
-12.2290620360272
1.65924123872275
-18.5585087253684
1.38400705014822
16.2317804948488
-4.81929126300278
0.29843061380016
-2.791092436068
-19.729180650566
20.9402323976953
9.66709305329809
31.2632606378781
13.8208943524802
-22.8874167329494
31.9942046482163
5.66325067929933
-20.6158739682115
-29.0702544593369
-10.6919826221422
-9.48175975885143
-15.1841087213173
0.154371985221463
-11.7817437422528
9.16694366270664
24.1524341599246
24.8489171105116
20.6727504860634
26.2813613405028
21.7657410587435
-19.9133329943506
-22.9981215348431
-1.18965211204007
25.2997950563447
-18.4861492306325
33.5004223888362
-31.8652321003628
-14.3369487691897
25.9443425428553
18.3329325101745
7.50958959287766
12.3611220882703
-19.0938155695635
-16.3402800042405
0.552935680591698
17.9537837873791
-27.1445689379842
-23.192916643202
-29.7269017508589
28.0427987582253
-0.970131827910198
25.6815971051848
25.70888105148
13.5655753405205
-4.91203615742055
13.9177935891271
0.759675392755189
-19.6661401944622
-1.66046552157563
-0.977643786693978
17.7185654321508
2.41129243131425
6.13206670615061
5.1719303970139
-25.8386604893163
17.279090762838
-22.8956721410521
-24.5859381712244
5.64728341618211
-14.3584412982042
29.1173404597795
-5.88987406100151
-13.2191174358831
-22.972271074306
12.5380191741146
21.33719268747
-26.4798212369992
-14.3842888912712
13.6165586677607
18.1814497616058
27.6470637513515
26.9587525247599
14.6523922135314
-30.4662861868719
-9.04375017571801
-16.2495923127042
-20.7422979864805
15.6021656970506
-2.79412371532522
-8.67975655659596
-5.37185735037964
18.3078625091667
13.4150340488876
-11.8472112331444
-25.5017977903565
-32.4911535076007
-26.845778772353
6.97469484292467
-20.7140682559962
20.3392735835164
6.67938197882783
27.9668532507723
-14.5198142498591
25.2688802877528
25.0314518344447
-30.5335820566768
9.90595931425294
18.2739892161189
-23.6876561840065
2.18272137697169
14.3840116200136
-20.128969322484
-1.01852361977594
5.7092309782508
9.01030089436876
21.13284335626
14.1663391989659
-7.83918370179909
-15.1383375611216
24.0886994969831
1.02147111974197
-3.29885891794163
2.21021256215047
-7.87475765157766
15.176067643751
-24.3046182158736
9.19291725482822
18.4740298124624
-26.4853323479745
14.3788131080464
13.3478803842271
-2.09027351905117
-15.0751893651432
29.3188682150356
-17.2380715215798
-29.8128676089592
5.07232207536742
21.7013791580732
-24.1287471450064
-20.5847883593206
-5.73836905039237
-1.66564687928014
9.86486388959871
19.8235572085573
3.14842464572687
-16.7871618788898
-14.0965155961752
-19.6312535660016
12.8835510855648
-16.3429929428144
-23.4956383357405
2.31931934896538
-17.8045657799325
-19.370871658704
-13.0510537102484
-20.2959747578992
-14.5015849906158
25.0389963149328
-15.4860285812939
20.4051617744385
-3.65126927534233
19.9970516049116
10.4113383653519
-14.573215410258
25.0436987168456
-17.5768167633617
-28.4613066244105
-0.965010786784111
-12.1934383680134
8.41933511382745
-23.1771239917436
26.6666749651103
-4.62272763378261
-28.567541995697
-7.5383899399133
-27.1592224988902
15.6661605809221
17.7394802811897
15.1648204909516
-1.29051626811636
16.8789464291007
3.04069700403903
-24.0443304657509
19.7785656561573
0.134527006632057
-21.1052716618814
-21.1373214203938
18.215368608322
7.28613199236648
-21.6147357668269
10.1019542996365
17.5180909461455
2.69904339993114
-18.6405885730258
17.6245889110867
0.561003795373015
18.3598638449267
-7.02642215244433
25.10377745575
-11.4435251918977
-14.311998920413
14.8156987244928
22.4887578358532
-18.2874623638224
-24.4922373993232
-18.9380147196275
-20.2597383759003
-13.9245352810623
20.3419733878046
-18.6171501173085
-14.2634073497289
-1.87969449766717
-22.368401250027
10.5801007497027
-26.5096231934081
25.1402323654257
26.253621299618
7.9406546175536
13.5600850955024
16.7092245123855
-20.8331129892991
-21.2375951837887
28.8495470443993
-20.9444990259768
17.3454537708999
-4.80797762577464
-13.8307021318189
-22.2656684549036
-23.4939020549967
26.7824872152894
-24.2881361093109
-8.5911846614555
18.5647218684079
1.45185014233243
-11.9608827367263
-29.760201802912
12.1128854141835
20.9384279040838
17.8609340013836
-14.052852805064
25.8604605773998
22.6651080251144
-28.905644160209
0.554105228744507
21.119844198946
-17.5039685487272
3.50930136857212
31.5417572229745
-24.474673781798
31.5802995414799
-1.20796847336257
-12.5106022187134
8.98992691047059
-13.1022691300724
-21.2923388544747
-28.7703372074753
14.6515220031603
5.28451922960659
-7.39306368647159
1.07129135908123
27.1592916359558
28.0823096803394
-20.4630882806425
18.6286232997215
-31.7980523730001
26.7970956359113
8.95482843223165
7.43147705515352
-8.07841002186092
-25.3130931154387
-26.2783366378398
-20.2825127105519
8.75799975760043
0.965059202422026
12.6148590090001
-13.8384096119078
-22.825065186751
-2.43783722994026
-11.7041003623042
11.6336856648727
20.8489983604881
-12.1349407777184
-27.7021807901455
-18.7455201657842
0.836122759395428
-25.1581746348662
15.5242925018213
6.45127532799462
-9.31506620729211
-15.6652364327277
-9.62242115225524
-15.9842857190844
-7.38008488083832
-12.7176048456873
-10.5541934674403
-31.4770601252295
9.99636445613194
-13.1269508211528
-5.76532886679621
28.9856877280931
-0.631231501555481
28.9654397164298
6.45785073166873
-26.0665613709572
26.2996889187217
-9.61153558509226
-7.65116896726466
-23.934707592487
-2.21966278727568
14.7093867321491
20.5325928506602
-13.97066359627
-9.75935075386882
12.8800608512864
13.2715018767061
13.1801823295795
20.4154074560362
-29.7951000247683
-11.9494608151999
32.0635131631151
-25.3037001062176
-27.5858193445616
-12.7189153870676
-26.3326873959801
13.0180075750349
30.372704304401
15.8046596733933
-6.26142942160407
-20.4290490782377
11.0796958290883
12.866149830891
29.9799259582352
-23.69560291167
-11.6850696206635
-22.087078990067
22.7616741623523
8.16303582135937
24.6789097130743
-15.2791212428924
-26.7456120096166
4.62024904090821
11.9859262647595
-23.4843745710053
-1.54004659484753
-3.54325904565663
27.4366988399021
24.1502100459723
10.7630149326463
1.53392523731234
13.2190769851667
-28.3110178873365
10.5481095210509
13.5419025962006
-2.3182381817887
22.5792772175987
-11.4995482442834
8.7812186396718
3.31053063601287
-9.43409179512932
18.2664885835883
6.44112821259636
24.9546117750297
29.7914097404675
11.0783678358584
-19.5071772042748
23.9850750093796
-21.4706752225523
17.0771137123657
4.93750675987589
22.4216820368269
26.2297451088379
-31.6896284344266
10.6173325520322
-8.88830949927256
-5.85960959503758
-10.7148207983869
28.8283048841217
12.4365062783958
8.05191739509779
19.8865129343592
-24.7908753106341
-20.5793277082774
28.1460788918141
-0.940909161763486
8.72750490990233
-28.4105749665652
-21.8740912510659
9.07745330628636
2.46090048060767
7.34197863081813
-23.7568148483971
-23.046678393047
4.17296619448655
-8.9312714578749
-5.94405934226059
8.21545741194751
8.75101568556619
-3.42621187165643
-7.31490383884117
1.53111860712765
12.7893733487317
-30.4111927367801
-35.8062087734412
6.46367171525253
14.1856558626182
-23.824295891239
20.5071554232223
-5.9345416295006
-24.2353149370152
0.420724362390252
-0.49260284217246
-32.7063176456067
23.3340244615749
-2.18575620557158
19.1336844012792
-3.79749501525245
-28.2883600815394
0.219519897945286
-29.5842052528731
-21.5439097247316
6.73725068485729
0.651590341443664
-10.0865999491295
23.0908621449924
12.6627923189802
16.0358294100152
-7.33024297828899
-6.75785581839661
22.4614318436862
11.6099786366834
10.8379012175483
2.08484647775455
-7.31424757477604
-24.7714841781339
-26.8710056863121
-25.5879681451367
-23.8250216969104
-18.2299643108169
9.69537591710121
7.86356623982963
-21.7134480455831
18.4822158162856
2.66318391423779
28.6861502393485
-14.1353173748415
-22.2461779246762
-10.5184835776348
-26.9884475204125
4.37579615444551
26.7473656652738
7.60502327680776
-22.7748047149749
-6.28925456309564
-9.0639165814841
19.996546167331
-17.054089151084
11.1996352273134
-26.6045657054199
24.6730767165608
26.2017025882718
6.87594797893918
2.18151732784077
-1.52318663106916
-13.3188229262884
21.9103624757898
24.6635488772989
14.4683849558603
9.72335961423329
-6.75944476778399
14.2080415904031
-6.13981645861331
18.7173514584607
21.1445856520967
-3.84037625680811
25.5144002509103
22.2632846596045
24.8233146289457
-11.01901933594
5.95777215675561
10.0579757248605
-6.93974034428134
-8.82088346386082
15.1884095388361
-28.8742482611498
-20.5708670148658
-0.289066297599501
-17.770990181587
28.7184528456695
-14.567590287486
22.0756233617502
-8.63402417864184
33.1131760193616
-8.84632568267808
13.5156512134643
28.0256399575485
6.02237538853808
-12.4256223367694
-12.2894066127262
-27.3928493983511
-7.81474674798869
-9.08675554523474
15.0203475894444
9.47879682082843
23.1249554427672
1.89645636847411
14.5820205981636
-16.1527369790828
22.8262261340609
-6.62094682203132
29.1257078042101
-9.92295380334886
-8.11367257948513
-2.10864791853172
-18.619282855436
2.88291885945528
-14.7753202184896
18.1379616110267
-1.74743972154361
-20.0851970129267
-7.30535634655448
8.0506231728766
16.4893038178301
-12.7782208440276
4.17503681863153
-11.2371400257284
-8.58517630864945
1.50546360238288
-20.0556328773451
-5.66704138716308
-9.78709781513675
4.51174312709225
7.22888524320195
-18.8173442758005
-13.9011254794385
-10.2205380088535
14.6050748350246
14.0913825663033
23.0584311292663
-1.69598428240149
-8.18037617940117
-11.2733029873016
-9.00366717459002
2.00413776783446
-10.7139187769827
5.24126995020846
-28.4282274375159
1.77798656619607
-20.6044545308363
-21.2484569443434
13.2549420623345
19.0752934088971
17.2373855885467
-25.4068915764252
13.7591774119767
15.4037312122376
4.21815545344562
-13.0367835042453
-26.450531153669
2.21795652671871
-23.9486265407895
-16.361730175119
-27.825292356092
-1.39792071497255
-27.2016295892072
-5.00649317115251
10.7569104077236
-24.445816258589
-17.4099905156799
22.2129356124729
22.4519272236621
2.98632069152607
24.9325680781877
26.6306853552305
16.5861082155986
-27.3010404526138
-8.45737860758698
-15.3054553907563
-26.8794372030285
-28.1049986059373
-15.5140815803795
25.2046290840061
-5.75115088187898
-26.0824961017405
14.7874257298041
-0.255701683831294
14.0166920858803
-2.22503099950849
-5.33451616048563
1.32404644723136
12.4745848741082
-7.72951109404961
5.55866357303257
-11.2908392263414
-11.8186159551976
-20.0512604409223
-14.7723345446664
25.8393421042604
0.138750585226509
22.1619309092738
23.5916156857991
22.1143813607662
-8.69170308803666
-20.1693794207509
-10.5798703573387
-23.5379983923693
21.3160933066434
17.3174821750031
-7.95494826903005
8.109942728729
-9.88706118717114
-8.34831597487705
-14.762165650829
-28.2459944277388
-16.1827521984563
-12.2959617224471
19.1772378362967
27.4733401378067
6.0983808340674
3.60406699155431
12.0447884783009
-21.2509363707121
9.19755826763345
10.3903768452828
-18.9277711792122
-6.81925840793182
25.1782864851493
5.16763469558409
8.71956114141675
6.76718965461366
23.4535856871564
-5.92974532708068
17.3337307889583
-21.4797318514103
-22.1823082608435
-6.60775489067748
2.85993268732174
-19.1247179073159
13.9042277586856
9.68588418721215
3.54296934456957
22.0480772948283
-20.186699349271
18.565433468313
-22.2050495967071
-9.27806818250068
-21.4172171544698
0.618675047704715
-22.6968545091462
-25.0589692099608
-10.7936639031504
-21.6089289034044
-14.7174611991274
20.1984657047116
-19.2307183075673
12.8295124332312
-15.4992023259808
5.51350103607568
-29.9789799504261
26.0973596091279
-20.2432753784144
-7.57594692612188
-19.4100681083617
10.5064614511888
13.4344455733736
27.5215936609625
3.28535346037302
-21.7271038728565
24.4793805672496
19.8943413569677
12.2300324048807
5.62244227129143
-16.231126642878
27.1750651122175
26.7421718535962
15.364753611715
26.7399355900518
18.9101534047095
5.55447813815968
18.4943204141027
-16.8167899537909
-4.05074424879421
-1.13205370889109
8.35129747691041
-13.9683256600914
11.2540354367425
-20.4720574477029
21.0723521428191
25.2138582022192
-9.29447042254611
-17.5173526745697
25.2614730427295
-16.4107045217168
15.9932365611833
-2.31605124800598
-15.2533345966976
12.1917724220317
-0.915643816961162
-29.1647016577612
-20.9674495838832
16.8298921903831
-26.1363236496648
2.46691153997228
-14.2905454314717
-5.79798321446111
14.3839920087879
27.1145764678663
-12.4705714910369
24.246859257278
-3.10613186089115
15.9545761748858
-9.775772283264
-24.8782522113181
-20.098067169431
8.83222931377816
16.9521090427215
23.3406762689648
9.89349613847134
-9.05176468903633
-27.7192792441842
19.4797013355036
14.5758822334574
-18.7933552442535
5.39570558786717
11.7426323688843
18.0798855461697
-5.43529407488278
0.260507141732602
-3.60723562385095
11.3411029161189
-22.8960365339006
-5.02637119996454
17.7163488554421
-8.90990307549773
-27.2191874280368
-13.7403779898598
16.9685416811798
-13.8181169771271
-18.2353295107959
3.37991968023568
13.3430791508634
20.007925680115
26.9330439101817
-0.23444831376793
6.1627044807852
22.02154260772
18.3677097253874
-30.4083725903426
-25.4965293694936
6.3868340860752
-8.05435849855405
-26.5976799679603
-17.1591717977644
29.5846021469249
-7.62841234051343
-27.0375698040008
16.8495248259112
27.5742671422284
0.697161354266892
5.26678493272704
-10.137170529124
1.79251225703615
21.8851619303032
-17.745192260569
-13.0623237964005
-10.0281245599605
-1.31788170485635
15.5271833977128
-20.76235460407
-2.00887487775936
32.2809718822677
1.06159431120729
-1.38207717628634
11.6627518052465
-9.34269369740814
26.3397667924755
16.0732246042751
14.8366262698565
-25.857803701954
16.5109649234535
26.2686870369019
-5.76651979702633
-8.84297026223548
14.4019455584374
-9.86376816349129
-23.5807068054684
-11.899479298176
24.7709243663817
28.4471263639485
-31.7935930656307
-4.01026248244577
23.3037929885433
16.0439872304613
4.28347708963781
-14.9177242695362
-13.3016502584563
27.8392857958198
14.2736905707167
-18.080963398821
-19.5554367152204
-9.26221603833878
-24.0263621175545
21.7765318747818
8.20617164772607
12.2099335724817
18.5269771397424
3.10950812649362
-8.18867970593524
6.58292267460945
-2.76210042331389
-18.0154669256245
-28.1917142771479
19.7724162425345
11.3155832010937
7.67715482616905
25.0619342186633
-17.6452550275905
-25.3467290604371
23.0055336374074
-17.9918386553208
-25.1622436244717
6.09655192329749
17.895110759692
-25.4887978762422
-28.0812417196081
-25.4518040565279
17.2349621640124
23.2927179932354
-0.217240054262109
-23.3538227891669
24.7275471557083
-21.4411748225552
4.41249207075279
17.8263925208132
-2.13012840642089
15.4208051502902
2.07411891610753
10.4672380671939
-29.5831792059617
1.08157698126958
1.37397356312932
25.6278359254723
-18.5678910160243
-0.459810947363768
14.9355425005183
-7.71917321928234
27.7579404474339
-28.5123224571693
25.9676671791943
-12.3129921968585
-23.4240370543057
24.2852124815399
21.0694286425009
23.9447012642119
-19.9491672802489
12.6008752997413
-14.1478014599879
11.0635392542323
8.65618748872315
3.75737978009794
-30.1045888957067
8.84529835997217
20.7775941370747
-0.0560981090775228
1.06336091671569
-21.9212168222526
-2.87776776487925
-27.4153026307977
-18.1473748256822
21.9842887623594
-6.19982297525373
-2.37245866360279
-27.3034040672483
-9.68931196129133
13.0352219069726
-22.634078072633
-6.32927929436855
-13.232540308842
-10.0404743195532
9.027921508426
-18.5194121222451
10.504376693946
29.2694311598251
-20.3813395157918
-26.4361924555688
-27.8914639178736
-13.0991991814538
6.96715491672527
7.81307112957396
15.5944988886108
-1.05048343359659
16.0763479012782
-26.6191941742974
-3.17617100783284
-2.26578437868252
18.6780174418381
-26.7003117580246
9.45644123098738
30.5418213926945
10.6030534923615
25.5799578237446
21.4110160767203
21.4191090433857
-27.5360977335565
22.7909463201733
5.1567592927527
20.4856631476344
-3.26634746310574
-18.0330901859279
-26.6065996568441
-10.3459544676497
-25.6872859662929
-6.65596496636197
25.2485373426276
-8.54781632604607
-10.5965167977623
11.5284735129541
12.8190626396281
-3.21345511607569
-0.153367421789111
19.2703485541962
20.3799945781296
-7.68244112006994
-4.31474882224441
-15.7770579880162
5.71721959394228
-9.3990710741834
4.99368287992834
27.9466544215504
22.3775495207578
-24.248007135206
10.2851913068471
-12.8812089609573
13.5184683301766
15.6949186356527
-12.0478015016128
20.5407363680504
20.8875172994898
-19.7017443323617
-5.91498281418552
-17.4596153725809
21.7685205925226
-1.5202876479481
2.66361801033583
-4.41376107701427
-3.85926257172668
-6.58780029012988
-18.17204964821
-27.7082038549568
-24.1616959221232
-20.1682267277585
-10.70397089189
-20.8358780306402
2.20412610519709
21.7550744851744
-25.8060352828677
0.91907054850485
-4.54800426449858
14.4544935178873
-11.3993735761792
-17.8606456807968
-19.9275021609084
1.66395234731924
-13.346686037755
28.4148044659871
10.0748000341448
16.0934369085151
16.5304306219547
-23.4530680401445
-26.2660346454026
2.17942142303767
20.5299447662798
-7.66705822493506
-26.9634096662789
-16.5328064924506
26.0776386224479
-4.51923301353672
20.5571097499652
-30.1257340711174
19.5311393003084
-15.0829555369052
-20.8770867082961
4.56089855696977
15.6557902354981
15.3410020442331
11.901705539171
-6.46751456296511
15.1206013884736
17.4384800825853
11.9156208229281
16.0494616944577
-8.83596084389442
-27.7736643272401
29.3315103493411
-16.1327424739349
-27.1151029082121
-13.9355095455022
-25.2130857558777
10.9256447234494
15.0658021598551
12.2442639618336
7.91798386046231
-26.0914198596315
30.3566204146095
12.5584280006816
-10.8560084654758
24.9399202407907
-20.8695822287016
-17.1737003408878
22.6085930754135
9.27126165474827
17.9352416394638
-4.20266594125122
25.0339378985215
-28.214656562796
-29.1218252061996
4.2918294316066
15.9437158306602
2.57846784579341
-14.2104506463889
-16.3156618494155
25.6753612704497
28.5574209610607
-8.19011883049598
-8.1841637283179
-25.728412197208
12.6084435012054
-1.71312965350197
19.9558621171072
-19.7044157374037
11.1583559251666
-11.7056817017521
-24.5715485192652
-16.6780603113341
-19.8959861578383
9.07047185351553
-21.0486284794319
10.3176281816041
-26.1085594958323
-2.77879776940016
16.3228351961233
-16.8434413753707
4.11765781008663
24.5369439501563
-26.903138070327
26.999442284044
25.0006161031736
-24.2378501798679
28.2996792720121
-24.2799576365356
-7.1525725869298
1.48196388706346
-2.23254651569252
-8.23496497694972
1.75409635619708
16.8519632215493
9.48639021833932
3.73609730166974
6.06557947678447
4.59616751707397
1.82567037453976
-6.45205490589687
-11.75794625256
-25.1585199464746
-16.7572281442623
-11.6962359172323
13.4462556358137
-21.3080742119024
16.5360177145546
-9.5431796402392
27.2347509738552
28.5007921530239
10.839500957895
-24.595035706133
0.111506686581745
27.3889619072895
-6.07974418418953
-27.3120918418099
-7.55123437521247
-8.41849786854372
-25.9314808008902
8.20129445011807
2.78963505124106
12.7374806093086
15.7016426208162
-26.0178844557673
15.8759310995698
11.2753026715117
12.9047627504729
-6.90643840963311
25.1276815476408
-1.13943986754783
-34.7217833546986
4.84913151245462
20.9423495681026
-10.9872423915174
28.9410255539861
0.808790899130777
9.98943070605102
11.6742701000842
-13.1183648909318
13.1802449531487
-15.5065404060048
-2.57200483110274
-17.0962162720854
-3.38476691994657
17.1879859515526
-8.29003099356845
23.4839960799289
2.91673999427442
-13.253472649623
7.94969833536962
-16.015687660069
-15.7864407838909
-3.56230736939667
25.8938338931432
23.4885700834866
3.87052237005233
-16.6071171474604
-25.7715193575156
5.45891413077051
26.3008050095632
-1.26319435753272
-6.43558826447706
-1.34732667983944
-10.4981441354943
27.4142586375373
-21.4171246566957
-14.0075983794565
-19.7419304355814
-29.8959098638313
20.4840516970489
-5.37947912014846
7.41532252462282
-23.1106476648678
-6.75148817178986
-7.4074245270227
-28.6100922870237
-0.95035000439499
-11.9915787873018
-16.9159102995916
-9.93861771181343
17.9373052239901
-25.807394700334
-28.9413657039502
-14.2091573194864
-12.030997325854
10.8423471982783
-22.0418287415888
26.2355974341737
-4.9413886880707
-11.2099984168525
-13.7499386616893
3.29904658458334
-22.6416544323115
-11.3680019721975
-14.4260022279848
17.1555506708257
29.0361811244369
24.9518766345665
-1.75090325924704
13.1929033488982
-21.1715023001357
11.5174092478341
3.45320977538005
-2.03321039165751
-12.5823807641389
5.26582978564606
-22.7987937233304
-30.7923569711061
1.34466845686495
16.7071815377884
-23.8774477355487
26.0007202604526
18.0529958130469
-15.5927478511241
-27.4226592218675
-8.11779164555945
-3.73864455320325
-17.508105557965
-30.8450269491668
-22.9504418244974
-28.8552832032113
-9.46317441689934
17.5963508419101
6.87890381692897
6.53338351155389
16.8979550738749
-9.39894728458876
11.9121860754171
-25.348082306792
0.144592003958442
-22.6561572222814
-1.40210645294519
22.0002068580162
-3.10121094628771
-20.0924125753442
-17.6866117861544
1.97942406124397
2.25851576943911
28.9557642716761
9.0040110614586
6.8231478384949
-25.9994628285125
-2.90839316046658
8.97481428289161
-19.9503767761586
-7.35116873107263
8.04613831930989
29.5051054283889
-14.8991023721804
17.4772498505418
-4.10330941813673
16.6044603488016
24.5229191978367
-14.5451888253296
10.5675256038106
21.343025326424
19.4131966599349
25.3780836332088
19.6082796975511
-0.618184113657813
-21.4131990242519
1.58948354304618
24.4513857642842
23.5151445402414
12.8661712330305
1.13763929540145
-28.2552090447435
-9.29016263310653
-29.3091214931933
18.7417361287654
23.376450280705
17.5627538732119
-15.7425621863133
-14.5422267311924
6.49255532895455
-30.5545892995095
21.0146926437771
-20.0969347868909
-3.95926376027088
-20.3234839101603
-18.8449669836145
-5.56539811162912
3.81646087874294
-15.4531005282573
-24.193650599743
-13.2140527985102
16.5714505207045
4.09224088776562
23.4088150551784
-14.3023199010195
-5.40080107880832
6.89834133486199
20.5825127697228
-0.426108420341609
-1.25506721917145
-26.2241432405958
-28.2249324472992
0.283107874174906
18.6997939258671
9.5142444751654
-10.8701692884492
-11.1856199254
24.8506382667004
-10.5536746616926
28.2163412015175
6.34418714852965
-1.03789910097649
1.94034263484513
8.51485473430673
7.27005951085665
-26.3706631089161
3.06231707114137
2.36992089593748
7.3874211834825
-9.03291265984517
13.7640941300148
25.5060001053731
4.1747917533876
23.3901347550139
-3.98535938001407
17.5995323975469
-2.94203912000663
2.49363585951935
16.7201869786293
2.69989609981156
-13.9217264944726
-27.5683987769157
17.9289474408919
18.6435936526381
3.14874240560618
30.4974427768788
-11.6368701912296
-9.9035985756457
6.74104186093683
23.0427777663489
13.624021784933
3.47223437570608
-25.663815762062
-6.10373855407376
-5.5018150975504
14.5613080944606
-22.0887689822654
26.158525584669
-14.19876429578
-16.3759088324294
9.93574393930109
-26.9982024111915
-26.7219133322073
-26.5332845417508
11.4151365402261
-21.3579996406433
1.35818761969374
7.89757145816701
-6.39971253281629
21.353505610972
17.0020884765488
21.0078930267571
-22.6787038429681
20.3639293815336
7.37816872022631
0.873023629392784
19.2374162879907
9.75470536629447
-26.8812727467283
11.2518098924136
14.6987931464868
-14.3825516881189
17.0691345200888
11.3852065653729
9.15412290135227
-13.4433715758245
23.2361370315876
-15.9339033769254
1.4541741352183
9.48142542332597
6.69090353210654
2.50464213529432
-13.5496183959776
1.52868191751506
19.3651157669616
-14.7606109310455
-28.2159144004577
4.3720651950254
-18.4942270556145
-8.51550385687391
5.66620725987278
11.4198693823593
25.5625711840653
22.321272983048
-29.5564556719934
25.2186741674971
-14.6826329740806
-12.5637575413154
14.67705636576
15.064711716895
-31.830995453672
-2.4456921874405
22.9268363153758
-5.59871959001252
0.131609341910984
-6.44439191476952
-14.2394422852072
-10.4436704277979
-1.60911866864652
-4.17244879420222
-18.0096403121396
-26.3984310277784
-23.7793447111436
15.0085811767722
-19.8465523732456
-10.5931741380131
-1.41205186200393
12.5662668648577
26.5312765180979
-13.7444196119371
4.24777951454311
-22.938016925104
1.07421511625975
9.51499060824641
-19.3414273083401
-22.6000956723667
-5.00240832413358
27.8577168314544
12.0755901961927
12.6979995866063
-33.0085808535432
6.48094308527759
0.836163506587647
4.16657925938666
6.62516517220962
-16.7008327172735
7.69458076194681
17.5551771791931
28.4698230676498
-3.80347830500033
-30.218411322821
12.0667253108714
-20.0791364685898
15.1986652506898
-22.0758746240768
-7.59779739784799
-3.08466889603948
-21.8849033854101
12.678105561989
12.2000934503076
-9.89573753731075
4.05648952310587
-7.61007620545842
-3.59281875345435
-14.6736380934458
22.6321723452295
27.7371557164432
-18.4131558007289
-11.4982565569297
-10.5025666388697
-27.3324672066821
-13.1421735646056
0.827810371097206
15.6341839059927
-9.44177004591761
10.4281619403312
7.96938567464311
2.01844512514818
-25.2439584850137
26.7478959038434
9.33835354790912
14.2812355036739
11.1076428224977
-3.89220198060838
-14.9774417573241
22.7275140354784
25.7639350806799
10.3527581838957
-2.19656438570927
18.5693461230729
6.45453601842322
-27.4109311374677
-17.7214068217779
-28.3046230929964
-8.2762984738537
-1.49513470642337
-23.5823718364203
-27.7485139725166
-10.6120475626704
13.4003344848339
-16.5975314294686
-4.13802410345034
0.0251678610338264
4.79927250448154
-8.29475314554551
7.68467346354244
-22.062455631964
-2.40489599604275
-8.53117945882447
-3.40169623799861
15.0045924172267
19.5117701445218
-24.0653638995064
6.04975293459072
-31.2169676416383
10.1052182572966
23.0259167555076
15.0908718909338
-17.5028088057503
-5.1116543760732
-26.7603488488147
-25.5736763744365
10.1021331452416
5.15719373926235
19.8988783978197
25.7939172841677
-23.6061183692917
4.46137988669831
-6.5484681817526
27.2957811662206
2.31512789792687
-0.050119035103854
-20.7841565402406
-8.76255597654512
5.64198494368588
-18.0979597098055
-19.3385536673755
-20.2545473417784
-20.9669788195305
6.66403951368494
18.9384305022855
-5.33910407784247
-6.63524786848908
-28.8611502517515
-29.4221318012767
5.64334677296175
-25.4376228931458
1.62116281726283
29.2725761199761
9.83991140679232
1.23865639391564
-4.90309035716058
19.6172914796488
-29.1097273735709
8.63362871266697
-12.7217877293345
9.90256279398108
-27.4814837368368
11.9990241457641
-8.92353972668607
-2.02779637763269
-2.94400149513863
-24.5367528459197
-11.4537020744678
32.3409682643739
-17.8513694581909
10.496339241436
10.5323643150996
-29.4880791917645
15.8918179849248
2.23812253422441
13.2244679520289
9.80090478364114
7.28854546438436
-5.17261899106262
8.60215602220159
3.64491858373812
10.0003693784435
-5.26657194377138
-20.2174827462536
27.9230231186712
4.50675604448005
1.78171495406467
19.2484583938902
-5.36875973767941
-25.7091819400412
9.7349926434147
-18.2674215679251
13.2226435836434
-2.46437765460462
2.72487575574953
-22.158762527641
-2.50906411212909
12.4423767908738
-17.396592249071
-5.082139781244
-15.8565587144031
-25.3277585863363
-25.6750984085368
20.6310799796016
25.551166867405
-6.46527888383126
-1.18147307110744
-15.3786729144264
-26.1995301565308
18.5606683503606
9.68847341725469
-12.4431157824376
4.70515319402866
-29.788055777686
1.49992684842686
28.2328445478046
4.5816704146378
-4.77027360266428
-7.85879813737025
26.6931462258232
23.3768433176581
-14.7645533391291
28.3378382375586
23.2904890633163
-1.32179788718216
1.56837932082633
23.3378575260438
7.49091729915681
-17.5980527294739
-9.00089455222618
-17.3745994462291
24.1562171515727
-7.5489758290204
-26.3906820936259
-7.7408981624858
2.60677223363942
14.225456590533
3.11449136830486
-2.50706951610147
5.03309540843281
-15.2357332062857
-12.6910327096156
8.32608866139324
5.37249773325681
-13.4957656850863
-13.1054865389169
9.22712586767248
12.2543926993081
24.0266302388656
0.353551466400211
4.91649450896165
26.5353377088227
-12.0640468410948
-16.2198172095855
7.58080318052605
27.2519998424048
-21.6936609617331
-19.2051774884079
-15.8350373769619
-12.4911057556668
-9.99541895741204
17.3797052539548
-28.70535519955
7.31138867284822
-1.90859519959114
20.1396799397416
17.2496162772456
-3.83926690346112
12.25640778379
-28.9470013891617
-11.716529671533
21.7654529222703
-20.596630607918
19.8547491268102
11.141620549321
-1.33542300779205
8.88930891504086
-6.59617621702088
-0.413628632159996
-19.2851987730133
25.3320648486907
-12.6359286397159
18.1755569736311
5.61006046261281
16.8148330226295
-10.3820024316722
6.49301659740295
-11.3758379863327
-3.64302141289214
0.140294275642706
-6.49411885850162
-0.310942199165926
-10.6883861339381
-28.3894082900385
-18.6927323812428
-9.34587578521617
-12.5707480366039
-31.4264472857526
-28.9142439487785
3.24084371494978
0.859482166294207
-23.7819416133975
27.1898131249778
15.898363829332
-24.4378473731099
13.2939419185327
18.7936999934224
-5.09688141653535
-8.1817951031378
-26.0619685986858
-18.868362380451
12.9924783515466
9.56112788351019
-15.6093983595228
-10.6532334308438
-26.0120798213096
29.9095991719073
-7.78202002818664
25.7592044354597
-19.0780254008819
-17.8983564076833
1.35443642272956
28.6082689962508
-15.2575878851565
7.2459081971327
20.0188392903978
4.73024241354119
-24.422907899505
4.48659352701225
-13.7245139397406
-23.4974768540856
7.69857528093583
-10.7814066864658
26.058314982572
5.50592050182953
23.0820202162022
-10.5714278901497
28.1654446516143
-3.11969883627916
-26.5913917717997
5.17900546919989
-21.1750530393986
20.2201907905131
-7.70019926356154
-15.3580037811589
7.22833317087405
16.44244199666
-19.557670010844
11.8152396467026
-19.407005470661
-8.23151796649324
26.1482755821237
-24.4518760611617
17.9558090183416
-5.31234918500577
25.4363821934788
-22.4632556188743
20.2020954987149
-19.401564865784
-15.9867851387108
-22.0419602018379
13.88220508464
24.7153007069266
-21.935566041381
28.6170710236199
-1.66357088398541
1.27202566031191
15.7170223980056
1.00578049373015
4.22043900269795
11.8039008572719
-31.486506818001
26.5193213503246
19.2403523523831
14.2719773514052
28.1444584542573
8.59910151652981
8.9862887635564
28.1945198032623
-30.6070628770227
-24.9396173036845
1.76729073682552
-4.16666312196806
-2.5546977108715
28.5741299160235
-22.0191841170826
1.91466486252711
0.577145286149301
-2.06840518088843
7.9812057711053
5.94743414530103
5.25668117684357
23.3842986476916
-23.3308561880508
-29.3692230790706
18.6213890214261
-13.6305328407331
12.0642766942444
-8.01142248267871
13.2519578602527
-21.8086063882743
-24.5501688408366
13.215151804422
-27.6037504951478
-5.64488825557204
-5.93638394941853
-31.2723196395366
-12.4889530051478
-22.4210336011617
0.0774372204620411
-12.1671776300454
1.04817871110698
19.893446225962
-27.2839788254504
-21.0714143113809
5.75777780147584
-14.6073366300832
-6.23782666851983
-14.4840375556302
19.0948966748349
29.3450579066542
24.1900239477936
-15.0764908174403
13.6383438351417
29.0868263920263
-20.2549179090839
-20.113867138654
17.7273650833564
11.5773703568841
25.3444628807384
6.0810367839375
29.2822879743602
-20.5234668727701
-19.9926169893233
25.5551991730206
-25.4373725078682
11.9986207858326
-11.3741761797373
-28.8519079511939
1.02274866519587
-22.8438542415487
-12.7851925779051
-3.91563313609204
-25.4392794627264
0.318377705049596
-28.6805539089828
13.8586329442085
15.0266206364527
27.9401939043293
-2.80563181463937
-2.53576104048217
22.5277964723336
1.34472164395376
3.06389248579467
16.4699143510305
-16.5279093199052
10.6377785185771
22.5952634030893
-23.621074098852
-15.4537147757512
-14.3197180946359
-16.0143946948693
0.0909991428424412
-19.5785115986649
13.3697323374588
-15.1516320657085
-5.21876321623152
1.86692192261875
-24.3476246885222
-29.9741407089158
18.5083819482051
25.4703387020641
-8.39464711689474
15.6967603947638
10.3997366304818
11.0953811043053
0.521602115983795
-13.6869422175141
-11.2273228982148
30.4894746877424
-8.65864385287628
-5.5984670663162
18.0815978458453
-13.2325532506366
-4.02578945438611
13.7419359138054
0.310838778827062
5.28409142440854
0.868645449661075
13.6233415789355
-14.6710292415641
21.2419695562678
-24.2150118231692
16.3253080930951
-16.3416214562732
26.43924480187
15.5587311998155
-17.3029922437687
-11.4185846724446
-23.9722895743652
7.61141689361301
-20.825482499305
5.7096955103497
24.9077656773485
3.33427727087601
0.84198101205975
-0.550377440148958
15.6499272758285
23.0104351753789
-29.3356737812885
4.79175826137065
2.46627871420126
4.0426867922157
-25.4837757005595
17.3078547644712
21.832327877876
-3.1188644296346
-16.1805049395336
15.6265147927916
26.6751863708745
13.1569259215759
15.6523321359022
-24.4297331859192
-8.69472219749916
12.6730663894612
27.1411221182878
19.964662966611
8.04987852700926
-1.53685427255068
18.7447244886186
-33.4276910527303
-9.42741392125098
22.3628211405708
-23.2828712706957
-9.82725291050833
-15.990763613219
