3.66257235824373
-27.9488860703064
-16.6183043867628
24.0345452032035
20.8733460580942
7.45259632749497
25.1606217197105
6.07170041611819
6.8441306618896
-8.16812576436969
22.1377153552121
-21.2884237316189
3.04348297589496
22.6973670922069
-25.9719864257573
-10.1282841891089
23.3210635031224
10.1680757670036
-28.9606798984637
-4.45031431261955
-6.54805695138427
-0.693571146251381
13.7837103217052
6.97117324256027
15.2551951741842
-22.4406605229132
10.5873472386944
7.84816974251379
-25.1766741763224
26.8270316103472
17.6839001444017
-26.8213291742254
-1.06732381544085
-15.404517602897
23.6683924813867
-28.1779801253464
-24.8839275842779
-5.44260687388997
-16.2486439312268
-11.2934194389288
-14.4618759267299
-10.7964229811311
-0.222483311896011
3.18032750211955
-22.5303823204066
8.25835560202718
16.1207267456882
-8.13080159352353
1.46041961082386
9.12118798119282
-19.0608154816802
-16.1193436488324
13.8480394840844
-20.8666874953215
-19.8464859986594
-22.0185500594148
-20.6458158297794
5.60517786846802
-23.0367224715188
7.63194019736644
15.6215593404344
-13.4997944418658
5.12519045153521
13.9063849927346
0.803077307927762
12.2014690570959
7.0538473598238
-13.0850925270134
-28.955071559953
-28.7436283422389
-10.1246100696435
-1.33685459827284
-15.1676226552547
12.5991532466062
-22.2391045323832
-11.3461073006809
27.1890074500342
-11.7231529558097
1.19479303285568
-24.2006106690952
-18.4053212728211
-8.27832207926005
-21.9448233909654
-10.6178784371873
16.6850772503635
0.102257329741109
-8.84229803575971
-23.385794356519
32.6591834969878
15.2931699958558
21.2493481751573
3.77640357796369
-13.9646210582326
19.8252953146011
3.08928031000051
28.8946145673169
6.44586496868607
22.7817209486537
25.4864012521706
-9.11108170151972
23.3906125106527
2.3086854648972
-8.00952521909758
-6.74323458162062
-0.987468377206985
7.45320828946852
29.5170084524515
21.5986669391344
-30.4576195946504
-27.5155155637349
-14.3002586338975
22.1880233808951
-26.5950176244124
-29.6426723188828
-2.6350469875477
-0.819703688582124
-24.3180139662447
-14.493842104722
-33.9290588782923
-28.4736927207807
-6.22304478678213
-4.4522967626578
-1.47574926225857
-12.9408784362543
-20.9266644143161
22.6398802046019
-25.925614244301
-0.587967344557666
-22.8406451364054
-15.0056614141507
4.24338218839431
-21.7026214558529
-7.51462756387812
-29.9590297853678
-22.7655592805306
6.55277217794718
-21.9061156544593
8.88964951816693
20.3829181112692
-32.5504276002492
5.60855531831672
0.0381689813465137
-20.9697305958246
22.105341234616
-5.69440200620574
-22.1096439057874
-6.8873580158488
-9.15663215356114
-16.4293276396921
-24.9403737618503
22.265948124984
-11.7391708341894
11.8918993766197
23.439908436255
-21.3007350001744
-1.2190211129939
-21.8881578158582
-31.5862835700491
-2.51241369465011
8.30471688591062
1.33896095543658
-10.7228655137332
14.493335051696
24.2010914979581
0.568642076837437
-17.8905887969025
-0.054830660583704
27.1931546643739
15.0199620984689
25.861413195985
-7.25488511136338
0.0521718722852663
-6.34669743350316
-23.738928486313
-5.39012756064379
17.5079250131429
-6.19235562454551
-1.80169265024234
16.9261401427738
-25.3968988382576
-5.66216499857446
22.5565726458933
-15.0962510089096
-23.839917232998
-7.52546642491559
-11.4748091322243
-5.1293823769129
-3.82547781871164
30.2735737023663
11.4724677481362
-6.36387841683392
-28.1119853547583
-15.8058661552543
-15.8187294244537
-1.63367712844514
-22.9266699593258
15.5140157758037
-21.4198425796978
-7.0239061145318
-13.0061954206809
0.942605574321112
-0.670300693642892
-5.33999443342369
-5.49639351195139
5.34736431043327
-9.69319716102082
23.2513617188598
4.41956852522679
-1.21021198764957
-14.0929247617645
-23.4429972679783
4.85803852724624
-23.9669001174749
-16.7587868856266
-17.0212480443691
9.0542220833393
-20.525563240894
7.18738109604069
13.6025450298337
-18.9230165977438
14.6212940314429
-29.8807904379896
-30.4584323756884
-29.3566640914739
-13.8007991643406
-10.426828983743
-19.3366974011798
-17.12311486762
0.58669649676942
-10.9371695233477
-24.1759993386786
-10.4432514336478
-24.1944183693239
4.60891857845474
6.79001441010664
21.1204191518432
-4.02345005443874
22.6959403410802
-7.88664822405765
25.121394124171
-8.34829136683662
11.2488765607052
-22.7807032139186
10.3675615596439
15.792129209397
24.1989214437864
22.1516227749299
-30.1552894768559
32.1724700590053
25.888571652485
-35.5384839442781
-27.8212674891162
-7.71036465897164
-17.3863062263399
7.44371822954645
-0.971848105910892
-8.03401552132601
-12.8091023425049
-41.4148650704116
-14.0870047026361
-10.9881517239897
12.1663046814157
-29.5274901520779
-20.845736140882
-15.6107078719561
19.8352014835081
-6.66950348076031
15.1560018401553
6.89453330177377
-11.3505862990484
-21.3628490970799
-19.7820143407112
-26.8870353838371
19.1653827469605
16.4906216924429
-26.6281929630293
19.5220255847687
-12.7776986682377
-6.5832579392297
-4.21669072252624
-1.58158780996942
-19.8070772272222
-12.4830999774643
1.19983504275566
-7.07398028644661
22.3440523083586
14.2638920052006
26.9276417933591
-33.3611590209813
-21.0911808361265
-4.83989863504437
-23.8798237164053
18.6155273047932
-18.1954215169441
8.30038701042948
15.0824623873559
-10.1638068347274
-24.0590998109575
-3.00271568373231
8.28311678837708
4.3466879500725
-11.6818627004622
-0.812875692550181
4.48042538763522
10.9224981662787
32.118505475886
26.8073675398452
7.42607152893033
-9.35161553895977
-2.36280044779865
-2.89751725083412
-27.5662310819292
27.1738703293475
-0.606535735540228
16.2097556478125
-26.2177544847628
-6.57970946018581
4.1273465675725
8.11914345434102
-15.922473347212
-21.7887655939873
-1.89368038334766
-4.5477267158721
-5.24238234178452
19.4081749383915
-12.8668086575062
-10.1446890823612
-31.1167704749987
-15.9126437952068
-24.4151454170141
0.564391866183529
18.4867956244442
21.5085575999539
12.8951266995245
30.6790243529641
-22.4769210616464
15.1614820957086
-5.79064628874957
27.6616774718941
5.65438922789221
21.0360572821636
-21.2627232468033
7.45869551203201
18.6902043715087
10.1333524352829
-7.99744304936228
-28.5365223072529
0.0121548617592295
-15.5822433190482
-0.607723433602755
-19.2327681715482
24.159217678909
-1.07351849987342
-21.9794656711155
11.9918594649532
-34.0996103287551
21.1045832133457
24.5563181157491
11.1520618593136
-3.42098727637709
4.95673896324214
27.570967663492
-5.09971184387197
-18.6758740228245
30.2799572771991
11.6870908140806
-23.7436000231702
-14.0837563825725
1.97942685045728
8.48596147567035
-7.26219366985459
24.4634677006828
21.3119712661786
-20.4542040766356
-5.43821626063236
-24.4658410386777
11.1218626027151
14.5434036217196
6.61001072674666
3.07035659174102
-20.0422808248027
28.0336988958598
11.706900526816
-2.46555052683091
22.216036101972
2.92066756905318
1.38743808942749
10.8433629816842
25.7962806772521
19.4934541201631
-9.68959221768243
18.7283235163867
20.5025149272685
-17.3384691297859
21.6185386071344
38.9356104541589
6.78226977799738
-13.3051024932714
6.37213568409852
-22.6594607398211
-14.3868494161542
13.1267760674288
9.63833137938177
3.58702443584098
-1.26555932333942
-13.9528086732681
-22.0914510740069
-17.75269276242
39.6137331980147
6.77475689664308
-9.84622221474465
-35.1562135312429
-13.9715847460576
-5.97200713297239
-3.48025471179183
11.0634782064428
-19.4029462576678
19.7239897481929
-3.1977786385776
0.439577267058156
-19.0049212298104
-4.83108126972068
-6.56178528362137
18.7648167244658
-15.1317743994632
1.04469531301765
-13.6014263651281
-5.52473357169251
-27.0557913441277
-14.6954606131947
-7.43261127614743
4.06589514481978
-22.3093006929085
18.4038673295786
-7.94189086404657
-5.0728543244479
-21.7988229165671
-25.3776650677336
-12.3625514822782
3.93743879163466
-15.9183969143271
-30.7797670052899
13.8880159395281
-12.3138128902974
9.9679562356951
-14.7205678175287
5.13302748552767
-5.34369066872631
16.9539314302189
-16.5391054284128
16.7042917866922
18.4465825088828
13.6728034359295
-15.9356341154475
13.9440987391279
13.0764713952968
-16.0203598026133
-34.6626085782364
-15.589284558238
25.0275212080922
-23.5063709162693
11.6019217004168
-28.6349916231757
-3.67931804759797
-14.5418295133113
7.14988234857022
24.8629623082738
1.60777999667086
-17.1490833460035
24.1736484818983
-1.92716068204563
-31.7285111187814
9.13216080940018
18.8522429670413
-30.5573197753003
-31.5160380209256
8.25212808009927
31.8517486052096
30.3343135516562
-19.4428843030907
28.5174223176164
20.2823485115507
11.0731586694078
28.8386846255981
-2.03828232617667
-0.789526156994236
10.78152429447
20.1145883621257
18.8769193746196
-4.99954439264526
-29.8372475977809
-21.1688767382853
-25.5418389837915
-2.33744489735595
7.97662619686122
12.2546179177233
-24.0092163233449
-21.4494359254908
-26.7083159322381
-27.7693383722836
-14.5312039597524
-28.859115177683
-10.7332703937657
21.5944406415705
21.3625682242768
12.4828207271183
-23.5842459971825
20.1707112507621
-31.2365280686949
11.0394528045383
-18.4297618943308
-4.78364529258016
-35.0918647920184
26.431658310698
22.5777156178397
-15.4711052603235
19.8257729867506
-23.7021105078272
-29.1215411886423
15.0008553615978
27.9683571829548
15.2712443807641
3.68003343689919
17.1527698524448
25.1076944978515
-14.3545974467634
22.8054158956045
-23.3562191463443
-13.8641612581311
-11.5228024481979
28.9883733837243
0.124686746418152
26.1657311093665
21.8964460808416
22.7508317011526
22.690318248423
-13.0593511133382
26.6998942854285
-27.7883496942327
20.8663305444577
-12.7855109850314
14.2867784728122
18.3077460025796
-18.5073051202106
-15.2708139128313
11.551013808094
-34.0953525668081
-15.7327803876693
5.27252727022181
-27.666556796118
30.0712193621187
-28.5175845784838
-20.1193580456393
-9.97302812456427
-30.9658096340873
20.1571781171083
-14.1837197713303
5.28881839521265
22.6024022883417
0.167073638372862
11.4226683780372
-28.6433211345549
3.16534784903738
7.31323114491561
16.1820778736384
12.7857009956934
1.33946192238209
-30.6128615211769
-24.4640329521513
23.1338766381956
24.639691707405
-30.0632134924835
20.0427962780374
-21.5293655918681
-7.78742846883823
-1.66490118932625
32.7431474738275
0.686245424835214
-5.41890540054069
-12.6446588836767
-21.3463803704764
16.4461730971675
0.141697193729184
-18.8736165346599
-0.141331393429243
21.9827556158772
-11.3699978390417
-3.67346229160489
32.1074010131289
-8.59339275475203
-0.564307142031164
16.8265331564703
-28.5874627141012
17.7340449227106
-20.5724107387828
-16.2435233440249
-29.0961306037338
-13.3777150500655
-14.7436488019184
-1.26159791091583
-22.113100911255
-38.2755623278767
-18.2810522290208
8.07862135790763
-9.73373207764764
16.1936485068631
-18.990377290525
20.9872690073461
19.0942028054237
5.21763594468673
-1.36858731117488
15.6891292861652
-23.3052426872757
3.67374308702679
-4.2666211474056
26.7424949529287
4.76522124033082
-6.38503384206289
-16.008844945791
26.4730583831904
-12.9560296400001
22.3167550900365
-10.7712034821802
16.5290961195125
-6.7998240282254
-19.1991305093762
18.5940205563845
-29.7158826927062
20.8479811173908
-12.1752754015734
-14.560786066267
19.7409174991302
-18.8030626394877
14.8314297484676
-24.38673578623
-22.248457587423
17.1831707114997
26.7326007665005
16.9971890206281
2.22509027110001
16.723772050115
-3.17661600794517
9.68042839872881
-22.5510949462011
13.669862063644
25.3025492116343
3.63767702857409
-5.90118665649711
-9.32723880831096
-2.75989896706686
10.7735750626066
1.19307978964682
18.8760965495849
-0.902458692261722
-4.6503655481138
-11.1411705989138
18.8734672566201
-14.1287615485345
3.39693868953926
-19.8224177041098
24.8758937718163
-29.302732516982
29.5679282229707
21.8139177798949
-3.76941340036391
15.3058979243741
-1.29461543898871
-12.2980998381559
6.85285517637239
-19.5499376814053
-23.3058204115371
14.3611335826106
7.52126195195916
12.2294818683864
-28.298719061007
26.6652423562001
-13.1762791258788
-34.6221739197297
25.969729222406
-3.9957770881287
-7.46550092797186
3.29957267908242
12.2744661017178
6.69568384333286
-1.86723610993843
15.5136814199026
35.2392467857549
13.9701622968431
3.12435507119218
12.6567105307374
-17.4577552655718
0.673077971103863
-5.72146725851115
-2.16671689445588
13.6637024921387
11.8709702462871
-0.255731858980464
19.0579675987519
12.9169431151589
-31.2698862200552
-18.9501013550027
-3.09113988107276
14.7399638583049
-22.2583410569796
-25.8805122196621
-34.0819737866589
19.4454576635229
-22.3296711714955
-10.1252706697849
4.19241596539843
-23.7607100230123
14.3321381420571
-10.8107757528715
17.8895674194798
16.2090815619398
-6.67554562370225
-9.82091571595451
-13.4981300224255
-5.86806475810031
6.46531161358919
24.8033806118703
10.1216350353403
22.3778112428274
9.75239572591419
21.6527015173268
14.4873936942496
-23.9198867565032
-25.7214028489087
15.3066610009641
-5.94838247402436
-2.95224055793276
-0.52198889337897
-9.88781648313427
31.3045871812273
-19.5533684464164
-30.8427139329246
7.07352554353981
11.4232780370093
-6.68914001438026
-1.19497859137736
25.1852728196718
6.16354232581473
4.0620455558802
-22.858057720124
23.0532399493262
2.34198357715025
29.8244126439824
4.10288413705236
20.5873053398732
3.9431700300681
-11.4867146322275
-26.064268133713
-5.92818626115213
-26.8564019517614
-23.5752483461049
0.815542112450545
-5.86319335454327
-23.9667327362651
-22.6066343819991
-11.7104431306739
13.2334360066329
13.9372095397452
-7.15882539905373
20.8838837060008
33.5961177449963
10.0414461032097
-16.2210558025192
-0.373066635053673
4.84929097378167
15.3567576317377
-2.54954683315818
13.9828733959019
21.4410844920782
25.4860311031595
8.16833640282886
-16.7402406590372
-17.7189581179605
7.58331674135791
24.9061048366941
-9.89652917092811
18.4821150797497
1.11874424888356
-12.9415299599621
-26.0309277426842
-19.7974495103816
-12.577920265293
16.7986036672935
-14.1632470792616
8.92305373858713
12.168410472024
-7.28082326953129
-1.82015065517904
-9.0474490657887
-24.9644698231017
6.89325551149083
-15.8928867716065
-31.594227350551
13.312135383372
-19.946182467274
-32.5769381249252
5.63691140275894
3.77218888071633
24.2202107317651
-17.1689531389534
28.2558917722176
33.8197597904419
-25.4051420626553
4.30218948294244
-8.0719579634842
21.9870887927778
-10.6370376256232
16.2136621042453
-13.3895052119573
13.5373159429466
2.20713780950482
-15.0350836461967
3.71969232625954
-11.9854275299472
6.20246892108943
10.0802023843932
16.9981173546833
-25.9917812016945
8.82434985983997
22.2038844744054
-21.885051088224
-15.7368034282333
-9.40557264941941
16.1777158652197
-22.8240195962176
-0.879820513189179
-29.1062557534956
-5.49521627906415
-5.67202437257804
17.5952496494219
-26.188576596784
-25.2120876466268
0.451486514013633
-29.8421165213523
-9.84078063707103
-0.910351950963032
-13.9546158593021
-24.532014838519
29.8876936410841
23.7271948584053
-8.96606252834405
8.03453786490017
-22.906349248027
-1.06219243086974
-2.8253880476935
-14.5980762889487
6.55228746129426
5.14499159468287
-11.3160918669445
1.57040809847501
-5.97280162956152
-19.5055892743706
-33.6867567150777
-21.1921820405702
21.7457354334565
15.3409796195205
-5.57302179709258
-6.66826180600457
-10.8429841680039
19.4321514602565
25.5627989033366
30.9293474384765
-1.3050099206025
5.60023739750802
26.2742915201254
6.45281092982746
7.94198794204498
-11.1328695291265
-22.4149855698955
-14.5800889252799
3.98891323895522
2.18585613809957
-34.9740884877885
7.85516489242598
-11.2876534390525
5.31777416518954
-25.7327066487503
13.6669510895949
-12.1462116776814
21.8718339736761
9.93437722056545
-10.4045888495345
-3.51090055292854
26.1082675418825
-2.35064696302972
13.8021964574719
-16.6799682319043
0.493895232797141
-6.24354078167068
-14.9148170406789
21.611516106898
19.4436126771189
14.7881873552879
-32.3473159660611
-26.0717250692018
14.8475182901296
-6.22256249566825
-0.671572295549741
8.78418860013618
32.7596903880359
18.5242495413876
-16.7757574158983
10.6045528648798
24.3466999777074
-13.4877188971701
13.3467737509861
-12.0746005761762
-8.46152903420459
13.6857070349387
10.5803725512155
15.1465374622575
9.96265125979107
-30.6259192364241
-3.47334823939617
-16.0771668238742
-9.1225655164561
1.43332826495549
-9.52951868254113
-11.1413213600728
-27.8938961971687
-17.7389225984171
-9.30494931362442
-13.2530170371337
1.47356603518773
-18.2103039020549
5.27774458375791
5.79451243470567
24.3445504697841
5.64622520009283
13.6986951416493
-28.8730828367028
0.447983195373465
-25.4753346351218
-17.698036418454
-18.8133147045588
-11.7983776232639
-2.32404236171617
-23.143769787939
10.1783783583742
-3.62447985900588
2.94191023575774
26.8157725001755
18.4320876437076
15.9860923532879
-0.279889375926853
-18.1920530121531
-0.92073692875299
-2.87173712589579
8.74020357310672
6.77127164607603
26.9607167449588
-29.6556467560959
-36.6130812151786
2.42239528522118
12.4733963744479
6.28836342745214
-17.8016028732015
-17.8161418587266
9.57397319933806
-11.4380462296271
-28.7357409448141
-18.7964792399297
13.6835469289277
16.3889492289673
-6.07892682864746
-25.7638332297576
9.82779956732884
6.229472367888
-7.66890123886879
20.1547263409221
25.0605632034794
-22.3171685529349
-8.02184189387707
12.0263350246418
-6.88238019441365
-2.62114721148223
-4.9205028374365
8.07013426254813
-27.7496572080305
-24.9758426889578
-25.7593927717823
-14.524638487766
-24.2819945352506
33.5594538029615
15.4084367930931
-37.1855722170254
-4.92741585440985
-7.84591659861446
17.1920254766688
13.8024536803425
-17.3638116237736
-6.3455916942035
5.98017790205658
-4.2545785104676
-3.91052270898509
-11.9579018748604
-21.9777335833007
26.385099239501
-22.0452004400242
-4.85634028446393
-1.67843793282304
-28.3060715744914
-29.8746153202457
-35.8283985088718
7.0025972130628
13.5115210035891
12.6501433660433
-5.16803019161125
-25.7986176670871
-13.8091173581015
44.7331787929361
-0.808256174358116
-29.8879999106864
1.0152770731077
-12.5154379648383
11.6531914958259
-19.6442987838378
11.0635038240181
25.4391581778404
-2.35655081020004
17.0102555266126
-6.61721093582847
29.5976047166867
-5.18767522538919
2.65447604492406
-5.04541854647607
0.410201717668995
18.9467367158219
-8.38435516550171
-34.9713949425992
-18.621216107334
-8.82443178115817
-18.2975650837677
5.41742401098203
-15.3482520777363
-36.7190462487806
-21.3489940791848
-24.9493935455986
-18.2924092004086
-17.3334440811067
-9.61872465084831
27.7979778376525
-31.7878130132428
-4.54781057227253
17.5466386239583
11.4956485068206
-8.10643936078453
-28.3872928497385
-11.7986830254569
21.5457209636227
-3.06618439006699
16.7382452299054
-27.7905221594121
19.6842047714339
5.03889827659779
-12.8005070520743
-24.5336513417111
1.67429844342941
-12.7837278358742
-15.1269503806185
-11.0113497855524
24.0475528438695
-13.589178926353
-13.8293341517069
-26.1977673560276
3.6023027363516
-14.6270331409759
-8.77803965942405
-18.1013866483876
-16.1612785283628
-14.6650122286294
-21.5188654848463
5.55622725549977
20.6371114556623
-25.714536238147
19.7268240306145
-24.827791908527
-8.74871428886876
0.869427787836536
24.8845889372575
-28.1857734418646
-9.05730584229888
5.17750882398072
-15.8270040198998
24.8643492299116
13.3679764541189
-6.40729754328793
-10.5676169791521
-30.8756833398241
-15.2130895295726
25.1935876551518
11.9352849664963
-0.106374489581557
31.6561232152429
12.5573299533038
-4.86974228558906
20.7136195426899
9.43453508459835
5.14142457389547
-15.2338422303183
-6.94324769448319
23.1125532731234
21.5798427968216
26.3556320808185
-4.84342348909292
-18.5406513884832
-30.7493166152186
-12.4351877807866
14.010732719131
21.8243161013124
-20.7542096720421
20.9949849335844
29.0460619915215
-2.25858307061553
-24.2192711717945
24.1820241233828
-26.2322540135676
24.7429967914628
1.7879632949102
-12.2826949495123
-24.139324511023
23.1532823725809
-15.9801966163254
-32.8081663816242
-13.2087825466296
14.3933660793116
-9.85183597392003
-1.14153090246247
-31.9246950322241
-3.28120908658161
-23.3346255034473
-7.46182029817869
24.8901443089909
-2.11140306366767
-9.1360483252683
-30.7314920115713
8.59490008870382
13.3051202968966
20.4252291855799
-3.28908581246375
11.3624806577551
-20.2328964412738
0.863277990207206
-22.6476179505603
-29.7062887139094
-16.3864276381516
14.8123390458568
-20.5895100109961
8.01645861085171
27.4737475163058
5.66052068442677
5.38895862902581
-14.7983175762183
-23.6848220494892
-21.0649736846537
0.172438533071421
15.3314338843365
26.422208931133
4.82581190593913
32.8269376478467
16.8091320305547
4.10043846600675
-21.4518938401371
-19.0163397430241
15.5575607569521
10.7897516222292
15.8240895723249
-4.80610514391232
-30.4013577164012
-15.5068599005822
-8.17541650595396
0.160564559165556
-21.2208234583636
13.1995726327266
-0.0145089308938285
43.2991135609871
-21.6606862563105
-18.501250823269
28.0598534024786
-20.542196988042
20.3346814997089
-22.6010664692025
25.092884986265
-27.0490338689328
-23.9217273848358
-2.87352545236038
-37.8457078795596
20.8745942742477
-4.93529936580023
21.2046641653514
-7.53619559529578
16.4832428177121
-21.9469223861205
22.684815844984
17.5222108570827
-21.3679107791593
29.5362582766833
-2.60506080611868
-3.87093122751662
-7.29964210096363
-16.2287403799175
-23.1270582815178
-28.830530034199
-3.23761649440663
8.06274453540581
-40.8728843739943
7.24459893503964
-3.9237894672919
4.14753751038657
-21.6588606169313
-12.5055170892732
4.53115124546927
23.4341245205809
-13.846631403026
-26.4752775385607
-5.01584952593458
12.8602084950664
-23.2099816683609
-8.35462197915993
-13.8141810832002
11.0436909776494
-30.6933770808552
-21.6996986790547
-22.6623433670088
17.5166844035296
6.96590042382838
-17.9433827920773
-11.0033736217438
-27.4038054316289
-11.6853426413801
-28.825954111282
15.5806892747419
-8.06202323075967
16.3360447535814
16.1163417618844
2.33837143669057
-19.1679026203858
-17.5203863958413
6.21886570919226
-28.9356703078982
24.4490517636157
3.06039372111747
-16.5654600329111
-27.7193742273543
14.4817156225219
27.7937477196444
17.7490313198727
23.6836074314797
15.6131578617517
-13.9299280226496
-7.2940120251787
21.2978644033864
-32.7907865455096
-13.7631864273405
0.639178843517205
-15.6765816591806
-23.1448090457169
24.6774235195243
4.93036033809264
31.2747599909324
20.4876694444559
-18.8053635417048
-11.4529981448668
-28.8260351780695
-28.7909348560835
-0.0149794940136131
22.9206752038591
-16.237886937489
-8.07349814318787
0.0455644822852829
-9.14141451702131
5.47002655892119
6.01472912011857
-23.0554758970147
-12.768285559548
-19.4134446169518
20.8604634984926
-23.3198700228532
10.9501414858415
9.47337820348177
12.7825821840689
-10.3169906390231
-13.8903194425602
16.2118839818141
20.1501048940067
-15.5199538862556
11.1034750768606
-22.5418396854248
-29.0489617322355
12.8794583691382
6.81705271241
-14.0127270628542
-12.9104128131021
3.31780099306556
-12.730453011462
-1.88826663892324
-22.5204714077157
-27.2185427495329
-28.9376862381785
-19.7367357346889
-21.0075699661884
21.0579246653297
-5.80475948840468
-5.68363074494559
21.8907275985649
23.9358964671059
-18.506812837187
21.3181842187467
-38.8426030461777
-12.361894535878
-5.88296432719129
22.6624556213035
0.0358938065230072
28.0750414684717
-14.9920988019427
-8.34632086363846
24.8236253247309
-3.6727739449443
-23.5293547287895
12.2995215502674
4.57111707920028
20.0555746079331
-12.6816105179504
13.5761763022269
24.3378776911669
-25.7685192880146
-35.335476590234
28.0856355764159
22.4574083624346
13.3892729199223
27.6888260278779
2.14988766883763
-29.6618686191624
-14.6630164498445
20.0215706632875
-31.5815720689309
25.4752377940608
18.5814158161791
29.1633127230476
-20.9823096638623
-23.3768348615706
24.2463724328191
-25.631225038881
12.105671665921
-28.4430059528213
4.69338470101499
25.6363791633418
-15.3440730181691
-3.87787993963476
21.2200563552456
18.7748416642323
5.37369546208247
19.7613291661957
-17.0739081027091
-4.94317895107107
-10.112687832863
-1.12833661851308
14.6168224647313
0.482088155659016
19.5675772430674
25.5156279835212
-7.26216885575019
-18.9124236918676
-21.5189693944559
-6.1218191523333
29.1472066416192
11.3636461053868
-24.1712755215571
-10.2759635526918
-19.208456043939
-4.91228031278872
25.1457362684613
-10.5938132176277
-35.2508522960961
0.881253978990586
24.4865074148557
2.79054016739204
-2.77285832850923
4.78785441166724
-22.4227333937222
-16.1343490402501
5.71268123149088
18.6085613214451
28.5780861363185
-28.6772118848761
-21.8324153244318
25.208955986864
23.1107282920358
22.1980643092737
-7.59512934639377
-6.62161814938597
-17.2637962713925
-14.414700991302
-15.2031989039929
-19.000568875623
28.0397085190202
18.2214162971598
21.4802060511507
-22.4784172677379
-7.88422860021704
-23.6953102574738
3.27381849545805
-23.713976432495
-26.9863912292801
-0.816018077647816
13.6083885879944
-11.081734280373
22.4630532713331
15.865273359483
29.6774721448712
10.1374510233693
-17.6685326173164
-26.1953880494128
-13.3447462984501
4.06092043447801
-21.695560027752
-1.61734542188297
-19.7458632675948
-17.1222590636253
-6.33885496773625
33.8620408245233
24.6256199523566
-8.09827896525852
6.37728867050699
16.6927566943846
-9.37188541265413
-9.90587307280896
-8.36142487292983
21.9765553097578
11.0118959517213
29.3027370411828
8.93492002443341
1.42346180297875
-19.6914145373487
-17.3772536100696
8.30078197278553
-15.0220030876877
3.9671047089958
-3.50955462513652
-19.8958175983909
-22.8390035905315
-22.7198702338279
-21.2586504728421
30.3621716276571
15.8218541662932
-12.8519849476129
-21.8048035869641
-16.2911600917054
-2.32147306329755
-24.9771126198349
-18.5864649083038
7.43872204347968
-0.0224879171255799
16.8727615714518
-4.59641523600595
-26.5702701862609
-11.3177923743937
-5.19862138857206
-14.4219771375966
-11.9088503421657
-14.0412810287203
29.6005408471992
27.8682423068853
18.0376588312444
23.2798314000034
16.81355296046
16.1865338000213
15.3136740528604
-7.74077855771768
15.7450015894399
14.3792870270804
25.3448963692822
7.37353573094546
-28.7158094049117
-20.8907131161377
25.5901231758963
3.9624134550442
5.29351139234038
-32.650899483733
-3.03541629885772
-20.9722725064902
-12.4380753610974
-2.35940309240308
31.2677291777067
-13.3568312188148
-11.7715553770576
-16.1580994933084
-13.0536666364906
-19.7753860287378
-29.2223198614887
-7.41450222231484
26.8352576107296
-11.2837663759208
-32.6699758718327
31.3413040932216
-19.0296540605053
-26.9874749300758
-4.26875499615115
-22.230385715675
20.2410700668277
-4.78777398813366
-13.0719333447959
12.0941029691665
20.022468314261
-19.5547969934829
-11.0115012445845
38.6532634251897
4.2306493581276
11.3568171895825
-9.63680162750921
-1.04606274208092
12.3993405098485
-11.4340017177041
3.98430231850347
-26.1601954088766
26.8760905970696
-12.6559497804536
-33.0501186940511
-5.9765209550163
9.51262992663346
12.3215503815728
7.10203248311504
25.3828027827696
-21.7084430953771
-2.77653837359064
16.9861451033564
7.9809397472754
4.36522917917092
-21.7415361494026
21.831610096949
14.2402363411082
-21.0055950745983
-21.1148938799988
-19.2469629867992
-32.2329942739842
23.2607269041893
0.284690547956616
6.88357866712855
6.95237038546324
-20.2795050019608
-17.4816659480956
20.0778519943709
-7.34042815887273
7.9331033450218
0.661228135586398
-2.97246652972469
-9.4371594244756
3.72359706955001
27.2193941647633
-25.4880649728262
28.5969690182574
-17.8913000181762
-25.0197587135416
-1.99829434951426
-28.906637203438
22.5768857142842
-1.66014146090563
0.0470582218867965
-13.5040186021771
-14.4235849752106
15.079900266919
-0.131007208633953
0.158852188533046
26.1348347796776
3.79265093476294
-18.35676948991
4.615018853847
-22.0071285861473
14.1802633853453
-23.7707626391658
-18.7244114520104
12.7801804760181
-0.409212491052502
-17.7052551906299
-8.18513538634421
25.5175282216736
-32.244872211643
-26.219405556244
3.64965134511343
23.037979234772
-16.0159963872556
20.5962224016351
2.83109697972269
23.8608791242519
-28.2913704704586
4.71337015954846
-11.2740029649986
7.18277874507679
-33.3636669990177
-16.7115655816165
7.88908872485573
-29.0094676890187
-28.0951864112594
-18.9038571240228
-15.2316828449882
14.8937480179522
-10.3533010470048
1.50077142139548
-15.1864047302889
-4.08581844537175
31.8222295797724
-15.4658801786786
21.41363220101
18.9198156471911
12.7525514099827
-16.1786261526363
9.49015643708982
25.8506336199887
-21.2841765075081
-13.6519705740283
21.7881671935634
-5.92266685342659
36.3823647509615
-6.06291668606212
-25.3817593496703
26.6081479418457
8.07041511872057
-3.31597801779481
28.1958741777215
21.103255981869
19.8362586760919
15.3218723375457
-23.1281448412293
-9.67344631035321
0.645167744180198
-7.29254539628776
-10.3450886087913
-29.3537520271573
26.5996031965242
-1.9196162794022
7.3752372661791
-2.57766397731399
-20.4116758562309
-16.5322767329125
19.8549371403797
18.6578476523529
-25.0405840162219
26.4009027892931
-22.1082274772559
6.26561088889416
17.5078424518357
-8.1404735767246
-1.33529064071846
18.1657897698024
-6.1298767673399
-9.62946527600511
-26.3416457092222
15.1907336177452
-29.1315729925674
-1.06937642988347
-13.3836678047408
1.45271050384512
7.4097413578213
-20.3945176941228
-4.40497667203396
-20.1716748195569
-20.9004311515273
3.87950347800181
-15.1823946023343
14.8642460179006
24.1956304808733
15.8868646125507
-30.7299723306245
7.97114904408475
4.00653958181628
-16.1869395793082
-18.2767299346769
15.468852966214
2.55512998967434
-6.74934191165999
18.7487870581159
16.9548065610985
-5.70623469658757
-26.9940742981036
-28.1719031688752
13.9984713904792
-20.8891155402439
2.40473028183689
-24.6269095779151
-17.6947222534236
-21.7619149583023
1.97088418177079
-15.3090079100241
-5.5481316036781
-13.4831048654369
-26.9919337607071
11.0186438537612
28.1302458496758
23.0305764371376
7.3472200628142
7.21466033404484
14.1407367029381
11.8226462870813
-7.839478212564
14.5436691908094
-24.5809190931701
2.2554039317396
26.5935080781159
-18.9398226236781
-19.2515683564158
24.7913523356747
-15.702410170595
-18.3081709123618
12.3450076242896
12.4392258147419
-17.1534354377109
-16.6931515844957
-5.59122058357357
-28.7514664668491
33.4628034888118
-28.2986189368133
9.53648673833249
-6.54592727966251
14.555562791701
-0.472256114541247
-16.9343227097667
8.70148602476577
5.1549668722248
5.70776428466534
-7.10912723932632
-7.76802563327665
-7.30596054381944
-30.7848904341576
22.8799834133811
-1.65833791978369
-12.473749485019
-25.8868528855166
39.3566723259434
-7.41062725491795
11.2740621565608
-21.4087955342223
-18.0452210156249
-33.4358663256951
37.6598744406639
-15.4378437999941
25.900164705841
-1.98468431858273
-24.8102791325912
26.4424470417591
17.9098300071316
23.954647487049
-15.1767838733762
15.7583275674989
9.50049237496007
10.5101642326108
-14.7363020874775
-23.5549917431197
22.5591475144051
-28.3530890844889
-6.49489507367232
-0.366219792072813
21.2738382234088
-16.1731674821606
14.0988894007997
2.89743320727732
4.34396910155761
-18.3747689085367
-15.2744816756392
-7.87580360864494
-0.903930466712741
-19.2457216780084
-24.9780737092959
-30.7074280422116
-13.9348111357757
8.69461117181836
21.4016460447794
-1.901168200309
-4.71744814254966
-2.53419057788825
6.83082341710635
16.328800903971
0.0360319301200504
13.2629896713427
-0.0687673915240622
1.5001971168483
-18.3722492721197
11.7507237645251
-15.2909157035678
-10.5444467451669
-22.4829988683932
21.7681626547842
-24.7314022537976
21.3218417088312
-25.8346720482832
-8.96570568158072
-8.86085261295249
21.6302171102159
-8.91487154985092
-18.1080729015462
19.7255958943558
0.0154235257368366
-4.37323380471996
4.54514507230567
-6.88574702543294
8.49484804550627
-4.87107715775671
3.19415468342921
2.10060469464528
23.4369392803597
25.3693020392216
8.99946246440033
31.6272039283922
1.99797290393425
-9.77499163365993
-3.25208567089991
22.2500507133655
-17.0154880277467
12.4508777823635
-17.525381968236
-16.3771970960872
-34.5591857565843
32.3317551826726
30.1504372776743
-12.4750485171396
5.54629392953661
30.2032079629873
-11.0725542940198
-32.3353008258293
19.8340772418293
-13.0312388972303
17.3589230018081
-7.20873645337708
-11.1921644274438
5.32366994522934
-22.7586388815547
-7.06376439127402
12.5060885925068
-11.6414381375527
18.1080016425344
-30.3104441607171
-26.0469170939854
-32.4747781511859
-16.873891275798
-3.75348650568286
-0.709850595519692
24.0970385668534
13.0790002753133
4.26147196434138
-5.9598063956141
-1.52311936444699
-16.1075348504264
-26.1835244317605
38.8078294388637
12.9743978451555
16.3165130035336
-1.98875946666317
-18.0648053949724
-0.0227041676580409
29.7201673648502
21.6448938457953
-10.8724502283574
-24.9173106244138
11.941677492201
8.97160029778789
-36.4283067921591
-9.23223287739542
12.2684551457804
29.6148025760677
-14.4877001973451
-16.9087776283489
-28.7568222832385
21.8578238006542
29.4931635945869
-18.772115876476
-0.470491642196761
-14.8379471482853
5.84692595064134
-8.47757726385248
23.8086184129296
4.20115505661294
-18.4408913817379
6.39147741520641
2.86058094032986
-24.8408330136897
20.5112653784544
22.806162408526
-13.8113536249514
-10.7439659856954
27.7455194640922
2.72520681168751
-40.1499641522842
-9.66507507452257
13.9423696015255
-23.2444941073307
17.7181570020736
13.6880382113253
-17.0612560693337
17.4990721114121
-1.47129535766598
-31.4288465139782
-17.4828201812819
17.6215429822657
-14.1576181093681
-13.8047352814063
0.271534898772727
15.5764323277957
-14.5537547199161
15.4518719293775
-15.0138233162592
17.0650867244288
-18.148528254934
17.1279241924739
6.41374778304741
-23.0321532631181
-0.0577667408735272
6.43353460558357
2.51562040914806
3.94895788490915
10.0929670389721
-5.56568170499981
-22.9472500512726
-4.04686605833706
-26.4068611347172
14.0437838301839
-18.0346256409437
11.1208423265765
-21.3168194731112
5.29390407651179
5.45872591152093
6.79579300981717
14.970419758407
19.0377630549438
-27.1267890709325
0.518272304770064
-18.0780535318172
-14.8280148706197
-21.8006549388077
0.638054902619843
10.527359529121
-15.5263947672006
-6.21254395626454
-5.22737940514799
-27.9163173702296
-30.962197168264
-7.3106796840874
-31.2731758872472
5.31959432501223
-8.39028554545953
8.48198129157567
24.9643114652853
-22.1747627062284
12.6552912762468
-18.5262081472119
-28.4439549303357
15.6851573931809
24.5975098566784
-1.40689981521619
3.53902551382768
26.1606175290114
19.5080310661135
-11.1240699316132
9.30077414568501
-24.6285348944982
11.4496313080591
28.3867927849267
0.0337476678511631
20.0717953988409
-28.1214552700201
16.3826786568571
30.4778022310268
-11.2651599039092
-30.5071278375521
24.7626583547585
-14.3669066578372
28.8668961137117
7.51351792899374
-13.1626629048462
26.2436441859045
-6.6999067304399
-30.0724354804151
11.94036299472
21.086971263053
20.7847566180031
3.62271514016268
-10.4446018410021
-7.89507354432555
12.6553130239871
34.2560617067792
15.4192026042464
-20.5390859439514
13.49850834615
9.25447296286888
-0.643891977202809
25.0528421802097
16.4594105339642
14.6490916007765
-16.8475708364695
-25.6067467114948
-12.3712319606156
-20.844426249778
-18.8744838490549
12.4510311740464
-15.2447380052639
12.2497013949399
5.31235072491206
-7.73900466844657
6.67572269763729
17.5579900084615
-25.4911663253711
-26.1320777233524
17.3137600913206
12.8813798521853
-24.6903034640201
17.0104695652384
-37.4088323587245
-3.78044548336594
29.2897729805364
9.95881564393643
1.38881438393566
24.9529892148728
-4.67870303588967
18.2482259022399
-26.684321649691
21.626852554983
-27.0595547064368
8.35130779825429
1.32936466600508
-22.3586210683758
-8.1610929603758
-21.7793052607226
-8.71169139820443
-29.2158545556133
16.317287821397
-34.8494041520488
16.6937983012911
-18.7471253904535
11.0006028197608
-28.4770379088122
20.0599594095413
20.6714916567457
-5.12618805048653
20.5621824737599
22.1692910835944
10.9237835047492
2.83184415705216
-19.1593204001838
7.30713644179293
5.11773780081684
8.78326700601773
0.373090406728977
22.1329956880058
14.5832548455079
-8.5413519773337
-3.40557807773388
19.9946178797242
-18.2076481297438
2.11105276569699
8.86977786197695
5.31309984624887
28.069009209574
11.0613965122775
6.89638484909938
-4.94676724455021
26.9789833766523
5.51147875468958
-1.05877493946143
22.4453028376763
-22.7964054656635
-26.8404294230738
12.2335760330441
10.1850352149115
20.4508150456462
8.2182169751802
19.9026711924854
-11.1676208868215
-2.81891036139123
-25.5975776489972
-7.23976244675323
25.6126016556281
21.0235461829607
-30.7291910485306
37.7801584682477
-3.84515492544643
23.5021959715307
-9.99052895816324
8.69490951596223
1.71142602348668
-11.8171041171032
-27.6459480632801
1.68609944089376
10.2272619397458
23.8933419676173
-15.3846281102663
22.6785678427448
-29.8771374110651
14.5913419771714
-0.528287566307552
28.5788037820864
-33.1688045192205
-11.8400087212122
-12.4922132576586
-2.728138745918
-2.10600240157643
26.3336374597441
6.93047208632516
-27.7279821249488
-28.6071104918167
13.5052915324773
-18.2140890134284
2.22646159374055
-5.65350358442964
-29.2981918095666
12.6729813198769
19.541850886628
22.0280903502712
13.9292819860542
-11.5422050323152
4.48683058320853
11.2965243310845
-27.0926775955095
20.4985481089329
7.00371367088589
24.5921041338166
-2.88780254611336
-18.2006158337513
22.6285631126282
7.72268681115563
5.41827250239129
22.1198122491492
1.24487376475164
32.0527430281683
-33.2167284471599
-13.4729913235177
8.03404038461217
-5.9974220405389
8.66899122642695
-5.38466134364706
-7.27769664246482
-7.00173919969293
-24.9943922102685
2.24713293599219
17.2267571835349
-7.26747858714121
9.62907229707889
-18.9428317729584
-2.78992997853164
-19.5517860890449
1.87066861909118
22.5493582818404
-15.4479111739995
-1.27932010036682
30.9454311202625
-17.2403061581806
23.0026061823627
-9.42855407472752
28.3999788713373
2.74460445796684
-27.673489513005
17.1258954676334
10.4161143031104
20.3204054031444
-10.4756258670745
-33.018864385306
-2.95881976951377
-3.53142919237797
-18.6143224883343
9.71958290912437
22.7181310560673
-10.0554196925895
-6.40947915477367
-5.82536033979258
26.0639070757696
-12.7594928465461
0.219463729557175
-8.21418754630289
-16.8526862897293
-16.8189378125144
-29.338734400484
1.52226445959626
18.126953197374
3.40005764994159
23.9881030128702
18.7252686021963
-3.20831829379441
24.9686017902533
23.0527804206984
24.374814495461
-3.99746370611248
-3.30128659503216
9.59681239571921
31.4320849192832
-10.4355726298949
-6.66503970274686
5.46274442979151
-6.93448310437398
-17.2403218022272
17.9379415721236
12.5817985593655
-13.34007207943
22.2153847091177
13.8947757706416
-16.0149989242638
-12.2602923073888
-5.69813004838698
11.1630082703634
9.96902150677909
14.5539684913005
14.3064150074562
-1.64409141579956
-17.3849193940395
-0.211376509643476
-1.09872521808744
4.30189273946972
-23.487858147084
27.2309565599668
30.5970977007534
5.94685051935709
2.7181684757387
-1.90916082752095
-10.8070015651507
-9.89257668845421
-27.1348722808852
3.22158724450332
8.23779596172693
4.36007022033232
-27.911242968696
-16.6671937239785
0.0783716704240172
-21.5232633604556
-24.8348828179489
-26.4361946840745
-1.94695317905329
15.0707312017456
2.27008189434523
19.0812795684469
11.2166520337243
15.710669599061
-14.9679062928643
12.0335766062002
-15.8080564345239
-19.3666347736174
-25.4146419103913
-24.3505142053853
-14.8712965388001
-31.3038087099921
-1.17176171484126
9.59262680371334
-12.6099887547735
27.4338627806327
6.4843987275915
7.85647403105065
-8.95366695020596
-25.8733647222761
20.8012650888753
-3.89002885895279
8.55507907157626
3.80780029515415
-10.0123654466064
26.4654669954293
12.0024946827815
5.84520467743761
-14.3137630862932
1.57937628575401
-18.993574868112
15.3095685823572
23.9427106178961
30.1958377991098
-15.1749122345512
-7.50572216320848
-8.4600038484306
-30.2343159486601
-1.42849325984132
6.27634731087389
0.190352929017213
-21.9355174842468
-17.0853021605212
-19.8941055677116
-22.4011750311838
-4.29564381681777
-23.0018304628172
-11.5524641782156
24.8419820217206
3.24354757752983
-11.4371199093089
8.63964509505932
22.3427824856808
-0.232780293206949
18.4754304120959
22.2379769662044
-20.7633509406444
23.203949682758
-26.2936659359458
-18.318651605067
-27.509565085709
15.4857707659851
-27.0931818596071
0.0242451308354536
27.8999233486003
-14.4854078683525
-19.2990481012099
1.95069413656164
6.11954013149103
10.9788068144135
4.37176496852862
7.63509331717137
-40.2344568353082
12.973559414907
17.8634183865314
9.39899754419484
-15.838981485464
-11.3762498341682
6.16098668635853
-30.1867592049838
18.0433435667178
-14.7905432993712
-4.47069676796709
5.94779461410363
-25.2747349733694
-3.12489956920335
-35.4276719825482
-10.3204321742408
-24.2074152788167
-32.0645493010599
-11.0858608671837
-9.9737043496361
18.800321450213
-9.70899121729845
13.3738518579078
-14.4166841792239
-21.8804249462281
6.91372224524681
7.01157922056918
25.1811023196603
-7.49808636326805
9.83515883586622
20.2251647796183
-29.0284733708516
25.8282557919209
8.93689547753377
15.8206865471498
-15.5043717053409
9.97440547035958
-28.2315656999366
3.18478244328545
26.3611214591857
-3.95360487579559
-22.7735442057264
-2.89182016459272
4.88639530579151
7.39165744188566
-2.29733881059943
-6.21392234497233
-12.322949987849
-5.61347734508394
11.0729839705791
-2.49934477428948
-13.4584020405204
2.9135276198404
-7.75098258938991
23.0002714818176
13.2274830791426
-33.0705228694725
-4.10292603929381
1.55724662544262
4.32414133711086
18.7242377886899
10.251677952417
8.16219149696784
-18.2911597143749
-4.32057527416155
-9.87907862135738
11.1911453703084
-9.12300214449268
17.3482605158553
9.24014366104899
17.7945748884315
36.1354096905345
1.03986165449008
5.04572892969545
32.1018421850259
11.2875593977881
28.7097162743719
16.0753077361201
20.1869349851186
2.18168924281898
-11.8471744650248
-20.5754665107541
-1.01998171004935
11.6639217743461
20.1259181995311
-4.46974127011464
-3.61058859872795
19.5290147763234
22.9885302730777
-33.189517214372
-22.4390503096366
-17.9893038144285
7.40205427108331
25.0645766328087
21.3855591618238
6.04299966095549
12.1740302881203
-26.80476135784
-27.6860501538085
-14.6961425659644
28.6126596283492
-21.8847967282299
4.25446664598541
4.79342524567475
29.9644291893518
19.5748267842492
7.87167433098323
-24.4843760761711
-17.6746776969578
6.4488336680144
6.93128697964823
-23.4215445557018
-1.29619863364856
21.8076679573458
-0.73609189113143
18.2379650586794
-15.9015743377124
28.0498988426977
-12.94033378187
-30.2080424998103
29.3542347334322
21.4424221818569
-10.496303392426
21.8194197104681
16.5561354460925
-10.8433141856609
-9.06086899024584
17.2614780749345
0.308152048555109
-20.7752641736965
-31.6195229729411
22.9057260557689
13.0588074240467
12.5946782172032
21.1805180487327
-16.4800072202164
4.24016230576526
17.8558237778925
8.20604391000801
-11.8691808341189
13.667722127786
-13.4477965037485
-4.85536758242474
17.3183327587197
-12.0744261619711
-36.9591565407972
6.758917065581
13.9303381849289
-7.71359533998504
-26.8767907877469
-1.42489267214237
10.2775893820127
20.6659387820696
-17.2946569512752
-15.9575773632233
25.569316790589
19.4312488380693
9.50069249356906
14.5962834001273
0.346867829166196
-5.68016502094991
-25.7616363089492
2.79286830512333
23.7659766973869
-26.3942064086192
19.0009043147173
-13.7784561265322
24.1878066355552
-24.7995863271923
4.39667365471111
-22.7780238215119
-19.291363347931
-19.8190466170726
-25.2033245396283
-17.8859034665931
-8.4375788488899
-8.11875814766179
8.33257884516114
-6.00651371609796
10.1757836985896
31.9762978239076
15.6428495543084
-14.3581810810609
3.13809437288533
15.3480489357721
-10.9680462691437
-28.4261453347615
6.32415888640182
5.46810848206293
18.9167448807948
-18.4362508060989
12.6644451605003
-25.2135929451121
-0.424908090214318
-30.3729690583346
18.4376223647461
11.2875827115561
-5.56835653079748
-3.50973121341914
-0.506880501196787
6.15121372318458
16.0674142354574
3.51959028242901
-32.2593873736072
25.4627572460811
-7.78975286851052
-11.2330910022419
15.2239562033622
22.7425195585484
7.86485281881504
-3.18666930755889
-18.3929086988946
-4.36641712300791
-12.8096596057978
-9.32776211931784
6.5674708616406
18.6030335738606
26.5741282667394
-16.3815799589163
11.2635664659799
12.0979572794566
18.3644210774259
-11.823649994363
-14.2598777416713
-13.1939335243259
-4.14285703488688
-29.3803623919006
17.1419742558415
28.592073518848
-0.69631436731926
13.3758842025723
-24.9235256285202
-21.0803092110648
17.8160091246244
-25.0863800828549
-17.9908914335432
-17.5738732049475
-19.4681805638613
14.5984443739028
-8.81373252256839
-19.5495513523023
-12.7064165644325
14.9109510325887
26.754909888476
-9.90692532634414
-27.1311745389036
-9.56681245599069
21.0844396066402
-26.5742189285641
-4.85844025782716
21.5862787915705
31.2857814640632
-20.1274146136872
19.6284887990984
13.6125019221946
10.4702983701086
5.80449976959373
-17.114621096691
15.3570218572508
-6.2114432888648
-11.6822809545923
0.276021346314418
11.3358804759831
-11.0636719478987
22.4180738353788
-5.3113902959893
-26.5803778913014
2.90059311329223
-17.5077479246898
-19.8029439383472
-5.99937914705775
8.43202959154248
-16.3915556757019
18.4474114099869
1.46039220689981
-5.90795006874753
-14.4548767007687
-8.97672151636476
25.1496019547625
-20.4696760381514
-21.5432022644866
-17.5043449081039
10.319316200195
4.38019086316084
8.69427962139902
21.9923950838635
23.3076629684927
-4.62228817258046
-25.1221812147215
0.00314766557547363
14.1732366173374
25.4936445711398
-4.6137370738794
-6.89579035825491
-27.1962331501827
10.3474461343342
-0.787199582330546
-11.6986165939073
-22.3560446542729
19.2510063263761
-29.2558993122357
12.600811033709
9.97205610303616
25.0429419802015
-25.4660971220107
-13.7574714944253
10.6826602334068
-13.3741989913964
-17.29262832048
-10.6113234300636
-10.3125560847224
-24.9038418134096
-15.0138464444014
0.125342860447677
-22.1062481701736
-19.4631981950619
16.4572530510856
-14.3415917199916
10.3789530012822
28.1283418958892
1.44713748258501
5.66044094864086
-3.49952130934103
13.9180217930649
-5.23775185090791
-5.93044177065054
-13.3816194542299
16.1065485743543
18.2207770579317
22.5909814538259
24.6293222406779
28.6369083494877
-13.4308670211256
-31.42280383959
-19.422588933163
-6.01522434325151
-1.19921371381555
21.5781320526947
-2.44324528218095
-6.57033156372491
-19.17473890409
6.34566914860247
-18.3672653110466
26.1666823078397
-27.071006625461
5.39896211994795
14.5946850201328
20.5298282271766
-19.1104777768164
25.6968129780923
22.1407548408991
-12.9780409257386
4.20539686960972
-25.5061322073157
-1.72652401644012
-0.988911029950162
-11.945201403984
25.8396358757208
-3.40577066923444
11.3552357212681
-29.8754419309995
22.5498271757347
-1.60381378583857
-10.4563285261642
-0.801181936895712
-6.82234064723722
18.227121785619
-22.1197245594421
-6.98029163828612
25.0021201026492
8.91550601871815
27.465882223327
18.9759937308203
-9.59764742320658
16.7608677625763
19.8660731858808
-5.31848029798054
7.85841236144992
6.44308261997451
14.4301114667786
9.14334728909611
-12.5420422527438
13.6571620124365
21.8137353376574
-28.7130564845352
6.11026436379646
-2.59182536317333
-14.0194748084814
2.76807816932371
14.3010002914533
-32.3366744393213
-1.10682113036773
-11.670500413134
8.65022008423384
-12.2589179147489
-9.58925586551814
-22.1351468793229
21.5208021707705
-8.46371865580208
10.2817509703029
15.4492820117667
-6.43532330472313
0.0742884653018785
-20.3961397906155
-14.6372453962252
21.9567104091365
-0.0566605534424404
-13.8740515244612
-14.60341554449
3.66817817942968
-28.6355082771676
10.287509501262
-12.7397744502164
10.683727445399
-33.2555837991756
12.1706266873697
-14.5720248334649
5.57400097984119
-14.6955972129367
22.3240844951829
22.0811151288569
9.49407142070668
5.15631471836245
12.2900368303583
17.5326753718521
-18.2564677153586
6.77691300543826
-27.4315448500789
26.5030200016584
-3.61011788071722
16.6711762314967
-0.559898435556365
-10.8189384168262
28.1743791481557
-26.0659652780981
-13.1944561045745
20.6392385204686
-6.81602248372298
7.44475450118332
-24.4070123052989
-22.0680484697953
-19.971761816023
22.4926632496244
-30.3543198774975
10.8856281332541
-0.927215865611407
-19.6408262538
10.9033757677299
11.811969228869
3.73791153164321
-17.9329335944768
-2.78236307508256
1.65171133484324
-1.95386068428374
11.7235209849461
-17.8160186633583
17.5725086337781
13.3694076548549
-16.0442209612938
-34.3305053857011
-16.4393261545423
-0.228302393246972
-11.2517887994954
12.0059096261024
22.3153088337003
8.53363062705114
-15.775522851677
-13.9280387962883
11.9590380335228
17.4228759145009
21.6679662641008
12.3614874524698
28.5716243056249
-19.8658419191018
16.3844985940076
12.534783168005
17.6394213814664
-7.83443180370238
25.9122295539712
-9.75757282530416
21.9832518300267
32.3652872958903
-8.42716558157781
-5.99964797095912
-18.4560145993146
-17.1685537485408
19.5254197630079
16.8185556411198
-22.1391359286511
16.6995239733766
-9.82927220584448
-31.8099351085655
-34.8452898615213
-4.36028199463957
24.1319648472045
14.1148470035515
24.3032445416709
-38.7316744992368
-11.2568245603005
-17.0405930802487
-34.0345436029603
16.7084116879996
-27.8395102472721
27.8188701429919
16.4238336294791
-6.17436698720586
0.769152513586179
-9.98838309706838
16.6232046819076
-29.4909604489834
-4.19531855986651
-17.346886408644
18.7375317598485
26.756227460583
-27.9065722532691
-19.1478481700144
-26.4105819145399
27.6549726607784
-2.32592486964221
5.1328047926063
2.02670409348973
-1.12652338540234
-21.5997766089574
18.6714420083324
-11.4323368376759
14.7736598868276
18.0268233036919
-1.56123344117132
-7.47131254582662
-31.8789790517514
18.1844830342461
23.1230085756548
-10.5809235231619
12.9186059282967
-9.41663589498445
-26.5534144136311
22.1608409293753
-9.04258292703076
-9.56833029959506
25.6892281812318
8.71807677023723
0.0741919086991642
-26.5930165419655
-19.6684770793696
6.71672289301381
-18.1769385769669
-22.1841977591314
-29.3390757446038
3.65061355037579
11.4859671145128
7.03486925424095
31.6976250628653
-1.50326066273115
15.6996713880731
-1.88890304739785
5.43271516523875
11.4474867697392
-11.5089405996411
1.87112155235807
-33.7529132127683
10.15165562712
-25.7631488220358
28.2927837643883
10.8370653541614
-18.263771692137
14.3421392502009
26.6784025122424
-28.9482350471905
8.12603340710409
-21.0993069060485
-16.3154413365338
10.7955596668642
-3.50761344514359
15.5904910037802
22.0593880557544
-25.0577351752736
-2.88288803775693
17.4950927889852
-16.2657053197603
-29.1958507410126
14.2856971618483
10.2252837959988
-25.8160612567536
22.7868190581327
-23.7720673167591
22.5663920227776
-13.9662862627175
20.2508916195415
-27.6450678424475
5.61415714527142
-19.1145900819615
6.19555659856963
23.5331764323449
-10.4781470806428
-26.6402993149515
2.75384148967938
11.1917357807579
-9.49362477982497
26.8503620665244
12.9314373069098
-0.800066418585535
-32.461323137539
-3.59235090582226
-16.7136211083698
-22.0567172795384
-10.3603489433622
-3.81252798506644
15.6442293019164
3.18548741104534
24.5127922748603
-16.6920536583847
23.6363432093269
-27.1598955908993
1.87664505308109
-8.26856675523637
-21.139219004709
-22.8693565063747
-19.9573310180489
-3.8249806898963
-10.8189181626758
-5.6180119892887
-20.9759770023707
-35.9486856889794
32.4831976463577
20.8683382879638
8.32825943043923
20.3762093919614
-20.4162197057101
-0.521477552813268
-15.9610251343434
-12.6013522552612
-17.1499726227068
-27.2685113242776
-1.88877945934092
23.8199690434653
9.28280000461443
-17.9102596879152
13.6775821169164
11.3481926193646
-21.3524540366261
8.16375185848953
-10.2436318910515
-33.4651993643619
5.04711756172957
-8.42643050037105
-1.72899675765408
2.74512183025647
-11.3230735472659
-21.4826141328296
22.7379734742269
-4.37183819468103
9.5105004792276
20.9326283634268
-0.0309677938295324
-2.55187347661763
-20.3129524386533
-36.5344521964183
-12.6484663130781
-3.37671963225514
-3.20631145703745
-1.55700054575289
-1.09066422519178
-18.6829292213062
-9.80569421174809
-16.1334894898839
-18.3413247897036
15.0480267383952
9.03832202664814
10.9509784637958
18.6113664864209
23.139187164635
-5.54367637258912
-11.4726453361837
-7.87466946399217
19.3140469249213
26.954963260345
-26.3195501049473
-1.27411093817291
0.169795094909771
-14.3025276306365
-14.2863751693906
0.365307527220117
29.5557814046789
11.3241073720349
20.7611714429693
16.8007384864475
-27.9191523058564
-0.0848338575987058
-36.433801688378
-7.57517631079079
5.27618170384579
13.3112497407179
-24.3029720816303
-7.19757123688209
18.3584703806542
-25.9116355856099
-11.0066027030761
8.3885495121237
-13.0784986000905
-15.937291309397
15.6796136984943
20.9675416557887
4.71450105074234
-18.2565719043024
23.7177962471745
-28.6366602637902
-16.3943302896959
3.92637614539862
2.31125616598304
-16.5146855879341
-25.30941833209
2.39978729329995
25.7390081751572
-28.0648749369073
-22.526339435206
36.1487749973328
-3.79121443455757
-9.49465745447106
-3.52223031054588
-3.79568529986118
-19.7910697435482
-10.8548422001137
-5.34218484740986
-16.7771296462691
-17.9740896922618
-20.7161996119565
-6.86982854858649
26.8438343352879
-5.97739929963286
16.0336321253219
5.51640378960222
-3.04664804454474
-22.2518927529487
-10.2348966682659
-8.09712234807858
-15.2570493540815
16.9304983768782
3.32767030618558
9.50627873579938
10.1675521580871
-3.93320296649087
-13.8584835800494
8.40313381555969
11.7688438591766
-1.33694273564792
-25.0872589549586
16.5744528693338
17.1434935163288
-16.1608778058524
25.8372637315621
0.845176858739762
15.6089827638071
-17.5016507443739
25.6846769309672
-22.5799686682905
3.85053111543429
8.01237785215151
-8.37729173304749
-20.3017513253612
18.791498170219
23.0793136817172
-17.678585990352
-21.2443023275273
21.2427772631219
5.90290955550897
8.15342546385438
-3.0326264198172
14.3758271187892
10.8114797986949
17.9021913038154
29.3801349010133
20.3629956476874
9.39637886215608
12.8495874032653
17.2671167263382
3.15887470666295
3.74045773586412
17.3232685824926
20.0561849764716
-25.3942599810303
-14.6301813673305
-10.2757801400563
11.372987713495
-3.14716521998988
-21.1981010823897
13.4081597278567
-25.5287566050666
-16.4188528191541
-34.6247391055567
-26.4314105538083
18.6896516863221
3.49903795021293
-8.68383250887863
20.1905706178851
32.0766364266963
-8.08275202335629
-10.1591517389417
16.929179787889
-20.8505240520542
12.3767195878108
9.36996922583803
-19.4854572943666
-25.692315256832
3.9124682973437
17.7858147033923
15.5631934035881
-26.752619656721
4.26114036439282
-29.6864357056393
-2.840590608735
-29.4682437798
10.1920808782315
4.51470532423014
-26.6603295668603
8.33859394980482
6.1225036244883
7.61800628513931
2.13536068006423
13.6079982253166
22.4444943099881
3.54886702171352
24.6721649891531
9.71451030852162
15.006736805582
23.5478139356643
-6.2692207050838
-1.5954137644871
13.3846801378181
5.46159981990432
-6.42582607172582
-2.19389736471058
7.1262055750827
9.88989994202912
-21.8118339785751
-17.6669292542326
-16.7862837525678
-20.8461443694242
-15.4199397221478
9.46898304907565
-13.150400429278
3.86021885947581
7.4569413118366
-5.82122971021881
-11.5084638046089
20.5259761738678
-21.6198054345669
-26.4817144376368
-11.2663788596837
-8.1653442420991
-10.0427629717015
27.8464185100604
1.5566434969807
-22.0931640201381
-35.5763798280055
-22.3663463310726
23.3465900742226
-14.1655694081857
-8.16322714500762
-4.30277588176299
3.97524612730912
-11.365027677472
-2.94231834861112
32.6171127037043
7.80092314472438
-20.8792985604104
-6.30590216382013
-24.5967639313806
-10.1368177438388
7.94781359757755
-15.9898783178035
-12.2680784208492
-17.196245747677
-33.8038041297136
-12.0943684132249
-5.67779210847008
-27.9313194000592
15.1935035623847
-10.2936893505654
7.84846710442714
9.5666332607779
-2.25176426329582
-23.0882452122468
2.81161705217599
-12.6680968504014
7.92213430302238
13.5685280470633
-4.07931229707568
14.7821395748781
-25.5848798678153
2.70854629392947
34.7219269878266
3.98233246162029
21.9034366605866
-19.4693094900873
-31.0656033121332
-12.5540973321432
5.27113242853017
13.6237495074765
-10.8507188519053
3.41826994940794
-27.0126270632183
17.8497908831194
8.55553741009558
-29.502710113419
-24.1513306485799
2.94898957826938
-2.65648438731831
7.98392295530913
5.33771833441011
-21.3854097828995
-29.1144069207519
-21.9664383673348
12.3615422623369
14.8958540216799
-17.2319937546766
-11.974366841092
23.2471033801677
14.4756676033427
23.2770358699777
-5.77729332983333
20.0335401249606
-3.90042629827155
-14.8019781028048
-13.3217866346262
-13.3224188853067
7.06972346777764
-4.34858116288063
22.8956821216646
-9.93930465572693
-26.2100640606629
2.33971157709686
21.8611467360922
31.2122445140265
-19.5323085747429
4.63641311796263
2.49901357266998
-14.4414074476492
-10.4788630082661
-24.8136966552168
-38.5043075064408
-19.9249557018266
20.7209721012172
22.5366128001811
35.2211840074003
-3.00128179584916
27.1930336279692
-25.3509203159511
-30.3012820946128
21.48803372813
22.5976989777724
2.19752703316708
21.7966740999273
14.0471825377467
17.2107015709452
6.16362402605757
0.462310859406193
-5.95982226508885
-4.75041541820767
13.5480009849193
-11.3171540994963
-25.8318439809822
14.3010144963053
-10.0569417839635
0.683605211414193
12.5390940613181
-6.2854744788659
-23.7135464676494
-8.01934835563175
33.2647044735889
3.09806971866693
30.3322069732162
-3.75983535506567
0.371157945576353
23.5147452625295
-12.0467848855212
-30.2318061689921
1.759044307726
-15.8181165814256
3.84180593545637
-15.600665645816
5.2799805535621
0.408172188902599
-30.1976236972016
15.2731544863098
-1.35586825736806
-0.288992679848432
-30.5522467499639
27.9846574685606
-2.60581467205397
-29.1420441872772
-25.4615849267617
12.3406540511577
-2.38444470094376
19.252353719269
30.5020741923797
-1.88532879846223
-1.29403462533797
-14.9668284428236
-16.3609573593058
-13.8076104675764
14.3812727179929
1.39296285063798
-27.3963564528756
-5.8521485729941
14.7718193421377
-15.4730028244741
1.42615934954341
26.5052348127807
11.6990107623251
7.97371431744663
-22.3049065694468
-24.9071171753351
9.23402103915442
-1.41892258640874
14.2413632698034
7.46904213766069
12.6028188585692
7.27464565460065
-20.6882678897976
-24.0772601938525
-20.1334199797339
-18.5227785767263
26.0845804907189
24.1822808811624
-10.2202417506375
-27.5181757920521
23.9790551294513
8.46472715681025
29.2375107219252
22.0329704697117
3.47773678088656
-17.1504332162344
26.0468914891999
-10.3471252987734
3.74963020218142
-27.7424648690836
-11.4261217693104
7.09379462508851
19.7790578809797
-1.5139902446499
-23.3438824059008
-16.3470851384502
-19.9286573967059
20.7562209213806
-21.7031982125116
-28.8093868872716
-26.148830110119
-29.9802486947219
-21.7350416941585
-17.6103381532341
13.5657584666211
20.0344548563814
-20.952690900346
-10.1763194575995
-23.0345319074284
8.0379673067798
2.74288661330813
-24.9023361088312
29.1281647777559
6.50188134800859
-12.9235598880093
11.0614950607262
29.2813071865162
18.1555061562141
-19.7391144954655
30.5498926517551
-12.396784236657
-14.1053633538196
29.5249297514929
1.65225814368501
-7.25217047671162
27.4490100551406
20.4772849975961
15.1505515563594
28.1162607776678
28.1452498058572
30.3510731517868
-38.7235183919048
18.2312137170803
-17.206052906762
-24.0277584248999
21.6179398374092
-2.47678621848586
16.9996988092486
18.4755576784602
11.8427807589005
30.1094550693868
14.0842061575334
-17.1275097694992
23.4083048786482
-7.18564000345909
-18.0633538819616
19.8099771828563
-27.7827240812648
-29.2117730708866
-9.87632805114434
-13.6505567509181
-11.5058588524947
14.8792850015751
-23.6661421036651
29.926618253119
14.2269484990423
-22.3186463839756
-9.20963487041799
25.5285991353173
29.1895918790521
9.13239451451478
-5.19993903949927
-19.2992313486172
0.16455902722426
2.98840539846353
12.9439317845652
-2.48737410516724
10.6494938666105
10.3299618321349
-6.65824983719315
-14.0514601365697
-20.5778103883736
20.6692275664869
-11.3464102162129
17.0434540197708
-2.87739229579647
-29.4161434626776
-28.4286658582487
-10.7456501338076
-27.3369081899356
-9.93267256584053
17.7450636995163
-4.61660022682226
-3.18370812269041
14.2408528451808
3.13660754751666
-14.3726669444498
8.42849682224538
-0.429819915408412
-9.32664134087363
12.7346860196851
-23.3905518666123
23.5806372617823
-27.7310892145294
32.0194160388522
-10.7436509188548
-6.42329739961021
24.8384347184467
-12.2462941958247
19.3435550687867
21.0035190013485
-20.7160156198758
2.21956451361768
10.5013574352417
-29.2311295613806
-24.3267540092537
-5.41532974025617
-11.4680110513428
-9.11839846232606
-13.5189745288099
2.60321345101726
-32.9540513435689
-22.1880637210307
18.2497148488265
8.8795015819039
-21.1065864295683
29.8528109072709
8.93154811504069
1.73481281804461
-26.8964532331893
-9.05672379583958
16.7664339748717
-25.431137728237
-8.61572620430364
-0.788091729557114
-21.1300944237367
-19.4694246721949
27.3390523120527
-6.59204693550714
-12.4382710042096
-35.2387929431235
-26.2149751023901
8.27603196786837
-1.82946583705177
-4.34484354747428
-27.8697512580267
-12.177790105712
23.855525033721
2.85464899302025
3.62941110321444
-26.3773570267487
9.15548578324376
-13.270307166739
-31.7468732917904
13.2751048474493
17.3779070113154
21.426635584285
-17.1374847922458
-5.34472898397001
26.3376189527873
-0.692371038711284
17.1557510298423
-9.39114846213747
-2.49393167543494
-2.5085584065645
-31.0240523931958
28.6542744141474
-20.6794005502967
-24.4762459332874
15.955641290437
21.0404425285949
3.08253401839109
-31.9829160128216
16.2712233149587
-12.6417444722032
7.30331648907786
-1.95360677731782
11.3315878938385
0.290552966297424
7.42436245488372
14.4908888057383
-30.8510482895356
37.6297254910662
24.139718874033
24.8598704266438
8.93127075840587
-2.8118255258818
-24.3427097557626
8.68804545858529
15.9615302660218
-4.71857415304727
-27.2265414916289
-15.1023443224369
-7.80681821215346
19.4111855380022
-8.83586596937555
8.77704514382101
4.22734597392123
-28.8288749940174
-20.6736235868883
-26.0562412787581
22.1670439618291
17.8445287780016
20.0777733622386
13.9411241588016
-2.36574100957594
8.50993637706865
-5.94901058098924
19.8819606941371
-17.249828837916
1.8553269614837
-24.0300275656939
14.4914561887944
16.806111483469
24.3149828510634
-7.3685012716071
16.9441870667701
-0.699373280266113
-7.89438115469444
17.1602861995804
11.7787635128615
25.0424843186137
8.91334890323507
-22.7839496962103
-3.67867950179618
13.7524201192603
-14.7093298897368
-0.406056546257858
29.0261043170367
-31.3639018679832
26.4809673863329
-32.0839544398574
17.2463018546819
-18.9357782895913
1.31583477256934
29.2465781353929
-20.7399491780326
-17.7364048400048
-19.9215746842158
-10.3793355103857
28.7642119509225
26.6193442972454
-16.6572533525994
2.50346292468197
-10.2537285609759
-19.8253779781314
-12.4934029968687
-4.39986943715969
2.14063328480228
-4.13358601923553
-6.26376179057147
-19.0348993853296
28.0249975910178
-12.8314527153689
-4.82106417181605
-18.6831630856465
-14.7319335283448
2.3522094886322
-6.16146241061595
-30.2472313109123
-15.0988182363713
-17.3509958253666
-0.644863022599682
11.7527581559659
-14.8047356640368
-2.37710227089099
-9.65796880828662
6.3474290499896
1.31114759630492
-25.3417123900344
-20.2216596331607
12.3914274400085
-15.4782155574037
-31.1308093020797
14.5782750037493
11.3093620575595
12.3716869702095
-21.6934808963548
22.1437494117885
-14.4965143620061
-2.59268651168672
29.8811236144235
-32.7320103625109
2.71851957472144
18.7451066400515
8.44594975416473
-28.7497364256879
3.20425905953538
4.99832255359672
-17.5099122005015
9.78210235533375
-0.116066751288609
9.25536845008755
-25.8156688022464
-15.4921341947625
24.0577332424117
-6.62446825915211
8.69130639385193
-33.6088795455508
19.1183356325359
21.9104439742422
24.7511077538439
25.0729292548633
-1.98020985966345
-26.7194463469686
17.967997317537
-24.6669685713652
17.6169289229912
-2.27232397155181
11.6668698495301
2.88363200202899
-34.3119946132217
10.7796781245887
-22.3066924135413
13.0163615514002
-11.2883596307281
-20.6347932328179
15.7471379866822
-28.0536054199236
25.0561941461848
-16.446665606133
15.547503997559
17.9344154492175
-8.86069581833599
-13.4782915826278
12.130212080676
23.653391032659
-22.6058401658839
30.7684756306315
21.2194949716828
-6.1172303436887
-24.3483394133912
-22.0225274679948
-31.4223027679527
-9.07268662124321
1.50745323173918
19.4291275795386
5.13954904497062
-2.05706184282412
16.1386532662823
1.82978843563627
-15.723044367543
19.4753936859699
18.4455451046941
10.0767847957518
8.07826501205656
-24.779724676377
7.56813165126599
-2.18742409888448
18.8593825194679
11.7155917449418
2.44927112785363
-3.88682701230667
-12.9869872668771
5.54078302004046
-36.0408337602854
22.9223937659059
16.1012357419628
-24.3786228115186
-1.84407691986851
28.9804531837632
28.3281759325975
22.7613138066841
2.64661226746119
-11.0182269703371
2.05927082962656
20.5640083034767
2.36228346172486
22.1151925607923
-27.7717330285894
-3.38129891233672
0.279141996044559
-7.32888681955358
-16.5641620562851
-19.4283255598229
-19.7781488391704
21.5159116816251
22.5676766802147
5.94461201102132
9.53865974221805
0.618193913237603
-18.5732806189268
5.46596106660139
-17.2229952216693
-23.637848426252
19.5276821786486
2.18562820820282
23.5419415074992
-3.28932947882866
-20.5009464108221
3.87981908879131
-19.3321493562601
-8.47088129906222
32.9384423207277
22.8497954688786
2.37639406743067
-8.6821883531129
-10.0457078851877
-8.0854607262812
-27.3872786777618
11.9737861170469
-15.8207474059794
25.8038696158161
-14.7031715457161
-5.00806011046781
-27.0689214859918
-28.6391873008648
-5.61914071230105
-28.7698198268881
-8.8456314915838
-22.3402817007729
-31.6406924463457
-33.11798249019
0.550301141177488
29.0515350693424
15.6597309040713
-13.1827350223064
13.6712492633278
-2.47725439355376
-2.24138093815042
22.3223257430738
-33.8612218309113
-29.2503515400913
-5.91838730023595
-0.769784952129081
-9.95209302689845
-9.05005094534639
-0.0814982897542467
-7.91613314926582
19.9212148913636
17.6323611050242
-1.4518791991594
-6.701054741953
-10.7370774587818
29.0160120738158
-12.4416215307475
-15.6816155066423
-6.69611538101613
21.1026778663488
-30.5944985296379
13.9438707101569
-18.595036920463
12.67617106894
-33.6830090920049
-20.978372462891
10.2225988921587
-21.4159042583003
26.8723421827238
-23.4689333545096
-31.3998353812976
-22.0739235208338
-13.1954332799909
25.8083950000205
-24.7223464055942
-13.4556767724661
6.77872579516013
-13.8447816700073
-5.75806231752177
21.9199761960803
-23.0626411348942
30.761317847895
11.6274294860808
-28.1601307367768
-12.7721940614999
-8.9108447397258
4.68277813811221
8.9409103440456
9.94209905726498
-3.24283172838037
9.5443218164811
5.75500371660234
-27.5032151345387
-28.9455725691722
-7.16090632315927
14.3944168238163
7.98814689639456
-16.6890216394026
-31.7922712313122
-20.8609440202068
24.1897371888084
-23.027338992945
-15.4866526134778
-8.48509180713092
-14.8043580496338
-0.264099738519611
4.92013201272531
5.5083192244227
-17.4790756398382
-27.6360201905543
-18.7826707287506
27.8206928241682
22.2933306499074
-4.14098137537898
26.5098626724576
-27.924410096683
-23.0947042299019
-21.8048987054022
-9.1016940861388
7.06913742797612
10.6694407559103
17.5115682941174
-2.94369241167533
-2.25008634260779
2.48549527517451
-9.91763175178714
-18.1075267581077
-11.6113671461383
-0.493997548216759
-7.83348191156844
13.832962500353
-3.77660086774277
-16.9518955311316
-17.1699624581837
20.5350217227369
-31.9747617860349
7.44999932459986
-14.0484246956442
23.8719992635486
24.2953886929484
28.8589811997754
20.8879617837089
-4.7611783454872
13.3254201654027
-20.671839754241
5.81507459162146
10.5880008888212
4.49047541203454
-19.9627342706485
-8.67528248686539
4.8813762099002
-0.0881361450848754
34.6919574898087
-12.4870206657913
-4.63533495731529
-17.2480845963299
-1.01218533106415
20.2984949636003
26.7487277122264
12.5507034112058
-14.0336128707387
-20.4053451212056
-28.7534573292839
10.7825606401749
-18.9733576086859
27.5522353740567
12.0460213137713
1.13284604251254
9.85623016279411
7.55320322160701
-8.63030231939871
16.5491305041071
-6.87091133650055
3.28405077736106
10.8402731240406
10.3470245949618
-7.24287405364892
31.5674820517084
-33.4387905548155
15.3623403777951
10.0688380728124
2.14600976310911
-33.3669812393093
-22.4570302093176
25.7975315027435
-3.8362442547709
0.431423957334539
25.8342847572921
6.14938585464063
20.2420133585953
17.3931169908494
9.63100570697332
-9.01738932035875
-33.591618038599
4.11589303308146
11.4273248101055
19.6313698447932
16.8225698219015
-8.21773273510085
-0.824369960867288
25.2040917067975
-17.9803209328562
-30.1176823733023
3.70834126961294
28.3902792852705
13.0197328025287
-31.169094396458
-19.4753208566943
10.8515126566618
15.6747583153103
7.03167181958214
6.45959503486556
10.5642149542055
-37.0367606626781
-29.9703794607568
16.1574175781496
-26.69241957943
39.4689287151129
23.6446023868028
24.5558891384986
-18.8218598790891
17.3763536573271
17.9715979790437
11.0942316919972
-25.3982888012617
8.5810692901869
-9.57806075651454
-7.55373352910471
38.5240094169682
19.2772781279605
23.268142912476
12.972121170285
10.1568094484948
8.12457321280173
19.5953742352699
-2.95540470640672
7.69982694110058
1.88327498515043
-12.6288674379457
-20.653500432385
-9.50183077704101
-12.9299176318609
-15.0950955842408
18.2251429909206
-26.8978583573606
-34.10446650486
-24.1580542532613
-12.7196508272152
-32.8194012402378
25.014607981575
10.697272107476
18.7106045407931
15.1108330293595
-7.72772213010081
-12.8129784657694
-24.3804495214447
-9.9902026397744
-14.0484566726871
1.48532145197204
-16.5482291194289
-15.1234773938512
10.577618925791
-14.2286581137475
8.25091407376724
21.0497767839432
-29.0946503164002
20.4567511776441
24.6094643823105
-20.1554304322301
-3.25083416997654
-29.2609238840138
3.07645311839054
6.89278556344206
31.0672706226738
-1.01364213867191
32.7665059334261
-3.90199018449754
21.9399172127936
13.5364111681699
-24.5874712707187
3.56771127389891
-28.8807201947645
-17.6501866804654
-32.7224102288018
-10.8753408513905
-14.753181106085
19.4208815330264
-19.577143598904
-7.42167492684529
7.3929768398891
-27.05811820409
-10.1493054268322
18.6978237131854
-35.4915139476174
14.3938383763752
4.95255788486526
29.840700641546
7.7054896917634
-31.1466247390461
-18.8749985012797
-12.8830769012476
-25.3618441752703
-27.5357614133294
-5.06249482612393
10.3270222372831
-19.5894493254559
-23.1142870828194
26.0652573977773
27.9545772221277
-12.2960318938017
6.4234818224803
-5.69247053188432
7.6635276113605
-15.134721545874
2.38950901823586
-19.5202652893546
3.70859969440303
-16.5441838154566
-2.92351141222924
9.29790755496999
-28.053369969864
0.977977664775058
-14.4969777678
0.89673866704213
-8.93027409748739
12.8315575966534
1.21385842682119
9.05831350309561
-34.7266773048026
30.2560382224665
-33.1782916514532
32.5236877620499
19.7438150340554
1.02817476066415
-30.0664301657734
-18.602393113648
23.3697314749942
13.4235029411314
-15.4120742971725
-19.7549155933316
-23.8624830161701
29.958781491273
-8.93008520560472
-17.0698026763681
-30.6578235298249
12.1516048215807
14.6053568391655
2.73984054273007
-12.6154715878977
-1.93248892105471
-26.5404998047394
8.14406886300296
-19.6765673099591
-10.3074026199196
27.787087119841
-4.53586303624279
22.8504528985345
0.477068798009217
-25.9911047468248
24.8039049113504
-5.86350111599634
-2.27766483228172
32.7880283733888
30.8171643582688
-11.8039656258456
4.12681401800978
1.43601160174953
-31.8961429819401
-19.9493071650013
-12.7145423542579
-7.20086842614262
3.65120815785146
-36.99837495302
-16.0345875032888
8.25314519318786
-33.8180378252372
-6.16014316544029
-27.1435189548662
-5.24455025585947
20.0246340161165
-25.4472024838507
35.546180935617
-9.16619879033662
0.708100923753797
14.7971581431487
-10.9065503590753
14.1865832507674
-0.402114099861331
11.9392504206166
6.88141439675498
3.72561297021533
-16.9516327491186
1.91478943769566
-10.002072551448
3.73224439296188
10.2910534442371
-28.119002341803
-6.8256509344548
25.0065606595523
1.38732895579365
-24.6879138728368
17.5374613649612
-4.97567239088264
-31.8224570058622
-27.289597118119
12.8153649053624
1.41745754521537
20.4573876103103
15.5268021976715
19.0598110043425
-26.3644517126302
13.3034664057549
-28.8314682626925
-19.6234379351369
14.8700102833773
9.95416417181432
29.124289979401
-6.41880254943331
-9.07755314771143
19.9002483614757
10.3931963349502
-32.3074884775905
2.26940093382638
8.24532981307288
19.4119898231213
-31.1402144717459
28.5243384121043
17.514748396686
-5.90422653766335
22.2896792730719
-28.504194107514
24.5471370106479
-27.3898633964173
27.48825183645
15.5145799263988
6.66176330564391
4.65241658209646
-7.19386679246702
-13.6556618359488
-16.78715329693
33.9844894467112
14.6093124467774
16.5269440825527
5.76253392026452
-3.79550303938454
12.119563917671
-21.5514398801057
4.87529672154191
1.16055299245093
-13.2218648543948
10.1379113340154
8.6209846979238
-19.8606228342705
-24.5275445772201
10.1365903959271
-27.8533488412786
-21.466649200655
1.00003188260144
-12.848955707202
-20.1213853467797
0.588669803562434
23.4930649845178
-4.61821041008642
2.65237619221099
13.5750279066008
-22.2005327333261
5.12668519351817
-12.4807578134735
3.59366230580705
-10.0482679833777
13.2663837319159
5.94077139033155
-25.8872332183841
-28.6259207572309
20.1660357604956
30.3826954965487
-27.7792599453039
16.8684605354808
-7.15293418625879
-30.2782706898346
17.7528486671608
7.30259956733612
-10.3686689757403
-8.70288183533057
-19.6080875916095
-2.17010909695896
24.1026912701138
34.2828799939098
-8.35368898673765
13.3303654964505
-18.4387076652356
-28.8840545597503
-27.7324562523197
-22.8406774302719
11.1447997018199
-27.9786908763272
-2.10526559665826
-27.0007573972936
19.3683401263938
-1.16501075816635
-19.0615626338157
25.7155727887323
24.0926194377721
-31.085411201373
-3.71174893724432
-32.6401269202806
-6.07329898608441
-23.5074620253657
-13.4711766794283
4.40438921945509
13.9090355631944
-7.27210435597156
-15.8496821019837
-23.6744710710302
-20.1971953735275
-23.9496742054394
-2.98945223189579
30.5366456342676
-4.30971969526939
-26.3433730202502
-24.7802554482264
-1.66601358596036
20.2436221406302
40.4011025480872
-34.4901488180947
13.5107392290819
-2.35744602110794
17.4818601337473
0.929878464657025
16.5366844318716
-0.0908108299836422
-30.4072153376164
12.5194291609056
6.92303693638484
22.3162127347021
33.9851509562828
6.00854704486605
-31.1943976741406
-40.0698018396444
-26.2245929477358
-37.9247697988187
10.4810772558992
8.7083931094309
10.677569085924
23.709056168535
12.4985486007763
16.7922486666744
26.2633675331175
-20.0756233169759
11.715051846715
21.5713504400705
-3.01587957279229
3.43885944135014
4.47797403307042
-22.186977478269
11.6526612919683
-25.1116575161815
27.739752251931
33.4718190798472
17.7131374973413
-1.2834402057664
4.14312214941053
16.672297083635
-13.5041764228528
-31.4588588703323
16.6304335518337
14.4961391155624
3.01152959937719
-21.2777374268592
-26.8933312461218
-14.3141292565186
-23.9596703024622
24.5571897672506
-14.4265726660317
-19.7254304289495
-6.31527846746907
9.82171844973548
-17.5140599271045
-20.6522398807122
-7.8272317192089
17.2742560165484
5.25274357467634
12.1262819329526
8.73258947728448
-8.24892409010744
27.0657234395584
-4.40877114704744
-27.225555905222
-2.47552216565198
-11.3336816767297
36.6201269016238
21.223635309751
-10.637036682844
-15.2534438611845
3.194653045317
-5.99436379298075
-17.8708390104857
-14.8093985090606
1.0023435823232
21.8529636190417
-19.3801398655826
-13.6856524829369
7.10804491548962
-17.9155810994313
-12.5563722947505
-13.1059944720384
1.63841274106589
-11.4163679777894
-2.22190370801768
8.06299010284318
8.49500245796929
23.6989213708688
29.1437869270077
12.5362770134567
23.9342802351146
24.7843791468828
-33.8093240186619
21.9633789183992
-33.1157311607584
-22.2843057571674
-4.80348226458447
-1.57754442729319
-30.8240400719962
33.066026415802
-16.6140810794103
-1.40946037611809
40.3644549958012
5.208909386678
5.83717779387659
18.1068507058081
-7.26331315833688
-1.7808926235147
4.44225940010919
-23.7231565244626
-23.415259610146
4.08178832384718
22.1671667338715
2.7589329402642
7.42653168457747
40.1449733454277
-6.42463845735752
-27.0261975205436
-5.62059828116523
28.191670794894
-2.96748276193145
-27.7718099189478
22.0106707688648
11.2156685719894
-16.1746653836253
13.6774352333252
-4.07094294712115
-13.3414703854623
-10.8680167326531
-4.32211609530105
-7.6096142880157
11.6303060802737
-38.0654853709029
7.83564650670133
23.4074476670843
9.89377952630652
-12.8648081515723
20.4724778386271
2.89204956331943
7.48439136093403
-18.1812962734986
-9.31248151403114
-16.0406196244751
2.05657864694228
4.75742425552822
-18.1890748591002
-29.5784861585716
-8.76918679712231
-10.4327052151434
-27.3044733961278
10.8035092740778
-2.32202047918211
25.9351401205108
-11.9129337247528
-5.36347379822338
-26.248795693443
16.3025600501593
-12.3498085009047
-16.5935413894601
24.651071535035
6.77722979177838
-3.07250763667656
-20.6721797551482
-5.66791775851973
18.6421740397725
9.00841018191291
15.0666492300672
-34.737291229373
11.6990592941431
15.0126422520003
10.8292812538554
-6.76703932435899
-4.93717508496233
-22.1858733125775
7.34225908131184
-11.2845164948413
16.1057895745874
-22.1442176317169
-25.9675955157774
-27.4411050805006
7.43039759642194
19.6442777345128
13.8405212325181
-32.8686341807577
14.9194767274842
30.3724340702874
3.3488585396293
30.232426657358
-11.8931349939181
1.86748234593573
16.1465592006594
30.4162417464854
-5.92588028377322
10.6488916466053
-26.1372085342201
28.8908688444984
-37.3203155014781
17.6868877338117
20.6664049450043
30.1837769935211
-1.72978088410253
29.5901205765235
0.938154026517586
4.1748030344331
-3.46552273175493
-17.6039512256405
-29.6578819462251
31.7612889888916
13.9611515087966
-18.7282574430956
-18.4327537512946
2.83032427339424
-17.3936906895374
-24.8156275692537
-8.1461305512759
4.5729952803821
-4.85087374218378
-21.288606722676
4.55102086357104
15.1133574557014
25.0072148063169
20.6096001644224
18.0303216838992
-21.1834747885848
-27.0807846332174
15.764029927173
25.1708072902309
17.9950550270446
-29.8774717393336
-1.6767103204542
-13.4674469828853
19.6482839855572
-17.1043242259012
-23.4852658588045
10.0208650476197
9.58329887957048
-11.3169570445733
-18.4398654630015
8.67741460391964
-13.6863268411249
28.1383073253859
24.0156484581484
-28.9795326793974
-26.5744015240147
-4.29567879643351
-23.7952004519942
8.79149380122673
-5.19444492990791
-20.9851826161968
4.61633650308904
-7.31488576423081
24.4290459846323
-15.2160362245882
-30.9811857591848
-18.137862217035
18.3265822767581
-18.6700196071535
-9.83635731244569
-7.40014253686344
9.34612858599893
-11.1575145832311
-18.0116289953212
13.1178721336401
-30.3185440756112
21.6154400691253
-18.9541766207174
-17.2071028863721
-26.0725758546039
1.68653466791313
13.0722896901054
-20.7979099595462
-20.5931387636964
0.841867959930232
-9.05839220036566
10.5263858617481
-15.8271421622565
16.5063876147675
9.41320328387139
1.84691322255448
25.3340322778534
-28.0607032505137
5.19473352421376
13.6820093382244
11.3869578134758
-21.554761966881
-8.36634007724084
6.28361119749287
-11.5757820142295
-22.8411255009935
-1.52827666747967
-9.02207730617363
23.1610853437257
27.1651678660657
-34.6142850171469
-21.5363160268341
10.9430276602343
11.8007897016105
16.997148274919
-26.0230018682646
-34.020759480811
13.9934462810319
-1.57935301570479
18.2807656089969
-5.5432968088338
-21.7608313740481
-11.2214760751551
-5.55092797285898
33.3727697874235
-22.4874197659719
21.4250956023736
-11.3802159645073
-5.16261939616351
5.48214863392223
-3.50430956946909
9.33383219964059
22.2423260683395
2.97743776536672
-9.12428553509312
-19.1510591141407
6.07196404173001
0.738709667505829
-28.5759418434995
-21.0354635276652
26.4577672758267
-14.6147633726408
-25.6268819672353
-12.7036253597029
-1.62066991858912
-16.7539194237613
-19.5782981110128
-3.2045168769544
13.3177208493168
4.52608234067137
6.06867639340223
-24.0411517757258
-3.24406145629759
-2.33162898623146
-10.7456298403963
8.05143242854542
20.0791724989343
24.850020772681
3.40879205370411
-23.6723916942863
-27.0889676329794
-17.5223751617389
-30.9489556402832
-20.3115692537186
-11.1934641643553
-16.0135833671319
-22.5981001625788
-10.8019249760469
-7.13028616001653
25.5100778674749
-3.17557671640142
-19.5090568854118
20.7081567686982
-4.18359741325656
21.6768091062593
-28.2328131487963
23.6435784536729
28.8577358008158
-32.7071151442309
18.1962334738879
-30.0093000910894
7.89194881444416
8.63542356143338
19.9038771196744
-26.5292181370103
-6.90968469100461
-18.1486148341707
-15.0080688420968
-10.2264202394933
18.5951285599495
-7.05251291857329
14.0028580229374
-26.2907484213561
20.8412102680795
37.3564698021996
1.48684525185324
-8.21200274548697
-26.4314983791019
23.8943956805829
-30.3226789492318
-28.2696377651952
22.33524253924
22.0786598302459
20.2670793122775
-24.0287490436495
-24.4879777905112
-17.1926103233899
-32.5950517510075
13.4566711507015
-22.1470046543619
-1.6761512880522
30.8196473521521
5.84391576024791
15.8766473941271
-25.1279022556522
8.94429088379936
5.96643805316462
-29.3595701053516
-27.7944415742333
30.5624664402997
-6.44343548848212
3.61785479913521
24.7356016051978
15.8411602400518
1.11949473119585
11.3032776247372
-15.3944132397651
26.1963954080601
6.29768868097291
-22.2943484825103
22.551122677053
17.7164150164254
32.8390218315767
-18.4076197235617
-4.5250686007267
-27.7246375082347
-1.42191174865137
25.2609621607976
9.18897288589094
28.1367267712275
-15.2672155504558
-20.2113776217288
15.6895566046617
-26.1011899652451
-24.3377236252016
-3.41273698434101
-30.9142347513972
-30.751446884989
11.2016015784019
-9.69994644752144
12.1721246878464
-16.604282591928
30.5119548865005
21.8100662256387
18.9052142171461
-3.12539920019585
16.4306552983223
-28.297742924505
-14.7281346990974
-8.6724153649404
26.3737817470605
-12.6532537453932
9.01734148927617
-3.42764043774818
-17.2852417962785
17.5076405609659
22.1579533861208
4.94219127975095
-1.46496211684541
22.9495145628257
-22.7615479627958
25.8244452802221
-8.5675011696324
-27.4853702516466
18.3320520154962
-17.7287894804032
-30.3888420381023
10.2997053212371
7.73763243989851
-15.4622218942948
3.74020397453901
-18.4685824124006
-12.0649677724106
-26.1083690355279
-12.2529274132183
2.84433275527175
16.6949786904894
-21.7813949930378
-15.2853489402507
-16.0918976328132
-12.7605102424911
-2.57474251593637
9.93987208714912
-8.74553675635899
-31.1461824118174
-27.3101984928755
-3.15724612626594
-2.48810619967112
21.4921481600282
-14.198836388562
0.213976267689722
-1.17081198277321
14.034504737769
7.46050198136725
-19.5560490160721
-26.1357961699851
16.7212762734653
28.3992235349809
-7.33314473550689
3.58010695431958
-5.27140060088762
-19.6809457609637
-9.78318369282939
-32.3470116193339
8.09587578847407
6.15055443494809
19.7265711421636
-6.54335528696066
31.3986574088901
5.22351157292337
20.6972860677968
26.0149912670644
-8.61255707271285
-20.4418924248912
9.73147073983586
2.26113305591608
-19.9402038767948
29.7632384462233
35.3715177776411
8.25977510055845
2.99657030204461
8.02762857817231
13.3720425825724
-7.72272528953466
7.17673305444658
-17.070894937812
-10.2660173771012
-12.7790176426235
18.8556715150296
4.37816934194554
21.4280744872504
18.6011756347569
27.4893307087559
10.4285027226091
22.6764090087267
-30.0172632923596
-19.5481827726747
5.84587428726532
16.7634054050413
-4.63028561391454
-22.5948042651773
28.790352382185
-3.70737548274468
-21.7632747026248
-8.23661403926583
6.66939065367822
16.9460933871228
-2.07291664143526
-24.7768083203082
13.4152817643472
24.5804479060564
20.9891129440406
21.6677582453769
-5.2381885477953
12.3652132928345
4.27861298489799
-9.44631808387946
-31.2380189464344
-6.58768979432385
-8.18360449387278
-6.7680145698846
-5.98085046198605
7.64702076825945
8.2585325131372
27.7277524594093
-38.1196707832638
-27.7539962278443
18.1304009384025
-22.4874115973955
11.8511075482866
-3.19422969403568
-1.32794895775534
-21.1265723849948
-1.86679945902053
18.7128816081163
9.36185380479944
-14.0800063634483
-0.993558086713133
26.6480527428303
19.9355264652762
-7.48555667542004
19.7861550228046
-19.0852318926727
-25.2068891597251
-8.60587305540658
21.7570191817891
-29.0359133517862
-0.732304315533798
14.5665149505517
-11.9164555136127
16.2894330124671
27.7307366788419
-17.7816543645936
-12.4545573429037
-3.83118653145706
9.18681083822558
-6.88358412677785
24.3416974473057
-15.0085396704984
-6.9774976503224
10.5590444057821
-25.9086957311863
-11.0393604382391
4.82603180690911
-23.231827322872
-14.7693984093373
8.3856180882907
-1.93640850327823
9.15933215084461
-16.3694486166462
-8.08736228693252
7.20402425094915
-13.3283886349772
-3.04756866994532
23.3306434855155
-15.1979048532737
-16.2072943100097
-4.69256869148708
-22.0662014392605
-30.7384859889151
20.4891100138993
11.7174927294919
29.5433363388361
29.8958376106431
16.254270123761
-0.180817115361301
-10.6747874705069
17.494021014561
-18.6790911276324
-19.9843487596483
-11.1475105451132
-0.211142195123825
-17.3562757568165
4.38108652764349
-10.5463981857463
-15.4907773732218
3.62420716557445
16.3171493228423
23.6631391270925
-21.1061412451537
-17.8211221253636
15.1579614018806
18.9846622586379
9.28272697389441
29.9398319613776
17.1200020493995
13.9565263105862
4.40967139836523
-1.07375549586563
31.5311253162352
-11.9214593899479
31.9898710457014
-8.73085310021236
-19.3148848348196
-4.89062842261626
-14.1393799577582
-29.5965238211923
-14.24473517441
6.67370524495325
11.28704230264
33.9882263162157
6.68180802188363
-19.1325857770437
-1.42128976229597
21.7909578549962
19.755387397873
-6.64113831631859
11.5574239418747
-5.86541876168937
8.98394990204127
17.9906566006409
-3.99698922979426
-0.224004338658144
-8.25636403569552
6.98256649002197
-13.4810583105807
12.6434507330829
2.56387437016556
-32.7558502130938
24.7470527123933
8.67158093534135
13.166773695281
3.94980415978046
-22.2030600916757
20.4732458657687
-9.11934210269987
-30.3917303338118
-32.2155180572608
-20.1712535266536
-23.0636087795029
-28.2079002662996
-16.0416873742819
-18.6772361377157
-23.2230641722282
-23.8845046662485
4.29665204472079
-9.77141021316033
-25.4967655887692
15.5411310038002
-32.0330164368164
0.396481902803534
-23.2356829464931
1.17070951274315
20.0456227892263
-19.5101417870939
23.6242492310169
-6.23153743343946
-13.3776766305559
-0.494647909391133
-30.9992742961612
-5.57992662084265
8.08779085545443
-11.7366276216749
11.8422703258422
24.627071356053
-6.46146094148294
-20.5638749494505
24.1407462851782
12.7358988557132
-7.25728105719186
12.8443790277475
-15.2278274017542
-4.06481606165833
-24.9074404987278
6.07819129943198
-0.184332530304131
-16.3865239151916
-12.3028111899863
-11.7779521637339
-18.0112032809202
24.6460273534428
2.80943251108161
-4.31875007771566
20.78409135071
-5.7203880163495
11.7849157960322
-16.4361344996389
32.4743791526117
26.1751112589118
16.1276159421699
17.7571461699994
14.7830849697865
-5.92736016068381
-39.2399486097661
16.031538256862
-9.54326764476501
23.9624538661273
-2.05628129187831
-3.24758838323028
11.6074283958538
-7.55381932467664
-1.9865977662787
-1.70719415131692
-10.5286340068944
-13.7218918125996
-26.7920252571135
-0.770668418886242
-20.1877040063222
-26.7369501096184
3.59087635837368
3.49822795589011
-5.05917970083325
-19.926850235043
-3.82611607713648
-23.4412823701781
13.181387354606
-18.3578713782704
-2.37344385522202
-16.249740225411
-15.9591150521216
-24.4449070969333
-6.0655872369043
35.7264735311811
24.1691296698954
0.70004124480124
-26.6726142903741
24.4789420428551
-2.47497693198382
-10.3010599504842
-13.9442255526288
13.1641482618657
31.3168772229183
12.4729093569481
-5.40812263222552
15.0239154477199
-6.84100037386159
-30.514073592044
-19.26072686494
2.39919844501906
-2.972618349055
-33.9469033863518
24.0145148348447
29.2813716134801
-11.9462387340018
-26.8827324578499
-1.9258073701433
5.7206660464462
-26.0561302592856
16.3997822002578
-19.4760033030546
-26.9215002301256
-7.34065678733506
-22.6525277603341
-22.5974354900421
5.8861560440025
-37.8225390373605
9.11631369090801
1.52462789248259
15.8544732758131
-16.5073302539552
-24.8570758437973
-15.746144270035
29.157455555881
13.3239734823665
26.7308197610484
10.5180416214792
5.51243834143184
16.10489198083
-0.403247523794996
28.9349205734382
0.257711694102328
-24.0482180247876
22.6873019458541
13.813095573854
-1.30218538239028
-22.3921590977361
-5.67209194464204
4.1977992224442
19.5672871164274
-27.754619660109
1.8751230748661
11.5091021666892
0.0707149332923645
-18.1934562325195
-7.44988275014662
-3.66286795231148
16.2693309333753
8.88338251984609
17.2427752797448
19.9341256106166
13.956617267825
11.913991659756
-4.36483956091052
-10.6077632403736
-3.38326618414922
16.2078830582937
28.139469132398
-16.5629808275665
-5.98940014877983
-1.62516683876961
23.1202467348696
17.1690029205562
7.37293184485369
-30.6119148066699
6.58814094736525
-30.7665524120256
3.62364419709783
2.38827581271716
21.3009494908572
-7.19883751603537
3.39973439642718
29.3312612681232
9.08479169450896
15.1060837187189
5.91867525373509
-7.4196553605818
14.6245796174897
11.6124019174797
-5.86458504867839
9.0988921772982
23.4979395567823
28.517241955811
-33.1413656600472
9.93839180278564
-24.3998301793109
21.912434336047
6.61755796222118
-2.04615957555247
-20.287087480216
-10.5772001278972
-20.5099740116112
-22.3224625753317
-21.3736869709088
-6.69332188466684
-26.7520042008961
24.8558361404556
-26.0304140538564
1.86839277162638
6.32555871632304
-14.7292055665196
14.5892544744654
-9.55759044618715
10.8928730800066
-9.79142208545665
-15.0766215390102
14.3495633355198
27.000550277719
12.0125487660325
13.9527680466282
-20.0973522510082
-25.5492381916268
-17.8759547188299
20.8433657716438
18.496980581771
4.78795046945291
27.3420844590974
12.6368338285244
28.2835430459279
20.5867557348362
20.5863932358093
-8.27975455431187
-22.8051527394183
-13.4450152062444
-2.98644193965524
-16.5201715502894
-7.13651080448508
21.4485276015395
-9.1913278984038
7.08340428513246
8.88959570822743
-24.1640268339068
-21.7576514741543
-10.269150582539
-16.1677443269914
28.3342540462341
5.5586687740554
-16.6530024266231
4.73241195494461
-3.47931761050024
-9.18178163409379
21.5570321842246
23.4079137905588
22.7395969634378
-29.9949881271938
-7.19210396142724
21.076897925287
-6.72678807940082
0.066990716038388
11.1926874758627
-25.6232053440887
-14.3760268958109
-14.5212478667796
8.05661058191016
11.4151883995401
24.3747212579325
2.71226123331855
-33.121147100858
-14.5573531803882
-24.2461389386866
3.30106535184082
-25.6321414116874
6.19228762988556
-29.3835918349589
25.062863303399
-22.8096373700431
34.6799216122771
20.7265855600949
10.0033625036251
12.0791401574464
-31.1232963989781
17.9562475363915
-34.06537337466
-7.26952549034463
7.79928122543255
28.6643197527039
-1.56879509418085
-11.2245674766063
-17.4433061635358
-26.3707726631968
-16.457919223246
-22.2558747450059
-14.0664243340309
1.44949899626461
0.780426367494847
2.34218738024505
23.9607499115649
1.99526614388727
2.87225888876474
-8.45126696666499
-10.7662811238872
-6.81701833270389
-24.591067178145
4.54857565848626
13.3784035694633
-3.61083603634643
-18.95731173585
16.0445150666899
20.1299038071584
25.7428940813429
4.76279173138913
-27.5569956454051
18.5474572888266
7.00907571102805
18.4214472911127
-1.35139614597159
-23.5882290950571
11.7651940502252
23.8694319546959
10.3732126489354
-9.85823742872928
-9.28947774848431
17.551586678142
-24.21688651085
19.7086977153592
10.4671850918153
3.25460673664768
-21.3343761128898
0.925344135459905
1.83289125851879
-18.4170653724594
-13.1867011693516
-15.3232278644516
-10.4837724271557
2.15816614573905
-2.34500713838979
5.55136195665163
-2.09999092295587
2.99979371551321
-3.0196087888632
12.825971432027
17.2850666260895
-6.31615942921823
-13.3354094406314
0.521043098356241
-19.4136326760052
-16.4507449116739
4.06326287489484
11.4178930499307
-20.6734866616645
-9.54942495904648
-16.3461072283477
-3.44948342772358
25.0910291512885
41.5508457319107
20.0207578013608
12.6353425233114
21.3951247350895
13.5254530949854
-24.0287956132368
1.91572504562873
-28.6163225683483
-9.52828269592712
-6.64992424053457
13.809556124933
-3.75320284606966
20.5588769154648
-2.63611776806813
-27.6470853652507
-21.3586758244163
23.3037546326876
8.25902778782179
38.4566769632425
-3.7848670788793
17.5815824650754
3.03121375914981
20.2915138933458
-4.04228094502589
1.7513082441805
1.53821007274774
-13.0139700744515
20.7656947185515
-17.1601589913101
-4.08972110668561
-17.8690659443095
-24.512137544605
4.69582247042771
-6.50856715666997
-10.127710671255
0.598553846608284
7.3971204104197
5.25401611560978
21.4495379723902
10.0447753041921
27.0266429382604
18.2160972310547
-8.86957277967159
-21.6551491669953
2.91351182961823
-9.11986268810972
-14.4970154248982
25.4468706661981
7.20415021950829
-7.36891629659611
-11.0222106549013
15.0040624983299
-16.3529085301154
-32.0561587695062
-26.5571735702753
-12.6409547067811
29.758591156037
-19.2078170342519
0.418447186571835
-24.7712785443013
7.67590358327059
6.32701709739237
24.790606711469
29.7807624670531
-20.8485512075732
-0.0719546014776586
5.94032250473836
-3.70705168464854
-22.5252435257987
-8.83656296130749
-0.636473796358958
-25.9357564814055
16.2387396470303
-18.8166430862904
13.3176681719516
-22.7352461712246
-12.4406987917977
14.4712970577064
24.3244451367022
-8.73469633490836
-15.0487625230658
7.51038571183618
-15.6876993178167
23.008621572304
30.0212260642475
-2.15320193023893
30.1086170996036
-1.41870425106852
-8.16454400250842
14.9790143250158
12.4163387301411
-6.09512441741762
-13.2931391703088
7.70998228528929
-32.5865672788842
-12.0945968183227
9.35300857883465
-4.84258994367356
30.7361884873917
-25.2521313922878
11.6875067207365
23.8178200791329
6.46992263071486
-13.6103564752336
-27.0104467652298
-14.096421869235
7.79243148647703
22.9555990860457
-7.91209526721826
14.5261685023659
-28.8957131358853
-18.5179015292216
-9.92661276931755
-22.3116718418633
18.3547248263101
-11.9216135462898
-7.02122277101301
-17.5033799013876
-25.5073886618549
3.13714482476691
7.49799087024167
-28.7743461716198
-14.9774641301348
-18.5289659352894
9.99934736222383
-34.5530229243031
34.1397115825537
-13.2341429841285
-28.3278406455806
-7.93584066615986
-0.894632770399138
22.6536750299981
18.1598714338354
18.5508356176608
-3.59417303461048
-3.92469758642372
2.20040008245056
19.7057759912298
4.91845587315753
13.5239899211821
24.3824928668583
29.8343346283575
-20.4506467971628
-2.24695222379106
21.6424284557199
-1.16706350457721
-18.3130192921376
-23.0115367534704
25.1605857652234
20.5778133656772
21.0934571838336
10.4056061971049
-12.3439924643339
-11.3056452122859
-12.8250987966397
3.42015387430424
7.4362488289726
8.85953608370566
9.95431214992528
-23.0382179319102
-6.74798221435301
4.82148558311656
11.9121822204633
20.4382036409616
-13.5228688356688
-16.8258353514644
-10.6343190539902
16.2618151276614
10.8532843706583
-2.74634333645883
-3.08916198274039
0.439085448738398
9.72990634540753
-15.5588715659321
20.5794868807254
17.2203188333546
11.3311725070753
13.0568994271804
-19.4032271665012
-15.2599667694738
24.578075174246
23.4590767216695
-11.7218074804289
-4.11505051040757
3.39255740566631
17.4118707398693
6.09079400998938
-2.51861414385951
-11.3642887667141
25.9443478335558
11.0265400766847
-35.3468681415655
-16.2786154988386
1.81119719726955
5.81104624975664
-17.4061003319433
-6.40552457823112
-19.9728930353321
-20.0341978539562
26.1107608579668
-22.4856505341901
-6.93273858373098
-3.89466016538711
-11.6940774762936
-8.25046325694267
-10.8258984287288
-19.0981771319745
-24.7469656645522
8.57478946446808
4.87344484702742
16.0147231349537
24.9085226930435
-8.59684347685649
-5.95317915367587
-26.732158808499
-15.7317593144435
-23.2800581241742
-9.13702516803423
-13.788122862068
-16.7548938820535
-0.458504009904825
15.1061477846254
-21.5504047712391
9.29926391085743
4.59743360325256
-5.67716424799454
-11.2717276833115
17.5493112198783
17.4567160852786
-0.154640786154206
-8.53852619694763
10.6731188927451
2.50744746577476
-10.7572652615188
-17.5322855903771
15.3553065210813
4.08919940535079
-36.5469085588546
-30.4292492294603
-10.4303671552742
-0.694620970585265
-5.87147428835081
25.7662930084968
14.9352970814039
-26.0858292065902
18.594082791502
13.8548803798639
15.7273732361668
-0.665416126037178
-15.9911186571958
-7.23963102563868
-29.3811208675601
23.7815103289157
9.46980711504207
-10.1091920840722
-5.77921851693081
-28.2490800856261
5.39493737373265
7.53239904649065
31.9185442905164
24.2327107764641
-4.74568772334888
-5.83905038725628
-32.0986444868926
-24.6998427105884
-21.6538251611133
-8.52486005742036
-29.5959206446906
-9.44462606945472
-13.103959104085
9.33548908244832
-25.1439823803314
-21.8553097013398
-32.5303439538417
22.2759514055548
-33.4081684147068
9.01219719027202
-7.00241143729897
11.0002551531267
27.0191209258979
11.2750557149739
0.412126457802503
-16.671968323339
-9.72015942727234
-12.0516135389817
-10.3100732387271
1.10363496567697
21.5472408444524
-24.3853430225075
12.1667865331674
18.527561349548
39.233170722849
-4.58582292472425
-23.9952978086612
-7.56116720797689
-15.1829824009122
-18.3561717564328
15.7304075622258
9.92628753111215
21.2496089075218
-0.12334817124093
13.2433941326471
-1.02087232123081
-12.625347532528
-0.160011129726909
-26.7418574135458
24.3074841230906
26.742178992772
24.6376670548135
-11.956186422287
0.356656886760346
5.17272780903783
25.1798053034338
9.33988202802872
-10.6531517249079
-4.60637564871218
-26.4941261133375
22.398072613908
15.0450628468194
19.2540765481491
4.14601008378972
-9.41544668056562
-30.4639074593598
4.82689537441761
18.5065436856449
12.5049376702804
15.1251324467264
-36.4943156531577
5.09682280737885
6.71965589850965
23.1783946570503
24.8129351700866
19.9412583587257
19.4921854213248
-13.3255550821703
-31.6053455874673
31.0884779144306
-31.2635219129628
33.1433231819159
-14.7867343597192
-4.60925456158135
2.61433536122497
-32.8619844435343
15.5727673287819
-19.5463532862912
-27.9948057524825
-34.3851882347001
18.2492319932764
11.5547878850579
28.9503289403291
-14.6293158319755
-12.0647449676086
-26.0477199052838
21.5560369100059
-17.8744826158569
-12.2940153127698
2.60214597693983
-29.0215472524513
-0.29715165751834
14.822466786701
-7.6891889641653
24.3129402139354
-16.6933340838275
-19.4636164307361
-6.54026764071656
8.44827071443149
22.0327845202763
-29.247333782327
-7.85573826133036
-18.5920152689709
-2.15007237977151
-29.4099610710765
23.0327665127992
4.5716242564329
-12.6858893970891
-32.6404460901265
-10.8333631615328
-5.78360619441656
-18.0133370866551
6.942102479974
10.2632672171009
25.2313882696359
-16.7914601514603
14.0269394818243
-0.0931852517747766
17.228197530989
19.715057604175
26.4198168640164
2.51768334161445
-15.8786880519187
3.97698496711385
12.9153425332219
0.0125678281091496
-13.4702729452672
27.8605720204144
-3.86775872232359
-5.81201644623386
28.4644632302949
-11.39251431416
6.01898569800616
-22.8242113635499
30.3472808121295
-9.66512175607521
-2.93519482093411
0.34599911128918
-28.7160432919581
-16.9819675249182
-0.150661819740236
3.35940075271316
-11.0289086307068
14.1362564635891
-9.54728966578208
15.0540909363999
8.01916559883973
-34.753027359869
-1.88291104967976
6.10883028535288
8.0397472801156
12.0455893092905
19.7802437737955
16.1239492405166
-36.2726496795227
7.7050074326304
-16.7597734437759
15.9294605783496
8.87761530225182
-12.843260112813
12.8459033308483
9.31561457368738
19.6088366062382
13.3072538136534
0.564474984570661
-20.387076098733
15.8581279019494
1.24777256627128
11.2623389599149
5.59419899253904
10.8737148978297
-16.5049631017175
-4.73444934993479
-9.15029434812293
-15.0997526238465
-17.057582976719
-8.79832833046705
-8.45800932104194
-16.305423810613
-19.3233389770634
25.7960439977243
-15.0824517605741
0.945714311644604
23.824630982042
14.5186839467978
-16.8504050804238
-8.66681150977133
16.1142208916984
-24.2803651097881
-4.23513903865472
-27.3750068581237
19.8037873059053
22.4572850575381
7.51655958157599
4.75456943048446
23.3541286479351
4.11829725926712
