-24.148596474456
-12.4963912052614
-21.7442363836645
-20.0602772897717
-17.3149904363466
5.9761013545906
14.3825251699878
5.40596974489513
-28.3113016142378
14.0385188121135
6.61625117770689
-16.2461107611161
-9.11759598292412
-5.44050556307894
-0.400700563243314
11.4779317140854
-19.0330928774426
0.648589931233499
9.18931212579139
-7.72466906019578
18.3488586653713
3.5373847520486
28.8031255340893
28.7164162567437
28.945336144292
-3.44763422466548
-12.3349094129026
31.4341807189362
4.18788679533118
12.4225330520211
-12.9910852103219
-16.576024808235
-25.8710807796946
-5.72043921545538
-8.4400013386806
-15.3711493803151
7.0660880607618
-9.97766663985876
7.3617099843204
-23.1350695308946
-10.2813544259328
-11.608222288833
15.3898366382122
-6.73878258025705
-17.1243227378521
-2.51977550850148
8.84459682693216
17.5828290961996
-29.9966788803099
-24.0406550255558
-17.9146755349018
0.827544140631719
17.6604414686397
23.7757678999489
-7.8795544842745
2.10423992938796
-9.96128222387775
-21.4142850009819
-19.2146169419767
18.6275688802771
-13.869433181988
15.4393093113369
-29.8422777215424
-9.99613696167363
-0.909456907815648
-5.63265073003338
-20.5052905921529
26.3373285768883
-26.5793352510878
-18.9448166778169
-24.3733672652205
19.3136594908861
24.6199381591093
2.81963872958197
-26.1919403495123
-2.26147978175907
17.295235815129
5.26521750563582
15.3834017629747
2.8233101010611
14.5291397562647
1.85093665105134
26.4283942397296
-3.36776004217817
0.384873166284881
12.4280288800711
-8.93599730717709
-19.8041916556462
-30.1889830017402
19.8997077017549
27.3181972272165
-4.81325386341706
-21.1896149930628
18.3265548713258
21.8143192838917
5.59056853155731
-12.2467107828575
-2.13898501754666
26.2675594536774
18.8876890918317
-12.8222168711735
13.3596951972513
14.9340210362435
18.3075618091177
-29.9208501530958
-8.23675834260386
7.84418337727951
-16.1355410480154
19.3710869019692
24.158594926252
14.7234338980552
13.7625419700039
-6.85811091828355
6.27919237513456
-28.0287902424681
13.8684903690031
16.7797649201591
3.36886084291274
19.3352007352346
13.344674617185
28.3488350902851
30.4910919836558
27.1850514779746
-17.0170359274817
-13.193038269179
9.35879407859443
10.0792902516468
-23.5792525232397
11.738968994554
-1.8110062665281
-20.3407230784776
-7.92676332371643
7.10117325599639
26.9796126830427
-15.0064968900184
-26.2660138848366
16.1735626249523
-20.0086511836894
-2.81928489255276
-20.8981773924176
-26.7414283530131
-20.4900506549589
-13.1323127612561
-23.8254101647729
-25.7089110746504
-21.6102408922664
-26.9539681733717
4.54732283419443
15.7825715936307
-24.6858198565156
16.8858853180325
13.3131572993662
3.59029976937099
-16.531010684959
21.2577861753633
-10.3983312871294
16.6651823431663
0.11582207732607
1.36706568559974
-9.49336519323862
9.58269282681915
1.37314560265105
-0.824411274275841
-6.93407549052385
12.0220261046053
-7.94700910717826
-24.081132263657
-4.67794430800808
-10.9028786786096
28.0462871471833
24.7835429821213
7.19488843509858
-24.2544076271799
11.372804248472
10.4933139749155
18.7752444877889
8.26759619787535
18.9116348466483
-21.9454907526305
-24.4395032171415
5.42217946586118
-19.9648312116901
-10.1118411468652
7.0303976166896
8.89208311693346
-2.396203652049
16.3032363736247
-4.8821969969756
-25.1388636568872
28.1818791028966
-14.1552741503875
-14.569456042739
6.91756848689337
-23.3350587759057
-1.07854745293786
2.13063939298294
9.03632219478636
27.2884483307497
-5.61981451537871
8.4654208523823
-26.7308881993837
2.78101076435962
-19.2486464134276
18.5760676287041
-21.0002834145593
-18.802979968928
8.45523791579998
26.7893299818524
1.61923548054199
-29.8779038283511
7.09585753864131
26.2330686377958
-6.8201000473115
-4.20722759432681
13.9350769557379
2.68937085325955
-19.2126533339031
26.4157472758041
10.6601545467907
-16.1460154316518
7.35701429750113
9.38004788861124
-5.31802358459975
-8.08312228975479
10.8844258368022
11.8269396705306
26.4589235930835
27.9230593403947
-20.6312033701466
-22.3589530319596
-19.621479245376
11.4243828025889
-3.74082035553122
-6.58993604641387
-27.8391222561449
-26.9750113711569
26.3748908224148
0.732152071920248
-4.45564344421344
-0.703550020096996
19.1281683357212
17.7070106420111
22.2924868786638
-24.8275292093975
-9.83631922397522
-11.7058785214745
21.6136856850849
-17.362340710705
-10.0117319558187
26.3898613377797
-13.2908244466826
11.795795860232
-14.0106745232122
-21.9359462128746
-29.8129877454996
-8.83386328011958
-19.122349454045
16.3255830612783
-27.1157062529179
-3.93916196823938
-15.5747140309687
6.94846625616738
18.6579526311424
-6.13897318799374
17.4855100850758
24.9713951287505
1.46616614116645
28.7424927396169
-10.7275146294372
5.22765458409848
6.21586072772354
8.93215519248129
-2.78279761164269
-19.9140680344207
-5.5385753893201
17.3643508075105
16.7928642690564
-12.8690622863549
-30.6384904216077
-7.74078177144459
18.9984128262513
15.8331633090388
7.29884882168273
-12.9226764013068
15.7700838539649
-2.92787521328807
-1.16228729226777
-17.2311786591782
-5.26473387786806
5.14328313722691
21.4620097128904
-20.3839427329448
-5.96549492933615
30.46142555853
-19.6236271207946
-20.0458171727083
-33.9189124724093
-4.15291425519171
-9.14542947565866
-8.96070638127353
15.8849687535686
23.3552146686306
15.5521541104015
12.3504828297591
-8.1134162727
14.7439554774692
-19.5093385204877
-30.4471486966207
10.3191436042691
-9.72140106783342
6.33971855279954
28.7409685051844
14.0732400658531
16.6429324046141
11.9888424707971
-3.22552042286829
-23.8330573215582
-4.10761851020526
8.39440886172801
-11.5595924769404
-4.17020685724814
-15.6402767284283
7.91438317200024
12.7734647507648
19.4558464145467
-8.62450341323316
-14.6899331806806
2.84892303598503
-28.5692400435683
-17.547176080771
16.3750634382914
-10.2277259403774
-32.9428264839465
2.9134494024226
4.28694596317713
21.5833413412138
-31.1058150178144
24.8249236845198
17.3811703784327
-24.2428580851396
-14.9528219595743
-9.29303384991132
-6.79085631272689
-25.9271372265113
-24.1480704914044
26.635119820655
-2.18011312463879
11.4037250393724
-11.914053194286
15.7992514461711
-23.3130487166463
-4.17266524714795
20.5187308617603
24.3336424287381
27.6118718866868
0.118487848983515
-14.8026561144275
23.4563977501346
18.2277037191326
28.3460416016672
-6.73746108301533
7.87446896572297
27.6934135725027
0.658924517528572
1.68410636256909
-12.7003266134553
26.6633165393627
-17.1362895303205
-20.242165550214
11.5619649209394
-5.16019680259553
-16.2317114311283
13.8786516243826
6.40418809421034
-20.4797249779595
-19.4942692281627
16.4879345184141
7.3718862600208
15.6447471532484
18.6030598153123
-31.1298657991114
8.69532050161528
-11.9472270755895
-12.5499924221828
-24.4843785109472
-10.7666887086158
2.3267469250644
-25.531765832231
11.1181128951172
-23.9628982204889
4.96017069235386
-31.4203030193888
-28.1769047541077
22.9652957349913
8.22385080956512
-1.61049708292229
-3.78913903643256
30.8386919321642
2.13198385375919
9.60612215728163
-29.349579541569
-16.0075293919268
-1.4872673712216
3.39022730663356
-10.046661704579
29.1453601395208
14.5411703253061
-16.8610450097784
19.0055319822156
24.1089985386793
10.377098970417
9.88893416065697
-20.0776119750183
-26.3626894660959
24.1015759104065
20.5007282624894
-6.23454097477475
12.5304017069225
-6.37678294875274
-8.83316722750691
15.8516924430692
20.2838954884913
4.09003126588372
-25.226402614703
-19.8965286424151
-7.44394192315282
-29.904644023054
16.5349668720281
24.7023207451171
2.33459459328223
8.44179203914976
21.2634811180697
-25.7027228448802
-25.411335353887
15.1861422673137
19.579694639625
-23.8829160824821
13.5361582562098
-27.2949450076005
-20.9225655348651
-2.96497481258168
-14.1605152246606
-11.8587097507049
26.3666268607706
-0.272233248948979
31.208704553882
23.5868493578465
28.5907857597653
-28.6271709324102
15.1703648954691
-23.7155626648546
10.0155732001595
8.31577541410726
-12.349415027246
19.776031379973
-23.5205332719315
12.4165030578029
3.10011462790487
-7.23613939942833
19.6862757956555
26.0832829511061
-36.8254925439335
-7.67148430616627
-21.9169776317159
-21.7307163332541
24.7485639590888
-0.0772827047683812
-19.3841540017194
-19.1896076372028
-26.2418429521125
11.8181328307852
4.11353605423011
13.4879003548894
-15.8322128367478
12.222399411404
5.61939594695894
2.46646239159823
10.0334461537051
5.64025091049194
-20.676278518047
4.78074995451743
-25.1820007846576
19.9858478181069
-27.9966323281947
-2.19847632135541
31.9133847230554
-13.6908950898482
14.0210943275203
-17.9937030321389
6.19721987609844
-18.2573129077069
-0.442999877987429
-10.1517678736421
-22.3460684638769
-9.19730147533286
-0.540188178852279
20.2069101383343
-22.8794472074234
5.89852526279037
2.48545886715413
-9.90279531960063
12.5967102445594
15.5777685763596
27.005007180653
24.2720120753526
-3.60696064860889
-31.3230336261798
-11.3374104108522
1.16611174297108
-12.5825933074108
10.3296335328808
-28.5934480293925
22.9724039140992
-14.3527246875434
-5.40038960146933
12.1663131725005
-18.0892105480663
-14.6408901556786
12.4471094441522
-28.1247563555684
7.84693503542344
18.2083369616151
-31.3908518347911
2.84933567053236
23.6792309269377
-10.5173101412369
-9.70738487674021
2.59562109175062
18.0019045256065
-17.8981438767995
13.9311366526756
-2.07889165381902
29.6713324072446
-20.2954043558843
10.8232220896668
21.4500651269065
-2.57091521226718
14.7416679404738
-18.9292669765334
21.3523577521743
26.8070904788658
23.4111692919151
-21.8121911864101
11.797660923469
19.9944147921923
-25.5185925968701
1.01783730759677
-32.1306288946269
18.5528393687443
3.07696892715989
-15.3787700509864
5.52305511360166
-10.9026992131088
6.3900877103823
25.5283683142155
10.2596219591365
7.06730003991489
-23.2723537478761
24.296531606773
13.5920114191089
-16.0885106314805
-2.74028519933262
-4.12409474366224
-6.46860269596001
12.0729366297739
-19.4030081150673
-24.333668928731
14.5681247771873
4.35781643931603
-8.07129678659917
-17.2789695344453
-9.97487877390727
-24.9498257784438
15.6571901780337
-21.8279850510537
11.2115335495654
7.46284126858292
-12.5333541840993
15.3538970955825
18.4945829755168
13.0817481594259
-14.5381672389464
13.9542463695154
-21.7831084276167
28.059711077977
-28.4010380365671
-19.777215925427
-0.915182634983969
-22.4455814426123
-22.9757313063635
-22.4485889823972
-18.0058425383555
16.6010362169811
5.83366155970658
19.1213121565745
3.43162944627195
-0.710930280127849
23.2095234411791
-21.9745406160368
8.29647235194495
-28.337442060386
17.3090063444523
-4.17431292104802
-12.7530732625653
-9.12108943856353
20.4157845618847
2.86233237851102
-9.41098322904733
-10.2279754119584
-22.6256779354202
20.1363650003848
-11.4988896110377
-10.6656067123055
-21.5437249144696
28.5351246903488
27.3377809576711
12.191527874639
-8.6807044971781
-4.1817386023992
-0.427598858543815
-25.0193195817576
3.94165378666736
8.14388230596555
1.86073070927506
-13.1673555123408
-22.515005062653
1.43702912203237
6.04009747926532
-24.2664224752828
3.50630117760837
-10.0366464898264
23.0881032817917
-17.755620485713
-18.0343652957314
12.2672548632138
24.7683461941678
23.5365572314779
-4.71791053421792
21.8397474614716
-29.0056211671944
-0.712614588812512
7.48063178166199
-22.1656435890893
-28.7364877482076
-18.2700504735851
17.3721380105044
28.2434619812307
12.5806767297771
2.15769510720868
12.0735968147189
21.484323976349
-19.4269672008937
-7.71267689954346
6.23580313541435
1.34509388161714
-1.14229024766089
-21.478926048387
26.8439301506147
-24.0971239026398
-13.0968096911282
-18.0964852291572
26.1320633310262
-11.7722904312815
12.9609839949742
17.7092849645545
-21.4354102048338
-20.3081085631743
-23.5741805673358
-2.72304687769181
-16.5123125058419
-23.4711132187126
-17.6590687762728
-2.15522567224159
-10.7454080239865
-23.5534408411414
-7.1124846819372
-6.53455267644773
3.69747849272582
-10.6310463071571
-8.53010342699109
-18.1448347115921
23.1184094294839
-26.4931342602469
-6.92754758663423
12.9722835622967
-16.5748602643939
-7.12377182884032
11.2717188607365
12.639075893192
-14.9481658136493
9.59929550179239
22.2664937100746
-8.22673305757054
18.7984554910876
31.9953199332035
2.76606284639303
-6.63759601566369
-6.45769272274503
-15.4552752702126
25.0429827582429
8.29356343434064
11.4712106530702
-9.57294861610545
-5.84587181782737
2.48925271498189
3.01907826947549
12.8691608016928
-12.0841067887923
-7.25674117632602
-30.3073906814815
-26.2494244494505
6.09762885653293
10.664206502685
9.92420136754571
-31.7983031762478
-10.0914709761835
17.3620226742966
31.1309942639073
24.9518936463383
4.10221120104179
18.1581718402463
-1.36724095919676
-2.33443540503748
-17.8521765414442
-4.61248636732286
-7.84200040921947
27.4696734527432
9.12348178649104
-16.5979874489469
1.12155628729991
-27.6732385068365
-25.6015300837539
-9.10142354774553
-10.4004788365865
16.8581216275505
-1.02030801401693
7.16314612083602
6.44714370180867
13.2173261863632
-23.202380100667
-0.366129855937943
-27.3704386573824
-17.0585490480685
7.75666860210913
-16.0103107585017
-32.95711079907
-22.8525677153486
14.9509508980227
13.2305023626683
4.84582166213217
3.98950172486514
-4.3696770590368
-5.26418893031854
11.4337261767551
-23.9946084413759
-24.9701688772958
-17.1304163840166
-24.4044858689129
24.0529499519067
-14.1555398948229
11.2986866639008
-26.145022886733
26.4812356225209
24.112822480565
-26.1206579385035
28.4564767287416
-16.1811108715485
-9.52574214723386
22.0815942194853
-5.20898173138888
12.9112453843624
-14.0248649396101
-16.9924089334436
12.261667279955
-28.7240723423582
12.4475192032311
-9.83594853048006
17.6347818027373
16.3809437434429
-5.9522636145224
-20.2286913560169
-15.2068789509453
27.0676448003214
16.8772325000741
17.2265017890985
6.76255620295026
17.508884093776
7.45303608425076
-19.3027749861366
0.128105510547773
-24.7424483495742
-0.483302628523755
8.00838198775514
-12.8742792797816
-8.16193446420069
-5.07211433815378
-29.9323209051747
-17.0194198810122
12.874545289431
-19.2932735755951
13.6278665344318
20.1969925617414
15.2691093004242
-14.4650580939439
22.0443043681464
-1.44030341628946
-25.1071143706001
5.0961303854915
-3.54406325994713
2.30794457762278
27.3524652372281
-0.880895462571799
-18.1839026396669
5.17823699111354
-20.495336162773
-5.39994845137593
-23.6160002812326
-13.7048829844695
-26.3847531588524
-14.9035309445067
-19.3985933531895
-0.0970890237895356
-19.5018795384448
-16.3503991088296
-9.55433864774203
-18.3833373145694
4.91495273557306
30.8315301620831
-7.47140578650566
6.63956538074883
4.30019930458706
30.5922144225833
-20.8366754368069
-1.05773233658285
8.99923907350468
-14.3974553765706
-3.55126104032836
22.0556833094237
13.9944829673226
-1.58451637136972
-1.7191651629142
-31.0728475719737
-28.0722373967503
18.6019621525243
18.9015273978973
17.6105489259595
-13.9066078444535
-16.741553634043
-18.8269648949376
24.0570277207052
-13.5402234913123
19.017663909584
-19.5275100426658
-16.5602066058989
30.1444043605857
-18.1565831676488
9.983911017076
-9.97141423482306
16.115304850287
6.74518024870933
16.3816260589327
-24.4935493537139
-21.4521015418939
22.7289991957338
21.7630041878746
25.7710397383146
-8.729149600434
16.7433125827464
27.2619711297398
21.7361936218371
-28.0154572643759
-15.6528428124965
0.65025205013875
10.7998889763983
22.9434711687783
-14.4933718883196
-7.00698734978243
-2.42670538430928
4.16620599772218
3.60473265945234
-27.735306451665
-0.450734209196186
22.4067327623262
1.42312597778254
-14.7913045761316
22.6009796321238
22.7196006787851
21.3690635490317
9.66773742051437
-5.94158373628433
3.98419202522598
25.2447787705116
-24.6102483518246
-20.0221218899151
9.75328952641503
-12.1228827810403
27.9161664037331
-15.006006296979
17.3533729189052
14.0828547372829
-5.82584714145854
5.30613750674965
-20.1035529665757
-10.2155322948571
20.6947046116376
-24.3956646854275
-12.9789229365858
3.16373866974004
-8.47374000799309
15.6616119749553
12.5913704987886
-18.7513374057265
20.6166628821341
-24.2313394540115
3.69992607714741
-10.4353998531947
-11.295430652938
4.25185631800767
4.99390606623551
-20.0282026422214
-21.3264349825234
-5.38049562083459
-21.5736095294612
3.20985457567807
-10.2939987318575
-30.9993710221177
-24.0193900617344
-14.2515923451522
28.3400629168383
-0.421339026966505
-8.81125109592145
-18.5555603918287
7.35709649070984
22.0434148974661
-16.4114307439567
3.57896469475674
-15.8576723679569
6.01687860196743
11.1708191353104
-17.1452061523843
-2.96277829567151
-15.1762260024255
-0.893302474425384
34.2345050997701
20.6226261276426
-10.8305726448
-21.7137125122453
28.261071242599
6.57493080576818
-16.5003725957875
-30.3566248788698
-16.966962032806
12.9905565509611
11.3022719555492
7.22835117217601
24.5061766532308
-4.95338846669745
27.2490707768126
21.5153392493404
11.5338761084154
27.3144793761548
-29.2136006546918
6.61193702292939
20.5314185804138
-12.3314102222703
2.17581242009517
-0.877131121200006
-21.9498025363568
16.801318982894
-30.4327591403237
-18.4562225746649
12.2805829625665
25.8257332414836
-1.99713268773762
3.68648839646095
29.2730223316787
31.0774973055553
-24.8131018079415
1.63887937314158
23.1209198306047
24.2781759758188
-17.3379984153756
12.8474747050548
13.3068189330347
0.859798808196649
-25.8648609011974
4.79177762343524
18.8760468601999
-25.5283263139713
-14.8169163154586
-21.998792796704
-10.8374372234635
10.8055138115008
22.7688567717618
-13.3170880148062
-9.78868071039004
3.74803431666904
12.7738632136637
4.17239446645196
-13.7229928274334
14.7497005040454
-24.8552747128619
-22.2715369620987
6.92882405784177
-24.5742077917325
-15.3944192950644
-13.2503743051668
-17.6581904719586
-25.0324628250732
11.8553468951127
27.6489835268861
-11.0507592795121
-14.4880293110428
-30.1140946775254
27.4179769389851
16.4531113630171
-14.0691185646184
27.4580760968014
-13.6210721361623
-22.4904565553656
25.3471546373025
14.0230250509297
-34.0603107500819
-5.29255533007591
18.2832005400852
21.0180752997926
33.410321483033
28.5826598445195
-33.4966689437097
-20.2263337100974
-9.59763571389791
-8.54851469018248
-0.687178699698654
-3.11375777841361
-29.1071778202648
19.9677748754043
-20.442184776801
-26.5454955399834
-0.425714126663448
-21.8031672793134
7.65083724806431
-10.5891661859696
8.89171906523844
-16.3486258106032
-14.1714875360707
18.6649938806753
23.1296984803717
4.95385786248865
-21.4530455434037
-5.32811156755507
-24.2811676733507
7.60393813041662
-11.0577220842915
-3.98727732619101
-12.0307181601786
-19.3180894385726
-28.1305538902975
7.02523209338191
5.43380745060885
-4.65189460028937
-5.73878593842562
-9.3335832730305
-23.311417246304
30.1922112585736
-2.46115039599295
3.98995162773962
18.283067312573
24.0800787509693
26.6653633784802
21.953269331872
6.38966252957299
-24.187228925856
-0.837682130816775
-30.5597785766964
1.08913447607211
4.82196609610533
-28.9998176023163
15.9739127557585
-20.4467984935214
-30.4444577583414
17.6258607953854
-8.48068212163361
22.5496392997814
-3.1633780366044
-26.9700843459314
6.67512177580099
-28.3628479726981
-16.9670976442646
-30.8690888733324
29.7630864239857
16.2467726954535
-10.0670056732122
-8.94862671544301
-14.9620455130689
28.9000469833302
-2.2334492067839
-19.0726301796312
17.9404706986727
22.1495193628019
7.98420769030639
-31.5765785394543
-26.1274916536298
8.29659838664897
-25.2993332841839
18.1618011764679
27.8142945764146
-18.1229783508869
-22.954288924907
17.6069907469535
8.57380428731416
-28.2968928149782
-12.4233161132062
-7.98477362400938
8.87614760028585
0.966909249399449
31.8574693297813
1.0818549283458
15.7974995414042
29.2802474349752
17.2045977527317
7.9812169078204
4.35293530196077
24.4689992072752
33.2777361278092
-16.1237405159181
-11.2113214928362
11.6127314335158
-11.8802779523633
-19.9586362715087
-28.3902405128186
1.27310677453035
-7.68292084867546
25.9056869057443
4.38138003131098
-33.7788264663084
21.5208604105441
14.5438592307226
15.3291265841444
18.6174549714624
-27.0257260811068
-6.79932690087101
12.0409035438434
-5.64112387370363
-8.22545893541199
25.5293113336852
-7.94579859528315
-27.1467043306234
16.0125469038638
3.72374024460465
17.9862172481836
26.9687248318125
0.317283180839523
14.9750049624267
36.4299646566619
29.9897283332529
-1.67682009108507
-23.1091659306729
9.33479197706681
22.549673315353
-3.51352699528959
-21.5795385112014
19.9015670217213
-29.8163046870991
8.50758461765973
-22.3014175981117
14.5780841109057
-4.30146368557561
15.8586187581985
10.0764045771325
19.2292137118313
-9.02085400082289
11.0246953295656
27.3539206384344
26.3809625996091
-5.20083813545754
17.8832996932328
-22.3807858872492
-2.41558808084316
-26.6369301739045
15.6184575236916
-8.73487547074283
-30.72984035292
12.3174180102398
-5.46614916937563
-20.1798785606989
-23.3619805384632
0.176469600837914
24.3424366685556
5.41187026642888
1.89484868364689
7.18946700441202
32.7928784613649
23.9748933116476
-2.02681789222395
31.3174030079692
-0.224479634453987
15.7752432520074
16.3263577498871
-14.4532931181598
-25.778201364431
27.5272285933245
-23.0644699940819
-20.4126893026588
17.4279432395049
-3.25376298304555
-20.1160505270707
0.864194636297938
-24.1719993109754
2.47689821439387
-29.3979663544594
-12.8859497060261
11.7776815437925
8.22324858121841
-26.0315475924419
-29.7144374239416
-23.4237198260774
-27.1362442611557
17.3037972326107
-7.1983075722996
-30.2993422151957
-9.58589902809565
1.25540346724569
-16.261135206931
-16.8097233310012
-24.2890827682627
-5.75484720430223
23.0623350025365
-0.800452194998864
12.8560852182754
18.0262923098166
-23.29075750832
-5.21888793301136
-14.7604748234188
28.695417118991
18.8851587903133
-20.2908114086045
26.8739799769915
17.8936838442149
13.2630113376841
-30.6107415077927
4.2598968106563
-4.93709044392751
-12.0639109125575
-2.22913747328511
-15.3104550089606
22.6114109054031
-11.3541107256719
22.5853764779634
-12.7597774436384
20.7184680886043
-9.25029949595468
-27.8552747128619
-10.2715369620989
-14.0711759421582
19.4257922082675
-7.39441929506454
22.7496256948333
23.3418095280414
8.9675371749267
-21.1446531048874
-10.351016473114
-28.0507592795118
-15.4880293110427
15.8859053224745
33.417976938985
26.453111363017
-8.06911856461831
15.4580760968013
-17.6210721361621
15.5095434446342
-18.6528453626975
-9.97697494907026
-34.0603107500819
-10.292555330076
-7.71679945991469
23.0180752997926
-14.5896785169669
10.5826598445194
13.5033310562904
-18.2263337100974
29.4023642861019
-24.5485146901822
-19.6871786996986
33.8862422215865
-9.1071778202648
-24.0322251245957
-19.442184776801
-32.5454955399832
29.5742858733365
-12.8031672793133
-23.3491627519359
30.4108338140302
-26.1082809347615
-4.34862581060344
6.82851246392926
2.66499388067522
-29.8703015196283
-4.04614213751136
7.54695445659617
-16.328111567555
-0.281167673350812
5.60393813041664
2.9422779157084
1.01272267380899
6.96928183982136
-20.3180894385726
-31.1305538902975
23.0252320933817
10.4338074506089
-23.6518946002895
-9.73878593842563
-14.3335832730305
-29.311417246304
2.19221125857357
-14.461150395993
-19.0100483722605
21.283067312573
-12.9199212490307
-7.3346366215198
11.9532693318722
15.3896625295729
-12.1872289258562
18.1623178691831
15.4402214233036
11.0891344760721
-21.1780339038948
-16.9998176023163
3.97391275575851
13.5532015064785
19.5555422416586
13.6258607953854
12.5193178783664
-23.4503607002186
-6.16337803660443
11.0299156540687
-11.324878224199
1.63715202730185
19.0329023557354
-13.8690888733325
-10.2369135760143
-24.7532273045465
-26.0670056732123
-19.948626715443
35.0379544869313
-18.0999530166698
32.7665507932161
27.9273698203688
9.94047069867278
-13.850480637198
-9.01579230969361
9.42342146054548
17.8725083463703
-26.7034016133511
12.7006667158161
-1.83819882353212
-20.1857054235854
20.8770216491131
5.04571107509291
12.6069907469534
-6.42619571268583
18.7031071850218
-3.4233161132062
-25.9847736240093
24.8761476002857
-14.0330907506005
6.85746932978121
-18.9181450716541
11.7974995414043
23.2802474349752
23.2045977527317
14.9812169078205
-28.6470646980391
30.4689992072752
-21.7222638721906
14.8762594840817
13.7886785071638
-24.3872685664843
17.1197220476364
12.0413637284913
7.60975948718144
-11.7268932254696
11.3170791513246
-9.09431309425558
-4.61861996868902
-24.7788264663086
33.5208604105437
10.5438592307226
-9.67087341585564
-23.3825450285376
-1.02572608110697
-3.79932690087101
14.0409035438434
-25.6411238737036
24.774541064588
-0.470688666314818
2.05420140471688
-26.1467043306234
-11.9874530961363
9.7237402446047
-4.01378275181648
20.9687248318125
-8.68271681916052
13.9750049624267
-6.57003534333824
5.98972833325284
12.3231799089148
15.8908340693271
-29.6652080229333
-30.450326684647
11.4864730047104
27.4204614887986
-30.0984329782787
26.1836953129009
28.5075846176597
-25.3014175981117
-18.4219158890944
-20.3014636855756
7.85861875819846
17.0764045771326
-8.77078628816883
28.9791459991768
15.0246953295656
5.35392063843457
-6.61903740039081
-2.20083813545757
23.8832996932328
25.6192141127508
-30.415588080843
4.36306982609566
-23.3815424763083
15.2651245292572
20.27015964708
-23.6825819897603
-11.4661491693755
20.8201214393011
-27.3619805384632
21.1764696008379
-28.6575633314444
19.411870266429
-3.10515131635312
-18.8105329955881
7.79287846136516
-8.02510668835244
0.973182107776028
9.31740300796899
-7.22447963445404
21.7752432520074
-23.6736422501129
20.54670688184
-19.778201364431
-6.47277140667568
-14.0644699940819
4.58731069734111
-9.57205676049496
-3.25376298304555
-31.1160505270707
12.864194636298
6.82800068902466
17.476898214394
1.60203364554053
13.1140502939739
17.7776815437923
-2.77675141878166
19.9684524075581
20.2855625760584
-25.4237198260774
18.8637557388443
19.3037972326107
-28.1983075722995
-28.2993422151957
-2.58589902809567
-20.7445965327542
21.738864793069
-4.80972333100113
-25.2890827682627
-2.75484720430227
-0.937664997463148
-25.8004521949988
2.85608521827535
28.0262923098166
-23.29075750832
22.7811120669886
-16.7604748234189
-5.30458288100901
13.8851587903131
-5.29081140860464
-7.12602002300858
8.89368384421512
7.2630113376841
21.3892584922072
-12.7401031893436
-14.9370904439276
-19.0639109125574
-18.2291374732851
13.6895449910394
-10.3885890945968
-24.3541107256719
4.58537647796338
-0.759777443638352
0.718468088604339
-1.598402959751
-23.3174832627504
-30.292755039522
22.4813654133176
18.6698200489196
-18.870165429378
-5.21728898163012
-23.9337177125709
-15.4768816260456
-23.1333899314834
-0.515562539912138
7.93835649402989
26.021930512946
18.5850327099628
0.40233912045968
22.1959095262939
-1.30675116919725
-20.7894025491297
-28.4883867596636
-10.0433372834471
12.8578273999862
-13.9187361041006
-27.2606025209515
-24.4871311834097
9.74174131806413
-19.4909344121379
26.732382854404
7.35054992782362
-0.501965605006435
12.8816693680879
-14.401773015628
30.5211402296495
-0.110139028588538
-17.6690642832712
-9.98667710874901
-27.3625560763791
25.6793773742908
-6.48876450367949
-2.41646637492092
-8.40796464200815
23.2356656498221
-14.1003933948853
-9.23536977965959
-9.64229858792164
-16.1905760467329
7.43289616275316
-20.5471688775212
-17.5382228058328
21.4626542959008
11.3897951837453
19.1018330405139
-35.3666596007647
-12.0783148703364
-21.178821712071
15.0204087242737
-8.40237473668141
27.6279776561586
15.6484420746712
-33.4148800809347
20.2545051948366
-8.82710935202932
21.395200251689
5.15970958387944
4.93393996060067
19.7323815423738
3.68175475495122
-28.9461252615952
24.7151648257009
-5.17078872064159
-11.0138315996079
-31.6930158899988
-30.1706218665947
11.6524083957025
0.311032314273124
7.10238050284255
-3.54283837703069
20.8755558768657
17.1612417522031
20.9866579926382
-29.629293344396
17.3240107559817
9.11205965093779
20.5226068684456
11.1244540560916
22.5543688290974
-18.406665494866
2.46739055195986
5.16823848081427
-14.3187627654745
-19.2092213022602
-20.8587524585694
-32.143303976894
-8.02994346533802
22.1600744219921
-13.2952169051165
-22.2530780695035
12.8328742212017
26.5052248153739
2.04262018212725
8.19320967966555
-0.622858028613973
3.95677833532983
22.2884011682312
-8.34137420134215
19.7955547489493
15.5216028017818
-14.4060757296601
11.9823143539337
-1.08968840524786
-16.4489805975861
2.10571965186157
-19.2355746493305
17.9236475110884
26.4365863352118
18.568662963389
12.3902123938298
-20.9315866321974
25.1104092753135
15.5508289211188
11.0432223048881
-30.3441311802427
8.28090908700838
0.726133665610864
-9.15889229359368
-12.1329414686329
-27.7967620074794
12.5743074038204
-31.1189896556144
-5.35767519800599
-7.26702111603919
24.8656210672528
-25.6905831989357
-17.4905972377231
-16.0638419432842
-3.93105079953709
-4.40401183272487
14.0342420749249
-5.13348189563225
29.8338529937624
-19.2065795068349
22.0734630368131
10.0261936205297
-26.1366515860813
-21.2696485497519
7.87892919137361
17.4756901739394
-15.3865106367074
-6.29146587526613
13.5368804921993
-6.80092715454995
31.2304538314851
16.2333876732962
-24.3665518776724
27.4598193955133
10.6712656976049
-23.4583058050158
-33.2340181113469
0.9092179353235
-32.6018607437842
12.3252514180598
27.3224199316548
-14.3505534698352
-6.67734083202893
28.165156753263
-12.2823471377481
-9.36109505739153
-30.8819905939002
0.990290123021017
-2.62719252982489
-7.76690524958995
22.8293855680744
11.9801816614874
25.9866952980282
5.80786784697677
17.9456335381981
-17.2743868352991
-1.81001092314819
-15.6952463725615
5.84450839444228
3.66853386145604
21.6281763865123
-9.98392904678555
-22.6549439465422
33.7018725374823
-2.92661043489017
-21.3942186484
25.4360391091749
-2.50182110150523
-3.10017320410697
-2.17204637245044
-0.713616144150898
-10.0365867802922
-10.4506628870493
-12.9109623814913
-22.6169339103008
3.5736209432387
-9.83436506648805
-24.1701387680017
20.2034619871221
-21.9452607714675
19.724266273584
-3.28320415916971
23.4251135736588
-8.8130484584879
-0.127114027763301
-13.9958532586385
20.3982011043976
10.2094292087582
-33.1307271098083
-11.307755871092
2.22287673593812
13.5777781976028
24.4475840125395
8.66499663745828
22.0767235455139
7.46316588837089
-23.8751839148361
6.17580747302805
-4.31988168367967
-24.8580660868969
-1.03406603637227
6.65578385387695
-23.0973439124348
-24.4940811666367
21.9000393778135
9.0285331502001
-11.0208642716667
5.19344842001576
-18.8576223906819
-28.1935375530371
24.9558563459304
-3.1612866689795
-1.93251045709047
-11.4409719896182
9.99660532092129
-12.5265532154616
-6.03756957341933
8.04988052965579
-14.5275263288573
-13.6920039450459
-12.6776098677145
-15.3370217179067
-4.43790793862695
-21.4437960340196
20.8043118936173
13.5395639742663
-13.8433542547071
24.8663392379216
-6.37530384515382
4.59067427581958
0.553966622166224
21.4827234219187
4.52900591839431
14.7276637557412
14.3233690426967
-19.5933925775195
-6.08388612357887
17.9747544858625
-3.38536896592084
-30.3949040684141
20.6983334005157
-16.1996401237419
-4.95863733067764
18.5990014635455
-6.87274446100002
-20.4447003282793
-19.878033855735
8.57956495606124
15.9794896386526
-3.39566570271797
-20.7640623841548
-3.45936610858451
-22.0544881682934
-20.8503556710006
13.4369350185432
-10.3182127016748
-25.8352542083965
26.5502723580833
-23.0213871142633
-17.6405685902305
-14.5157718149308
7.58793934163926
-18.5539683951798
14.0747222563126
-0.530855710218162
-19.663921687589
20.6130666197547
14.2201479526452
5.2737321165747
-9.30053663334737
24.9106607542931
9.87776774827561
-19.1965999046069
-19.0217591004046
-14.5971983378501
-28.9906538930138
10.1862827414915
-1.6473447754683
24.6348306022058
1.74683030344048
0.424454665482591
6.89481066967078
20.8682678739218
23.0296392341993
-4.27149432733798
-19.9371515514891
7.5967937261807
-11.4317661043888
21.5567806292452
5.8112465228712
-20.0635812127487
-0.111672242774933
13.3418700681849
-13.3381461796984
11.4366886147318
-10.296746592925
-30.3190727337567
16.9420630483872
-11.5729759635672
-22.9315242272078
-7.3478626161791
-8.84730543758965
-23.9596661045586
-11.8188753506159
14.3080698369966
-3.93899649796001
-15.9858625657161
29.9777985686529
23.7190762684088
8.26881811952231
-0.838128420792834
0.974117741449511
-25.3185618335815
-2.82657092885017
11.1401927890323
-1.45460836869814
4.7211053851245
-3.59006003284186
-21.8406717620676
-0.752596783199903
3.84185911564516
-9.4223600970006
22.6344760968235
-19.1445168180705
-6.22424034476309
-7.2935942072005
31.9808981810778
30.2026448242604
0.745652813498209
-33.1754832261559
-29.9451681763618
-21.4550614396445
-13.9214104546385
9.41204433726491
-13.4662734697274
-24.9406881546949
4.79076111561012
-4.18893654192517
-22.9263155315161
26.3582688291602
25.6850294265199
6.68440765333174
-10.7474788163786
-19.1106562734929
25.8965926234071
8.69698452598582
1.26288248130363
-12.8909812221826
8.07729647695307
-19.3560174675789
6.67639712831379
18.5427475274423
3.32522286341957
26.5445342992249
6.13642439916457
32.27600190867
5.68030897277342
-25.8685250494991
-25.5580028957948
-15.2425062171206
5.43796775089879
-7.93162684066373
-5.93855169541274
26.8388494100346
5.06725796466527
-5.67485583160457
-17.0189225007603
-5.34787949216692
-15.6171246639427
6.53967559428575
19.5261509835743
-26.1010936323954
-15.2288258011407
-10.2413189535009
-0.726351181634949
17.2985365513062
-21.5555837163735
9.52060052635273
-30.8067831524854
4.38843386607746
25.5913964817521
10.4151110167817
-13.1090165133183
-8.15607728423436
-6.71713261768442
1.79470835269038
0.852299524869144
-10.6698824657166
-33.762382481481
-19.8554525417653
-4.40148898864171
0.308919161002084
-4.45283697620571
17.8451934453825
-10.9591435861752
0.321824218391208
-19.8005666943527
-11.2698586702515
1.49415380435924
0.0893087497077713
-11.7645429297594
-26.3255895870711
29.5826395951537
27.5037193984847
-5.91854078847833
-2.48155342952552
-11.1293371103103
-22.2477919386518
-10.1103096947938
21.2129947107371
24.8959374726201
28.5420632862514
-29.6275423516553
3.69649922975571
-9.8223699535066
22.6929193420507
31.676287438865
-14.9903415283288
-1.65987121162656
-16.1878107296897
24.2602868193746
32.5303172448042
-10.7318029798574
-27.1514183179535
-20.6367662071904
-9.44564454378007
14.9952724691515
-0.541240910864013
30.3354646023517
20.3545881754336
8.18768953289167
3.34057628484059
-26.8799516581952
-0.107194552832331
-19.6556873036878
18.8085323271101
13.9773194329199
-0.230116534502345
17.9547337074972
18.1412861819894
-26.9873717623594
-7.21072795563289
27.2523565706173
-11.1134208489111
-12.3361794071353
0.0795444581389559
-2.72590362466135
33.6634120850239
-7.455841630457
-6.57655308036864
1.47793578836107
25.5126986164525
23.2484571441067
-6.85702583780676
2.83664081549823
-6.07392385982434
9.99506122583998
21.3514625137392
5.06651729539986
20.2602682576626
18.3120867248808
25.1712366978088
-20.1304023821041
-14.2859796794196
-19.8112065158166
-12.9546421307456
19.8283354475765
-3.93863744314086
-20.7970497399368
7.7504035076613
-21.5486221513558
-2.87217064257625
-5.58710480053808
12.0054002173897
-22.5494470928596
0.708616596734249
-33.847289554644
-16.0118927462638
20.4507569093163
7.89593593895371
23.663154963514
11.1504999543799
-27.2226425606037
4.79629464609332
-12.6503356934815
9.13847882312339
14.5580089847714
8.91556894501089
22.9994088371746
25.0572377460199
-24.2012053811215
19.0998385063436
22.880592790024
19.8216894856381
25.1507618332137
-21.0215996878303
-16.4987059233088
9.36450359448872
-31.9302554108213
23.7738478977898
6.0211486441309
28.4939283709036
14.9912706345374
19.1524982126528
-16.5555856403867
-21.2034508342059
-4.4166539806951
-17.7465787610435
-19.1053361829744
-21.4694692106324
-8.88100443532645
6.75138570154007
-24.1292449214595
27.3554496129006
-29.4915464385789
-20.40725488572
21.9226253460839
4.95808875651777
29.9140131735967
-8.20577491527547
4.93278875621236
-16.5302268540195
4.39794078907126
-14.684924731161
-6.38078217549227
-13.3465371832868
4.98458054513558
1.42386980533287
22.3754691965945
19.6348575791833
-13.9282636392728
-15.9478561427045
-32.5737467289151
17.8090372106921
-22.625677649259
27.9887977850926
23.35207357191
-23.1077780097712
-11.3334039293213
-9.89143484851753
-14.8742108877822
9.83086573054193
-0.860461339292092
16.3863813963769
4.05086465664122
-0.568553420124253
16.486552440058
22.480333506254
20.1942150005514
16.5592229410864
-8.15552644984346
3.98629754750535
13.2515334824118
4.01035465607115
0.644679253487022
-13.7364887690884
-5.72467921292833
5.94864118309302
-2.82572874191553
22.3032821414932
-5.69468899757517
26.5247090336293
-10.2031658064546
-18.1994557397362
21.4247142106646
26.2077534653021
-5.44901665818144
-12.0157858817032
10.6659977419795
-20.9929305035536
-6.41918969817177
4.31723343922131
-19.2642113842012
15.4186655305896
-12.0488290542877
27.6928279265606
14.9558063103631
22.3917695959521
8.72863937175816
23.2176737067535
2.2154910653217
17.901640264927
17.0628784559894
29.8442120585182
3.14948739122529
7.94546228929545
9.62623704333015
-9.72081590406268
-12.1281005666549
19.0690792877863
6.94269780648803
-14.8742967503025
6.74467713558769
-5.01530656682194
16.9006289299781
-13.6160995785986
-11.5282211296238
-11.8922363463551
25.427418441562
2.98190879574494
23.4797240146202
6.66928342150924
-20.6787371547447
15.2461586131211
0.963317439682881
19.9572923573905
-5.7755023361422
28.6244286227186
-10.2496556565499
-2.79970245506423
8.09495195785371
8.2258860546856
-31.7345145315895
5.21226628187434
-9.28256666117628
10.175495218072
-21.8726308351862
-6.6115351809483
15.7560103004022
-12.7732337455586
-18.5401257407235
-24.5254760147403
21.220147568571
27.6956267379513
0.664821145226796
24.0299400017574
27.0733874134076
19.7304969637566
23.8891225834394
21.4435558735418
7.69744091682568
-2.643628768835
17.6646758557573
30.6801173063455
32.1693259915514
-18.2540248529856
6.24679843628515
26.7165625601164
-6.01773767473128
10.1464322786088
-18.0992025149038
11.5733003652888
-32.9780014289691
23.3932509974284
-24.9725571053868
25.3752079910415
-16.554225866876
-26.5375948215205
-30.9496001597364
-24.7709834108356
-28.3257685606473
25.3605512702837
0.627664467957932
15.1270368183203
-3.79008456912729
13.5344218748508
-2.73889102371378
-22.8695247836649
-18.8734220073144
1.29443822681795
19.055728421121
9.32326273459874
-25.4794062276785
2.71897286599547
15.055311634385
-14.9579509419533
13.6444622302843
-27.2586326068337
0.336420406446463
-10.4817169188003
-26.7580841140414
-13.1182574128056
22.6510011247196
-28.1783455497015
-27.8713236489121
4.54739425022914
-17.1008681763985
-25.9691772721741
23.2416533660153
0.74367588200214
11.9531959747058
14.0492606142878
14.743240710131
21.3139751108313
15.3815353323107
12.677974447596
24.8195407558987
-14.5771648660532
3.61789183427077
-18.5685206642769
1.32424385003332
-6.09731680295655
16.4336864911359
24.960043453451
25.7328839236034
9.09599206449102
5.69369429277352
6.36197790910408
-29.0282340496903
17.397862269681
-20.515390524164
-21.3155387361638
9.9415159831343
15.4409075156728
26.8846040246664
18.4305716271172
-35.9692922250121
-3.38711084343656
4.14535854355195
14.2375308760357
8.84958053973471
0.246097998854243
-9.34734554091159
-1.44434256813458
22.0060070621311
-25.9956084641316
21.1798296976598
-20.1679127732544
8.46239047467353
-21.7894630237593
-5.46517847730098
-6.57948353058053
-1.26961056200963
-10.619089419283
19.3403471916502
7.89488919984236
-5.82455623565869
33.5373929904683
-25.9028138586336
-3.94859119054581
24.6799263213209
4.47919507948192
-30.2640820555839
-27.6170653669026
-12.899045567931
-0.287589123188728
-20.147632779234
24.2068445511095
19.8045008915645
-27.3671926866264
15.7832362254269
-4.75279925257051
13.8309084896226
13.6587832615452
-2.97056521423528
-33.3965296433836
-16.8243452712564
-15.7167283518728
-32.4596783423559
14.1577617074956
14.980528527591
-5.82136490145839
23.1331405943413
-32.6977569962311
-3.5155140394312
19.2483454184764
5.95803115385284
-9.19376611877351
25.9288158255585
-4.53389366577499
-10.0916107027518
-29.6262778551057
-12.0689460855057
-16.6545117699544
16.6056413796984
-26.387204321417
1.97497966420099
-18.7433608440888
-14.6625920014915
-17.0770774166986
26.4678108324379
28.1107298009295
-9.64178156845173
3.6822172697585
-16.3283087453965
22.4651739471022
9.97031428899175
11.3553751583841
23.7898442711642
12.8092667314934
-9.62006604298946
-20.2413123818813
19.3264061016689
-9.32119171330426
9.30843070519518
6.02197899014625
9.23064081872996
26.9197197864538
3.63407802809931
7.99322034771472
25.7520887413208
26.3918109611575
-31.8069694056004
-2.60079305886527
12.9924197762894
14.4516029603224
-19.2650600247507
-3.02637553745201
29.4066191941134
-2.5446321648613
-0.956660457445614
-31.8678286784155
-24.8216157896784
13.9611092353457
29.266394279174
12.9621617658687
-25.8121312177391
-5.33296662141155
15.1949234530304
0.470539338468285
-27.8014856375452
27.0763429006308
-1.6872360430587
-26.5985225482661
-26.7175271863932
-26.6727596688151
-32.0666938076696
28.0109869313117
-6.38978205541298
-13.1766101424471
-0.46457634965482
-5.70949769322233
0.200758311738018
11.9351752285653
-1.02810033917929
-26.7500018747973
28.8394802189065
28.0553682439262
18.7358307036025
-0.760964183348275
14.9214492620564
-13.4775507762451
18.2501353635652
-10.8472449449271
-11.7705076810911
-11.2630462494578
-19.4165223973048
-27.6875831940961
-9.8653593984075
25.7495290995976
1.81444768105804
-17.8737713157257
-19.696509245791
-26.5303782395433
-0.915967783636166
25.8359655003661
-3.28131846809634
25.6612957704051
-6.6204922707522
4.57761153853887
6.48190716669939
-10.8126048359888
-28.0690820639774
16.3019348164879
-25.2626415536499
-21.2876617015066
-3.88433587196367
-5.10250678041486
-11.0997264758931
21.2147839531656
18.7279298413915
-17.76062051117
8.84698410853733
-10.6875939979932
15.7234749611929
18.6005513756524
-17.5653282246454
-18.93253073625
21.825337405044
16.6968750330324
18.1675366555259
26.348359043809
0.61129344384976
2.62982280793355
12.5523867589021
-24.7046206644286
-12.8163734339794
2.4978072054969
-22.0247767705817
-4.98197296465392
5.92281534173623
-27.6318341146671
-4.53747627674485
-21.333659125563
22.9021743159515
6.92665342854069
-16.847413197677
25.5186619902848
-17.5080334055433
-18.9060529290151
21.7814411562162
16.3735741834965
11.7602990478344
3.12008304568089
-28.9712014259902
-12.4738134624503
2.51949127620947
21.4424620437463
-15.1693664180177
14.7253722597917
10.2091427400067
-15.8221787323711
-27.252178603287
10.4114233729885
21.318667620128
6.28217943828288
0.863403462784185
-5.4011890291791
-27.9229556246308
18.2454366204928
17.5561591819706
27.5320771767807
-13.9094112279031
29.5120333534088
-18.9689380474592
20.0129342852784
10.4596329277025
0.660174899203737
-5.83588354962275
-14.7008756649679
-0.577986137442696
-13.2792804166078
24.0019325740292
13.8698897090582
26.2454922887394
-23.6657299326763
-12.3597049776763
-29.1894523452021
3.25682987424404
-10.8508861490543
2.8511123461082
-15.6755886677927
-13.2895329626708
0.886687566064015
10.2432894272752
-9.06973005173763
28.5723742851646
28.5402631110646
-13.1380080165367
-21.682777092816
25.4266285412152
12.2959439397863
26.1840083123245
-9.2962976758861
-6.42651747023165
34.3858552552379
-0.548436735097505
21.7981490113754
-15.0248232280055
-21.2787266804857
5.37119936190734
27.3400750350771
4.71548399877244
-28.5589339388167
-26.9141292436567
-1.58186265001251
-13.270157662566
-10.2910737272732
8.1715620693023
8.15152572863857
-4.46226824069908
9.3481030373667
27.3512037185688
-0.186598454601345
-6.6895676330563
3.43959942417245
9.53847072068264
11.7631468065588
-15.0595512010125
22.7010212709995
26.227985203248
9.36122295959235
-13.9375564735561
-15.6626814564015
-5.57373163573558
16.0134888013621
-14.4077872567259
7.64437974926484
-16.399554301303
25.3540559600435
5.97661998079693
-1.3348674006421
12.1034041067151
-8.9228661694724
13.0978595213541
3.48119739658777
12.8835226239005
-18.6126813199196
-6.40031565934599
-14.6289133643254
-24.92635294359
7.31201989656222
-15.0878606877098
6.9900572564677
12.4679410027748
-19.7720309295566
23.5993546367402
-9.75427110374203
28.8919346556351
17.819166359395
-13.1530433477005
15.8765763966251
6.89425416049685
-2.83207474402284
-14.8134142021626
26.9781717892847
14.0159664904501
-15.7196651581066
4.0309168587186
-9.07112953674152
-22.8512525300453
13.8021332590106
-27.4342209891124
17.4677341617721
-24.8367139208293
26.1238153356762
25.1809373220395
-1.57876762798743
20.464966266898
14.6071043121898
13.6292107425064
-4.04831607451169
-11.8746511043863
23.3324419921335
11.9588017192095
-15.4787014838431
-7.86507274851874
7.81312213991413
-1.33414924657841
-19.3665661990479
17.6277630458931
35.1482647950757
8.72749635307819
0.743939740015419
9.07630362403651
19.5253319811959
16.8567316535236
-14.061547010007
-25.4625305389638
16.6762920822847
22.7300373518435
-2.61733906698178
2.00745958731997
-25.9798665728952
-18.5550742090575
-11.3247082257928
8.03962613279134
-2.82286057077906
1.29949122311047
15.1373254184482
-14.5372152335659
-4.67782892660002
-0.0895135143870368
-17.7041356276169
-29.6362010995361
21.6243853458117
-3.45392284049009
12.4479063529837
14.7854097409147
29.5249253900026
5.46186157499765
-25.9514051723993
15.0599362475882
-6.11413035020363
1.82636300733591
-22.7450999795785
-17.217341556255
3.04389248091163
-20.6259086784364
-15.5713178995399
-25.7652404844607
9.29104499998466
-7.3585996341157
-25.8220711237434
23.8420181565244
-11.4465727636563
22.7288870701574
-15.9720598750218
13.8843758946606
-5.75805757598308
10.0298211538711
20.7969982305175
-25.4456404417746
10.9396023744558
24.3497560007179
-7.04996587430352
-0.371702109341128
-10.0930480098384
-6.78707251675932
17.679425809322
-11.0522572178314
-24.3877332783426
-1.63923928043318
-22.8255460942748
-17.700839466194
18.9698371142597
12.2245329451927
-20.1070473018381
1.84975056579374
-30.9731333157297
-18.7516215147179
-32.2175231361146
-9.73742091302945
-13.5643774954579
10.7526847839021
6.10670729677085
-30.1435065027189
-7.90444775186613
-4.27011005023337
10.1952065437007
26.1558421448145
-18.4199567136841
-28.7130021827382
-8.11158585986776
-11.1856783055029
12.9536869072228
28.9387982614401
-28.726591689719
-0.503093926370746
-23.1176861035385
6.5230264855583
15.8148561759473
-25.0807342843541
-8.42354747446272
28.3625146212224
-29.0442970678054
-20.3228046341333
-14.0706532372348
24.1710582825703
-29.6303668583642
7.48571117731931
13.1449652977674
16.6483528811937
11.5123592672897
-20.1069346354911
6.60957198142133
1.12857030664804
22.894758928624
-22.6948604434894
-11.4976886008026
-9.1230845323718
-26.3507311121541
29.476176082422
17.8246116656973
18.8515627177077
-17.6505427559151
-25.0639957397244
-21.4332891239525
21.193139844163
2.10120149977272
23.8847255861231
6.10921110139002
8.74501103905435
-7.53621643357686
-6.69407696223477
-10.4500951917241
26.5836338320509
28.447266718806
-12.8150897226713
2.47056685784015
-6.58894432369466
13.7489018183432
1.71505945437797
-16.2630495905086
-28.6533860315436
-15.9607350372374
-7.06876123684606
-11.7073342314613
-12.7618746557296
9.58290014299497
-19.6053593569912
-26.7143268455135
27.4585095462961
-15.5640060209487
19.8725878465419
3.8306857962957
21.3920413166955
-13.1418003286068
3.14367087655506
16.1312770007562
23.4949567293865
-24.1749647742736
-0.247709128349113
-6.87118323230303
-21.2509347258284
24.8390992184209
-26.8302577316646
-7.57042628509812
-11.8359525930153
14.488913114477
12.6720377395866
3.86955927442533
6.41205306396217
-7.55651284117624
20.8163104698315
5.74307471955592
0.197886461226809
12.0072823412899
13.231454777134
4.54599892488723
20.7315915031406
17.4020605788419
15.6456493890734
-22.1428087907904
-8.4450026005924
21.1095809711206
19.613211783454
-5.96598274054321
2.98116690382434
22.5455039852166
0.722593143808491
6.82379289722266
-3.48298666352219
9.0438656893092
11.3398828204077
-12.2997592655994
-12.2050564471127
-22.9719479602024
-23.1811600285259
-24.8809604037761
-21.2835221455136
-29.3418343801854
28.4523935897371
-5.04803189187931
-28.6075617090017
3.36255309052458
-0.735156062487587
0.691037558826407
-10.5639478763574
-17.4216206707158
25.3274892803204
-19.8301247971573
2.76004405313317
29.7862435021657
21.5904655314389
-25.3224417230505
-14.9433909782629
-9.64023798562335
-30.928560244389
-13.4666836620372
-19.7526505457765
10.6372220104712
16.3701835927342
0.427212866732121
-7.73192063597615
-26.0981337844476
-25.0481862779899
29.1446933252435
12.7594174543174
-3.15933697057482
-10.9549728505344
-2.46684155444004
3.01275847643192
1.04702308807738
-7.61599201310573
18.3452624650972
22.0241212804546
-9.0036328849167
-29.1557013058109
13.0534574547466
-6.52933089799317
-14.6275579243204
-30.2325317055711
-2.53979579168131
16.663272445794
-10.3425613301726
-20.9587326304895
-6.75957452438341
8.88493821312225
-2.35306224376891
-32.3225876774655
24.9643656658715
-28.0372695275284
9.59531527449439
19.9945973314841
-0.552076738592858
-23.6321503220541
-5.88995734661497
-21.1632338592364
21.9514960603602
-2.23474460154277
-4.28583763541312
15.0677395008268
24.0719062711674
24.7824544789567
6.28120292938837
0.173839869429149
25.0166869455491
-2.55492675617795
-19.7873798512749
-7.90229696854911
25.810285226542
-14.5750583872938
-9.70878889023446
26.060526871404
25.1830703437335
9.5047030948961
-8.33132845876545
6.9017371196595
23.2137367109086
20.6956972278441
6.53196892985977
-12.6092583668714
-21.264853415353
-1.02065028094584
-7.32779630125746
-8.57027643305625
23.8050954272534
13.0696190559653
24.2271436406384
6.54425338710205
-11.698332175283
-15.4122215193058
-26.7896677574128
-14.3233975302299
20.1294091379793
1.65351840442531
-15.1208112708704
-0.539898482135166
-11.9389587505538
12.467257736217
-22.8450254890825
21.5317471133055
9.84197295731081
-11.8846911688795
-20.8353417755564
10.5393547901823
20.7730877018216
17.8106907653041
23.6508764889752
19.2012782645046
19.1667173562639
15.4634610083042
-23.9442894111292
30.7032696841696
18.2193312692762
-21.0010736026691
-1.44450126804819
-13.6303281621521
-6.43842088288204
-22.5286248628249
5.65149425363737
-20.3559275538926
5.65107871692324
1.17010696283168
-28.4185988025103
12.4482111927444
-15.4209501562586
-22.9554838175066
-27.2935920894651
-1.70513704719567
-5.17533930901943
20.8423669420487
-4.76013405541807
-20.3250138102166
19.8774070839481
13.5157137964581
17.2085513947698
26.6735448629576
-5.75429011904784
21.1787437913576
7.4675277985531
-23.1566306465233
22.5254936111556
-28.8116487638485
18.812406388861
7.24755361515892
-27.5491263143105
-21.2923337266763
-11.1840669135057
10.2388469818886
20.995834642063
30.9728103656493
-21.155187294205
-22.8212218372231
-21.5347820008413
30.9182521265302
-12.3402243875732
-31.8238004661154
-21.0999199337605
-6.01576950193502
-0.328502724629001
11.0328649950682
15.6974549986195
-5.4977231626385
-5.04632505907988
26.9147742897204
-5.45694209144423
28.4938813589196
-17.3531282043227
-29.9914301815385
-7.05646323637433
7.07603442859539
16.220394795685
2.69208387252738
4.86688481720736
2.65128628493268
-14.6625531948224
5.27897389257285
19.9540805024403
-0.774127498838075
6.84104896349512
-23.0788286419851
12.6430345784894
-6.04559016764536
3.48136200773124
-6.63434311400404
7.43983032846128
-13.6722247109062
-26.9492479626372
20.2208625611054
-4.45785613646562
15.1923976858571
15.5925505433429
-27.5535479348481
-4.10955727410792
21.3407892333903
-2.58524721872544
-0.80500075446926
5.33115700204648
19.1698213124329
-22.4475106158312
-25.2744025189236
35.4900231895358
2.83811134491571
-14.8067888043646
-12.7560623994073
-18.6499505769001
5.25823474968452
-1.6475731763507
4.31560750724031
9.20399947127875
19.4711746596215
-17.7921501088163
7.70473546415768
11.4295098572822
-8.78589319168595
-18.4922559421169
-18.9431722946808
13.4882958984042
-25.7986475515678
-12.0280002282007
-19.5183830207905
26.9632351839775
-13.4706136843272
1.46464303258638
2.15107793264066
24.4460482805706
10.0708962547407
-23.3627877327627
15.7775818191371
-23.7856404140394
16.9912056013426
29.9658352187359
24.7024636727884
-2.64470682522923
8.37816882172639
-28.8501825648807
-26.3810650361088
-20.4402218003758
-12.9878962485582
-16.2221407252479
-25.5677440169966
18.719244833564
-4.38516419167297
-21.1157018873911
11.9763283085396
-2.33830882581052
29.1185341626415
-13.986927586904
-26.0407726929559
11.6856627423596
-17.7323440069323
10.6990787896405
2.54488857802344
-4.59210494210688
23.1302299734863
-17.1897707020541
11.17649173898
21.757711668383
5.16467013853993
-2.88769190347331
-2.228585999586
0.427268499155769
11.6555992386325
-5.82598312825947
20.238193574027
18.4591287282381
-15.4114274591011
-15.0518832096117
-20.3223938735846
-10.0750906774049
-30.2559641114976
-23.4276019872987
5.14823107658904
22.9328190166324
-19.9444862387611
-5.8646383431549
-1.44544919206268
-26.5085504821833
21.067202493605
-21.1125274844762
16.9810268012488
-12.9250950337267
-30.9441771861959
-25.9702819228145
29.4420976092074
-25.834714263398
-14.9026758609004
-4.31620211596937
-0.375101948214029
-1.23783514130046
-10.1046968815873
-11.1944580536429
-4.21798217417768
22.005330933467
21.5533062211365
3.6935289539696
-30.9058340196281
22.6938329861657
-22.2872458310692
21.8748553490246
-21.9754442444524
6.14709749337449
-24.1800364920882
14.3405245452734
3.24309996533871
-28.800149826766
-15.0939005205483
5.35780074750816
-13.9888209700631
-3.96761761003482
7.29515280534358
5.55648413363994
-27.1554645442265
4.62079590462285
2.25448789066974
-26.2209362307584
-13.7123604260739
15.6220041149509
6.79228447885612
19.2458380330533
-3.51481508509693
23.0229679644384
19.5846119019188
8.87557523152522
27.6259376464103
15.8201657084652
5.64083413331073
-2.20649261082486
-31.2772365395208
-0.978627954894401
-8.8500426587467
-4.40320584251718
25.381198493252
-36.7040488896853
27.2152609811996
-14.788460693038
-17.8553026884718
-15.9808829071784
-9.97783932997652
19.6221739759973
21.8197838077718
6.06788787548769
-20.3821708700764
25.0605177681905
22.4925255994011
23.8610841302352
-21.058051279586
30.0141996578001
-12.5892013134667
6.25077523771121
-16.762509554164
-4.91270896568147
-0.865956579541847
-2.28881631123999
-3.23211376192157
-5.92717192398632
19.2190960588206
-8.24608872141943
14.8930058200897
22.5174861874147
-5.58778113854273
6.86909267792975
7.10579594269594
14.0981687920687
-23.1947565208088
-29.2570817783176
2.43564482139822
-32.2371295840148
-0.532350502027103
-12.3570683398394
16.9383950044816
-24.0003771652807
-10.0191427134883
17.2126859737186
30.019928628348
24.3499888524934
16.1902243532252
24.0698686064634
23.2648623143221
-28.9826502169783
5.18215360410585
11.5128792275519
-13.2346575010858
-4.76339604152178
-12.7667346119946
-24.9507665860074
-24.3546693292407
-1.73578074396613
9.46772192093048
10.4827762841735
-5.45460884687351
21.0849318625281
-3.82760749433072
4.26636209722369
-6.52776222540107
-19.8220395525785
-22.7044554131162
-6.47727610407297
17.9393389556031
8.06187503449604
-6.98605375013107
-17.4731341104285
-2.54713853563707
26.2998737665754
21.4740293969906
-23.4205793483944
23.8122889301983
2.7724166796714
-3.60650817782905
7.1665055551312
5.22388544232046
29.3331692275598
-2.09046235968291
15.4546153423982
-14.5500373045731
17.8138514904149
-9.61860909792458
-22.7918382205619
-9.36151413763957
-27.8882707548952
-30.3909652848843
26.3177475045248
-9.30868394555565
22.8078842719148
25.6067060247941
24.3249673740846
7.58798906809124
22.7808910138112
-2.27027472612708
16.7600492883734
18.6805449594495
-7.91310026885331
-22.8827610822816
-17.8656238582758
10.811295515619
-11.3654549986118
-19.6781212701033
-8.82653113386014
7.93088665141838
-19.1923037568301
-21.7165739557685
2.36904651993838
-23.3155901007253
-23.1621302299103
29.6306489907124
1.64363555003664
-7.19341406928502
12.1273274629114
-16.0611295781826
4.57733258939653
17.9236733871025
33.3528659506936
-23.3602256253147
8.89775329167366
13.3365175416126
-4.75370723858404
22.2653157258712
-1.14753933279708
29.3684730195262
21.1773112277128
0.669237079211198
-28.8163300089148
-23.4641452624085
4.17427319334756
16.7661887923519
-2.32280579885944
13.3729001673607
-19.5968488091297
-27.1842427092359
28.606720507597
8.37970799476416
-28.4786197462813
-2.86047523590362
-25.6463999425099
19.1244323576187
5.69604206168067
16.005182924776
-17.1523454618945
24.9007995208234
-4.8914945415129
0.588243244104512
31.41157519592
5.62609780831787
26.4721727982369
-29.2191745768471
12.0315453816351
-24.7824303918374
-7.62302068104078
1.13519818438413
-12.0934573147914
-2.0419686277866
14.0275059679094
-10.4634883411435
12.1015452476357
14.7977618390089
-30.3571985801587
-16.2709705297345
-1.19498628887436
-12.1987478766946
5.02446957937709
14.1497461918152
-22.5711092842213
6.65201195995688
-18.4447269040702
19.4220455421398
21.2135725742816
-0.797098823975002
27.9039698570853
15.6858390002089
-21.6628798393692
5.90952678745463
8.98918328547446
6.23331106200768
1.76475614485095
-11.4800380407918
-0.882675670497575
-4.00458400649304
-15.9995725788727
5.23677851447297
-28.4325414763354
-19.2637003546071
-6.09477268747903
8.10263250723369
23.1426516531827
-3.37807223900052
-27.8885574940252
10.1579769023057
12.6309432765585
-9.59116988728079
24.5092245456965
-16.3968040276214
-16.3459525432171
23.7173761202412
-10.9707055077386
15.0565742125107
-11.4460230374807
-20.1189686057953
-7.70368834298648
-28.975803516613
-14.8975420356874
-18.6662510905512
-14.2426799704388
-0.552943323726672
-5.93121275632354
11.8310950020805
18.9809269223967
24.4776529688767
14.4577519905693
-19.1308264753711
-14.9465667807994
0.326049205733207
22.6900177108795
24.0430684822983
-15.5546728598462
-15.5856085256977
-12.9936343182332
3.72718671823777
12.8801005827342
16.7319806818809
22.9716221742752
-24.215251439972
16.9180701299561
5.38105047236644
27.5610132683046
18.1386213930945
-11.431451468653
7.89689322757369
-7.51196367195896
28.2842067051941
-28.8837677651164
-21.4620352785921
-23.4868055956331
-20.3438896676608
-15.0484077368152
21.6695334635327
-28.2672874007429
20.5641745428666
-19.2398828038509
-24.0072925635699
5.5422797592442
-23.1555716445975
20.9241273664008
-0.666893074579087
-23.2287871628826
-8.03584527990097
-10.206421538124
-10.4105155859362
7.18046410408247
-31.8826750222972
-7.2251537148976
21.7182745681931
-3.76945957433343
6.66231611328335
-22.7790406341879
-16.8368533784865
2.93081887547573
4.31189607276571
7.31380392340265
-0.338893907447508
-11.2771056787114
-27.1546985510609
12.6219895607194
25.4628768608557
-7.2572219801777
30.5558307688335
-0.0279605875348283
10.5869259239627
6.4132058916901
-6.86551443613083
-16.1899861943911
-5.55004917523597
-17.8819234723255
5.61858964077021
-19.0285887266535
17.954146873789
-22.502806711028
-21.427870291866
2.61676149758515
2.22200209461394
-0.32325870051843
24.1042853334144
-25.4513840003837
-13.5687988064138
4.53191497232617
-16.2262925516193
14.8071537792799
1.24501038656263
-20.9156295506895
-18.6455973966011
-18.1215189285653
-2.57654318595714
-13.2699149674215
14.2020820428361
20.7669542123642
-6.54397009833379
-7.92997033965051
-30.0846344473287
-19.8764550573362
-23.1965644045124
27.6845524041201
14.6382864542069
13.7926122209163
-16.5181143010841
22.8494917329205
30.7474733568355
4.56373313558764
29.8940408711553
-6.49073343125115
-11.4536292067021
22.9091075098089
-4.49546639212264
-22.8883882518993
-23.3168961924477
-29.2031052663739
-9.76174556398223
-27.1078841648429
-9.63616865341902
-15.1610549966608
-23.0944003167991
-9.40232538832516
28.7511940689116
3.4982285647091
-6.90203018246429
-25.4131409107384
12.9600994714889
-16.4695428769238
5.76098191446558
8.98464611190565
9.91261204308145
-8.62368622235167
-19.0169188354384
23.8121373063937
-11.2458514989509
6.32460829566983
18.9003680841486
-16.4167903609515
21.1321678904072
-1.54209108143325
11.1845870320559
4.17694273456154
16.5912254486667
-20.29020950914
15.657103035187
-21.8108349378873
23.8785191181417
-13.3791327643035
-23.3691633039706
6.06300294484917
3.05117409435484
-7.84174950612545
-28.2988287815258
11.6172932776372
-23.4673052245479
22.1698530375849
25.4527247573912
-19.7481640712258
-4.80297805536827
-25.4084054767918
-22.7303333548688
13.1148744840145
-27.1537616283708
-8.24100832323046
18.5787560929444
25.5045963297088
15.4874716524497
-6.11741286555494
19.2603498239425
-0.708213983062761
-19.191090537384
-22.8057828565709
-11.6216084594922
22.0388728353637
11.528762981322
-3.58191401183829
-1.47177631569026
27.0375044892577
12.4597709834693
-25.0118100121785
-14.5950884750904
-3.61533353431864
-21.8800008310108
20.7761404842889
-25.9556454548695
-13.2910266830079
-12.607119076849
2.86661120474008
16.2800015905215
-5.2314061988751
18.7225749929852
11.6678031010516
14.72469290525
18.0119360227601
-9.19157116415093
27.7217842523337
11.1684257718205
-4.49642731216213
-15.0009335175099
20.7766106244828
-3.0768074820659
-2.39927462401088
-0.981007615242799
12.3748525056743
-2.02366450980004
-11.5952508648274
-19.5787796426549
-26.1091454859777
25.6919286825431
9.54559785450943
-8.36723465147706
36.2988993170687
-4.55001883133111
-18.5956675669877
22.8458461037971
4.54659213289001
3.87153095653744
-18.1344432760833
-23.2667398554866
-1.67368418387009
5.90358880298368
-13.8704464621562
5.29109061750999
-7.79404799097628
15.0553917321706
-0.539878964812218
-11.4236135310602
0.221182836842616
2.87064325348301
12.7092967487914
19.3972813614878
-26.1249164011051
4.45613457421101
23.7124322607894
9.25837782808714
14.9745770107421
26.9460001322181
0.716181493385655
-7.80138884582602
10.4416501289353
-23.0055432560622
-12.3646344191855
1.97920283230435
-29.5438448895403
-26.4665641395811
11.2532427951045
-14.3432196020335
3.45136612549333
15.0394704217309
13.2303159348727
-8.3084361917467
-1.77656925148909
-17.2032555716674
28.0425544631994
-18.180905683704
-14.8703561844625
25.0152241621239
-24.7750644304064
18.7525298718608
21.2430139648814
-33.9174355752406
9.97449152136586
1.4414660343623
-22.283846335611
20.6655619370792
-13.5682480324683
-11.8101241432107
-1.83843318868408
3.58424204934829
-28.2557147103754
12.616605031082
-26.7501933161544
16.3526568678037
-0.666266219246454
-17.3613138591763
-11.7056737441246
7.10451416015276
-1.19762735899031
-17.9497847772964
-19.0755780602261
-8.96861751218845
16.0009424465148
6.57968739521181
19.8584139033059
-9.71076471105626
-11.8727311168364
20.663624053609
7.32360892491242
10.0526875571604
-7.05736068654293
14.8339988975856
16.3587093595808
14.5399805845973
-7.72587530653569
19.3937993804412
-6.09060039989587
15.0857276587269
-2.71243788512902
-18.5052351755833
13.9162658636277
-12.0773266738234
13.528031002509
28.1164734834951
7.48263720418734
-28.4450201010783
-13.7350258178729
6.81391586237145
19.3121507303894
4.68753723939234
26.6202384312846
3.69960819050515
-12.7225702039538
20.3841304175649
14.1234802159315
10.5644238378492
-13.3773753729452
27.9044406472819
12.9952841467967
14.4100381202778
-1.29671951228236
-1.75893730487386
14.4789244832074
15.1831942511852
-22.6283135538947
-12.6909725395078
22.4237745821524
-9.41695162238894
-13.356698079931
6.57417862125092
16.6609247389786
2.06861172681382
-20.8316456330493
-16.1232469770033
1.09764329378239
18.4864559729576
7.71254827152002
20.0747065968423
-26.0971555797647
20.6102069265629
-21.1985884544906
8.25314908999997
36.4679487573669
-27.5276135653803
16.3838511587737
19.8465970360231
1.45160775849287
29.6000044632694
-31.5983273936345
15.1436522762718
-0.580933456240041
3.64386732549762
-24.0034119006402
16.138089532785
10.837312993263
-12.5492603802487
8.7531931146455
27.333664181545
21.1066886028111
-6.49571148496454
-19.84210204618
25.0256423870959
-12.4837893553295
-20.7917694687061
22.4565157082456
-6.93134748840353
-12.4249089093311
-28.4261172818797
-12.0632444699815
16.968015093767
-32.4831442545598
-3.48526910650197
27.5156468440911
30.0111000417489
11.0721972914231
22.4491476271867
-0.16152810611793
7.04189047882636
-23.2912548677389
-12.3917159969009
12.4097783719659
21.2859895907944
-11.0107212205864
4.69877163020117
-23.0193155983356
-22.0053409723458
-1.21646928231596
-4.6238134077654
7.09374504954777
-15.206809912438
-14.1444193383565
14.6994091737819
27.3979906892106
4.17585606563918
12.0480263770205
-19.4432975549417
-14.0035117087666
19.8302398160765
-24.8782552656337
-12.9102783988236
-4.06892143319953
-3.44749452878112
8.42410195387435
-18.4052135421375
16.849286624645
-26.6684725091605
9.31888484473688
-21.5965968410608
-25.1523795870196
20.3189364768046
18.1520918240149
29.2475311371181
19.8884180211636
2.71589584161283
12.263743371558
-9.71302487668999
5.04998848392292
18.6703661141903
-29.5731494739731
15.4822270104237
28.1420697225477
23.3614180205709
-2.96503589377521
-20.8950170935364
6.51565407256837
-8.50653912722272
-1.70433737378972
-9.79226532458272
-10.5183377539874
-3.86815974019201
-0.72512741473687
9.41117933767553
0.107633065547845
19.1492115767948
16.0737139280705
-14.752870328219
-21.1451265768714
-25.0247213169503
22.1759428448335
-29.0059550403629
-2.90426001715338
-3.18519554690221
-10.7029347034906
12.2454210536883
-4.66992488889689
-18.0450273269517
24.7235777891466
3.69212085635911
20.5340443671963
-13.2317120910608
3.06309108341895
1.90136862575525
18.3319090386691
-8.259040869739
-7.62400163256299
2.41683360625421
26.0535790901956
6.42339772003275
1.1644337088973
-2.62612038657779
8.91038542751129
-12.3032785902503
22.1661107212502
9.07786259035135
-10.9796288028302
-18.8704889895372
-2.17278158573304
26.9500219341495
15.8449856518269
-4.49989597248932
-27.6787448299299
-2.51669633371016
26.1518808234649
28.5780661430003
-10.6680302718654
-0.455262195534365
1.69807746245878
13.5509933547514
9.27830599011072
-6.96292663341302
-9.57193282353822
-29.613849023094
4.84542954829335
25.8046339806366
23.0218139368869
28.788592198387
20.3212433309948
-20.6494929865343
0.727638013494086
-14.2074076824325
-19.6503025619208
4.8086282115231
7.60786550521661
-10.441077846438
-11.8130235343379
-23.9963145473221
4.20527244553408
14.4707939735423
-7.49456832412944
-23.543834059748
14.2741134639744
25.2926777285287
14.4774070933593
-7.12188486286034
-9.49114993508929
-25.2627323166858
12.8818796803567
24.4300661359787
-29.5575648986097
16.7258870971181
20.163747772172
-22.8377836263465
24.1699301895271
-23.229824298828
27.3861386633706
6.08559747110307
15.9130475103804
16.2116272601297
11.9822824764647
-11.6815770052478
-18.1896528577488
-10.0383771397316
-4.68204989278932
-2.08389575064364
-15.9649109886387
-7.67926943586097
22.8746499817996
-1.84424102996696
2.51841615342334
-27.4328511211051
-23.2537413458443
22.8936654291473
-8.07519501568638
-5.79636422972698
8.92272304425029
-0.738482595111697
-18.0626636138519
-21.7758211795111
5.13575089434893
17.781730298051
-19.2433540799028
-37.8428880254405
-31.7124178859178
15.5025770130092
-16.4957387181106
-13.4633288653591
0.802446540766148
0.218542023473833
-3.90922280214364
13.9201886044276
-13.3163638035887
10.1907613571856
25.9628353577452
28.7548493353856
18.958639915955
-5.34269761816011
-5.12740903916919
-19.2664232522111
-15.5225875668111
14.1178644368949
-12.1079329103447
-19.4717249948368
-21.1357094256751
26.7908936704726
18.4776390266434
-24.3647145324788
18.3125421297232
-0.516462159411098
0.219944951503906
-0.842335778493769
-9.69375985836743
9.02948645701027
-17.9519940695542
21.564692362071
-24.0854604873942
-7.82316068783715
-14.7046788303104
11.8685848841055
-28.3926598098744
-29.0778006483241
12.2710110487648
-13.7607701850829
-27.4414195093117
14.3764185826903
19.433607060906
-10.6718524223558
-28.1669602982068
-6.15698458587365
13.0001151864304
-12.1851410346716
-25.3044612803288
26.0718030648364
30.0211493313218
21.4807807076779
3.33296693427234
-23.3652028383476
20.9280647694506
-19.2392816754605
-30.1300212842355
-18.2211089582836
-18.1341823668431
-15.0752752351581
-24.5174605920542
27.2267557603168
-8.25948040864227
6.69911992668879
3.17453241689677
30.3492093302403
24.2939075383252
-1.32766492802528
-17.2182131396007
14.539278512015
-22.8109630601483
-21.5316803758471
-28.3456212501218
24.6066566769377
-31.6516632793136
-6.95859339659165
-26.9595883097251
-11.9529320795952
-29.638684474875
-1.58601631110096
20.1459295099101
-8.63556317936849
2.33674008394148
-3.60446803782422
19.9366583395731
-10.9017412855811
-5.31581966259595
29.1937167192439
1.93410891805426
-26.2165337107013
8.45486952343096
23.513817654015
20.9266296289056
-1.92841869376111
-12.7616813290752
-22.7509855672222
-5.30879141922865
-16.5833767915828
24.9241736900114
-25.5130555662182
-0.951046327538009
-25.1240679921958
-25.5665892085148
-9.94992599471155
17.8648857736755
14.0626473304693
12.3491759050995
3.5048875712369
-27.1423643771768
-8.52308808783024
-26.3028264918317
13.0346810784274
-13.5135173139048
15.8393535710349
-4.80852715434436
17.1471321848721
-3.58488705373193
25.1043347127141
19.1201082568963
-19.0234938333665
4.34656710391608
21.7908978774396
-26.9310074233228
-23.1268606051306
-28.214568057575
-10.5729593251209
-8.67011038171017
5.82598089904732
8.92133604736533
22.2564409635735
-32.7833820284222
23.5232216606418
-2.51365073412268
-28.3629907517006
27.1950334636566
14.7255956775535
-11.3157864636018
-23.5278935601612
5.37894363378499
-26.5856023680139
6.73551037022303
22.8721977031659
23.0444835997167
-23.4721308399397
-35.9178953062806
20.7175809059413
14.3646435624526
-29.0793953949292
-28.7107325198622
8.47507394904566
9.41327439343841
-4.13019241749966
-4.89952527547692
7.01850126477955
2.05069322096973
14.6651282125315
28.128986089023
22.5459034510889
-19.6535336394809
-0.195619538429939
-4.70422662016739
-20.5222363349866
25.9849089962075
-21.8826188061543
-11.1288587667243
-14.0509866145552
-20.8229516120046
-15.060158113325
21.2402915073684
8.26127968614511
-3.07451854104775
-12.0864403827744
-9.91615513975461
15.8002296151408
5.38224353604474
4.9932007870638
29.5662233838466
29.5106790731005
-25.6594538733865
-19.095437460389
5.81621563014843
-12.3613089298945
9.83916632125744
-27.3455468980677
-22.7764509373476
0.472449060648329
-5.37812946630738
18.8821457364638
-5.1116955247093
-15.2635336329615
16.7685757288161
-12.0899261329954
24.9719684577759
-22.5930133579992
11.8450046494104
-8.82946456791433
-27.8264324713902
16.5792364178429
6.04815626817156
13.7367673631642
17.2053948895341
-5.81836424514605
-23.7899575737168
-14.7354092619907
-21.2867655959994
-6.28625369133015
-23.9701826826931
0.379457061245238
-26.2647696240351
24.4922976288116
16.6897540695778
-33.1837025333489
25.4139126383448
23.3237239292578
27.6697469764475
-20.4873960086289
2.51497980450939
18.9934719245783
19.2196568843447
14.3635515565214
20.6290362149828
-12.2974754124314
5.25485227124856
-3.17128417718587
21.4581449293342
-29.8980835937867
-16.3023444386054
-11.3402852752116
-33.5067690162993
-19.9250253690797
3.21152357868649
-27.4714609479078
-12.0501942969366
-10.9589874041052
-0.920282619533306
-24.3031820859323
-26.0791560895321
-21.5122300717375
34.1913181198126
21.202797808366
-3.54181936030012
21.2004867968293
15.2442861840941
0.198980274820507
2.64005071006501
11.0505424610699
4.79246257778407
26.527398512185
-29.0527802521832
3.29604114875625
11.8960869257914
-17.4248942586458
15.5672956588554
32.8930027248078
21.2984982984691
-4.16592627291441
21.2172154727492
8.91468346938435
-7.49109446534889
-32.6255227856862
-24.8772065359497
20.4377335996564
-0.858295864369091
23.2371370469316
-16.2609708626097
4.79653402561672
22.6484003886439
-4.39925055411763
5.39881113591682
25.4253048132392
23.9141777931174
-9.23943174178537
30.2577949922839
-18.2556183768039
-10.2069382068754
31.1338075613216
11.274551060441
-22.0368873931773
21.806307861845
-26.7876908430316
13.2931201649435
-10.6856520645487
-21.3347556430663
-1.22555819207738
-5.65874471280553
-8.3801258498684
-18.1759627661663
-15.7854205861389
-7.24348922578329
35.6150793718058
-14.5400324011401
-10.6903242999702
15.4894209493577
21.0369778668039
16.7149648344673
15.7159197369509
-6.01237190310983
26.5438181693157
-9.62319892833403
-30.9236849388042
29.8655983717793
30.6904897526249
-2.34976581844609
-18.2326680340339
9.99766441222092
-3.27649663434427
-9.34184062111637
13.455983279805
5.62699109476839
-29.0162346133658
24.2491051629144
8.12633281569286
16.7056115810603
-15.929547661648
-3.38837883294046
11.1515791502323
8.96438413846376
-22.364267414876
1.84795664917299
20.4078338364865
-15.9031055395687
8.53927989014451
-21.1341402546037
0.0120794489213856
2.9328423530044
8.27152488133582
2.44263517814022
18.4674996977513
-11.6633528661673
7.42463693473083
8.15110459641206
10.0580635119435
26.3396109182345
27.5939124837891
-14.3522420823415
5.30313495314296
23.0578954414459
19.4362362230591
12.2146995660288
23.6141013667839
-30.6063958847609
5.03909945668991
-0.972056850873023
-9.30420986287128
-25.3860782180927
6.1185001367393
-0.71169020618673
-2.63538777714929
-6.97435281018878
30.8655334708297
-25.0340271670736
-14.7283391545606
-4.36865952516479
-1.56215754210097
8.44939353196041
-8.60857185340878
14.2995904673534
20.8577199555325
14.8213645922957
-23.8797179779241
24.0321428486901
-5.64796096830138
-2.45230636961646
-25.2548172859302
-7.48803894121241
-17.9719024523825
23.6133536964864
13.4726070272357
-24.3949717319353
24.1573210478538
25.8984165364153
11.5069436892829
-7.3906302462134
1.32630685612012
15.4322723997834
10.9152580552678
-22.383176563351
16.5616482319629
-13.7614082408589
25.8304296431113
24.7436249087775
-28.2067444576388
-6.91631838665447
-11.6302567556297
1.47234965999362
-8.78072159356739
-6.93631502365844
-15.1853257808045
-18.9426769974753
22.4971903664865
22.4667831613114
-29.6606679708984
-9.60900189628073
7.78137378887169
26.2999324925921
3.1118982873655
-7.86933149050153
-9.2007699687387
23.2207994505327
28.3597825689905
17.6375788628227
17.7974743562712
-2.41096930782879
2.25747943773268
-19.3172672232447
-8.55543647596955
17.6308807726735
4.2008923096807
2.09876296900163
-32.582013464722
-16.4299059027814
-29.7595396553007
-4.16843503234529
13.9540902750928
-29.1575138059203
19.9926605217233
24.1423432408127
23.2419515966758
10.3817860943233
-32.1014437874921
19.4916451701054
4.49089192319935
2.14920023159244
-21.2443304144635
28.3866628036753
17.4594565899592
4.83264230630595
15.1371058384234
8.52632627691755
-16.2966512995058
-3.69227882603213
13.5800154174232
24.6111870245394
-4.61614200108077
-24.2529385589512
-21.3197504886766
4.97516106257077
18.8699089013813
-18.8384170467686
-29.1178986341116
3.17046341747423
10.0567100858037
7.97539012373077
-18.5308350661153
18.1350657697326
13.3778419561063
7.72349400472692
-3.28772697885051
-2.4974734995899
-27.2599423755092
10.178672488261
-14.3571290620173
9.21333161671801
18.630681611027
-19.4324523627972
-21.3478452421276
-18.4381985197174
-22.2865965050764
6.12767116731901
-12.1530289842785
30.7929757686405
-31.3827781986474
32.2137594827986
-17.7311505371999
7.48097045868409
-0.104405439069374
-21.5022098641563
26.3000265758417
2.28636020811144
18.5184210740905
-13.808000527344
-27.3227574452757
1.37374899858199
-0.00893356112802153
-3.27743500018623
-34.1062824829451
18.7514321124312
2.2555244443269
-13.0155485705296
-18.2172702263035
-19.2934333796256
24.5404047412905
-13.1919932698516
7.44651740731746
11.9865626182013
-25.1652364959913
28.1165416332574
21.0259765634276
-6.17978002760094
-25.3592575247622
-31.0316674042499
-4.74678178621982
-15.3936124823613
-37.7812085051537
-25.5904568770226
-2.63314912924698
22.4272198475148
-9.33271925964002
-4.45271560231233
-11.5546434646471
1.02270570550853
10.494366844519
17.2845538973103
14.7238502456401
15.9295761735096
2.78514937028358
15.6304484480073
-22.635329310414
-8.56587719331171
-25.3537601930135
-14.4796499839467
15.1658596283719
17.2973593856599
-5.74389357686082
-30.176023423667
31.7824660319323
24.4274144069092
-13.9708438390238
12.0760146606822
3.56318346336331
-8.17149933439676
-19.6321779955148
15.2631529207146
7.21042472797191
21.5896055254005
25.14546431125
29.8243483612951
11.0523826014911
-4.59303264127434
22.4665861528748
-10.5644017704169
0.316777067725945
23.433820629908
32.97199848055
8.25082932648522
0.403000683488125
-28.1894663407049
-1.1355913497546
20.2468982236732
-18.8213907141199
-8.54111486350906
15.1055269887882
1.01518771347539
-24.0358677719069
20.4098179822716
-7.13246706864535
7.56271793419891
24.7423294474608
27.2105146435037
-22.8026204081281
9.5461691880768
-3.38385388047933
15.518652511107
28.4277324840813
27.2332852555837
-10.5914250983565
-26.362529953989
-11.7048147798855
18.709799340268
26.9624882166442
13.4895071059954
-29.8322274446462
14.4851035506348
-5.9300127115915
24.9092638817804
12.8981997762747
17.5010492635184
21.1885676291003
15.7974290410774
-2.34321228598046
17.972139464876
-1.77406017495949
1.49264623166779
3.22235070699736
-22.2964340780655
9.55880263066866
9.98495262762286
-6.86222675173928
11.6538782220795
0.688774019154797
-14.3329176942735
-33.1515926012269
22.0508111118759
-9.78284669926481
-10.8711573175459
16.4035832556334
17.0060266702614
19.3888873317773
-27.9827321379714
-16.5641951466446
-3.14984220566782
20.2723468341315
1.04267554639095
21.6948401710452
-10.3066218762521
-7.42157333235572
-32.3449550494789
-27.1954640365237
-20.695270572492
-24.4410539825844
2.40343327590592
18.6336544812615
-20.8615852625708
-2.0840706768785
-17.7044408718996
-16.5791437860175
20.9185440581617
-22.6744784251582
27.2540627548354
-9.01305854181164
11.2598587223736
2.96032233924965
9.86968863403203
-8.18308612909249
12.4341376498265
13.8681971494118
-11.6131314553795
-10.4215062765931
-22.2566861588232
-19.3765212474065
29.8932016559476
20.8883077375495
18.4134535744246
-0.101574125311763
-33.8948109909505
-28.8210484521247
25.5839585291206
7.56674962824355
-24.2011227847984
14.9185300528104
-0.579545574787614
5.11015638338459
-18.7161128641685
3.75564422563606
28.859413550371
-1.70710174588387
-28.8506682871104
-17.9601624442022
-29.4476530975036
-23.5546118070709
25.5000251828282
8.89667324259087
-20.3885748981233
8.92416123487877
1.34073642088352
23.3390286291539
-7.35559544191135
-25.1748486190394
-22.9949567457338
11.3059658783809
-22.1820712016267
10.3377218692345
30.5078820281641
-29.3671658560345
-18.2856352285766
8.31296963182747
25.7581360070979
-7.98822319936739
-8.4166880636175
-17.0634559192462
-11.7664358289717
-14.502227156075
26.6152980837035
-23.0535527100573
12.8871765084151
-25.874017182483
-16.1622215190307
18.2116024904933
-2.84244154740323
-20.005720497795
15.4787520176091
-27.2493673040635
-13.1123941340369
-31.2010353309221
-20.9409328963751
-15.1201483610003
25.2813590897067
-22.8394216178913
-29.8530262078022
-23.1030300091292
14.7718571851767
15.7466207658614
-0.938872760001322
1.3270206049736
4.31168610499827
21.3972809149075
7.13183042884336
-20.0673955697696
-2.4370195980617
-14.7715772940937
2.89115160564822
0.977503815492456
15.946436911294
19.5739069967597
25.2994870393913
5.06974378197568
12.7255522788087
22.6723756366759
20.3906507200999
-4.78331659337741
7.60038036473361
-5.97941857834779
6.52919750701055
23.4334473382606
27.9334791338669
-29.2444212703127
-9.74140542707327
21.5022008632258
21.0748083083847
22.1307202673073
23.3762791601691
20.4296443329648
-1.9379242602659
-13.6228489207545
5.48995164601333
2.76227373766898
16.7687887520788
-6.25044992421261
-2.39569690225979
22.7391469989148
-3.82834122335673
-27.6625010144729
-18.016470289185
-21.2136155928855
7.06099586519929
-24.5641691477449
-18.5528438733616
8.05391793358037
-27.0583253558749
5.66851941341014
2.98969189544163
23.1909597067981
-13.9309632198814
3.3494702405481
2.08708635454994
-14.9130784888358
-24.0189622346015
-1.23130672871927
7.93254656928969
11.5238543005987
1.16824647713091
12.3292505510541
-9.93045943665569
7.69891750503571
-7.00414731966657
12.0536374425641
-22.1516592932214
-0.168914813064636
-22.8105930423743
-11.2667930407649
13.7681301321862
-8.8445427518138
-11.4826955412565
-28.8185602791774
26.7331717535528
4.098810478175
-21.7380060699197
-1.78645959333237
-15.9800872749406
19.2126839946424
15.8874762940649
13.9239350778992
13.4019322915697
-13.1371094758431
-15.3770645270278
27.5145140285794
10.6650466713169
17.3450836430863
17.8015740168662
-15.0460826089945
-13.7415719913147
-12.4672903044491
23.526601040366
25.2142456165929
-9.6704107174123
16.3389476259057
18.4065138036171
10.6909217871307
14.4325191887145
26.1975052219362
-30.8571179851101
10.9202317582256
-8.27538659431369
13.5783077327599
18.8593110460531
-14.760554412984
-1.73777851226192
-20.607539225843
7.84962103587629
25.5515567020479
-23.1497566473295
4.52425358770004
-14.6076871709199
12.9043554043572
23.0883069732668
21.6674446733829
30.1514998284785
-23.2119511278214
-8.52619020944455
-2.71642925863979
-26.1355333632593
-14.3340829577334
15.763223823278
22.6608737180894
-25.1875187590318
-1.98765984173845
0.234158044217853
-1.15486999941025
7.68235812252542
-16.666938935885
23.4470174113577
-3.24605679407712
16.7274130192448
-17.5522829082688
20.0072350148574
-24.9628226731912
-9.17315124281182
-25.4876501055656
-9.33999072882096
-30.6721727369799
-6.71374725066364
1.94836529621803
-18.5062089235741
23.0588981095271
-21.3944594171744
16.7729305148117
-28.5582936332496
-26.2509291094579
28.4954991240054
1.10600070764386
18.1511815606884
5.41408939617797
-8.77009844072155
-12.0305792603287
28.4298484467138
11.277521428542
28.7177989357792
-3.54076665616379
6.24316544535726
-13.5516140209097
11.7584153761177
-27.9706071613446
-4.86573668293395
-7.08511780690333
-26.8681807754349
11.8386078228803
17.1226297403062
28.1519396366664
26.7533944132203
19.7787618071772
-2.69768042219909
23.1571872843591
14.5109006139258
-6.53776510377567
-27.7767107843749
-1.08550779103975
-26.6605421688086
22.3007228769913
13.2757383578415
-7.63415795785736
-3.77984241250644
-3.54962679047783
7.15434112156885
-21.4133504861621
-2.30150669667952
-16.7689799525052
-19.1768382271054
-4.72464095414075
-10.8202652096532
-22.7286847959346
-23.8616776847147
19.2288655572449
0.877718535767454
-18.3078333335207
-18.805424023724
-3.9461428908781
-23.1529435290729
18.608045655762
11.6344228072556
-4.14406725046625
21.6834301723332
-26.7591122092554
-21.8531099730059
-25.5611956255074
-27.6940888995245
23.9132531336076
-22.1253759452771
19.1648901362869
-17.5254221480959
-5.38144255960614
9.72703248871572
-23.3839209768188
16.5083746863937
-18.2939930267616
18.1415893678699
-15.5704191046245
2.66915746517779
-13.8735373638374
25.8273397301774
27.8201356344425
0.0202794950702372
-7.89919957881969
13.6310574308894
18.1436583775632
17.4472996631236
10.5230349988131
-10.3146494117636
-8.62719867455162
-27.9047423730188
9.49730181922149
-4.82077091392691
-15.8400607649156
-23.4161358467346
-10.1263868764063
-6.45954510355212
-4.95761811157278
-14.8724232130398
-8.77786613440824
-23.5786151848935
0.958712452034381
-23.5923445134593
-10.7791863177159
-17.9299906575734
21.8151351806588
-5.9938115081431
26.5746972058844
-20.8030806788785
-11.4298747291971
-15.6088916406847
24.5521023295749
21.4127564794878
17.7704987718933
22.0732028677262
19.1777017657774
23.6719726097254
2.18609238540184
-10.9580100923831
-11.7242968168011
-7.8836073179513
-5.84282179544896
2.77157188623659
10.9635024847763
10.812352540257
3.04431433222276
-28.1011278492711
-9.86197895339331
-28.9684222617961
-7.70488246322833
14.5054710718613
-4.22437693399445
-26.5270968143308
-22.1705722017712
-22.7073356131183
-10.6243616400326
15.9990413064761
-24.4616382243867
-20.9111567373474
17.0247245465784
-8.68795675236239
17.1276351493433
3.55699553986701
-24.3400968912103
-22.0162458149925
-21.5053032339964
17.4829812270905
9.48468634626694
-7.53662658399902
-13.1173461481599
-9.73189803603971
25.27124597201
-24.3785072556815
25.6438155953595
25.7909496026606
10.8168744383183
27.3714960232135
-5.71825307518642
3.65168750872625
18.6914598757967
16.4707441231914
-22.1826014515284
23.3922223731697
4.50989117261885
-3.52252871294934
22.0743941730962
25.4608901540473
13.2515222379702
6.19843631412935
-1.01893422421883
-20.450489890055
18.9108276570562
-4.78248565194589
3.20027046838923
29.7317022655387
5.89424690270828
21.0398473422712
-1.85215559497575
2.68626713214772
3.89409363381581
14.0235882626081
-5.17577620877883
22.8271028377258
19.4932120919467
-29.2179479629834
26.8392680828385
-14.19356368607
-23.9045617319154
-16.3085121746012
-3.22393839465176
-7.97212242128872
-11.2214358988975
2.82519039294079
-8.49199514306918
22.5746890465949
-16.8030807752197
16.4810725600149
19.9510013309827
9.34004563529255
-22.042134505442
-12.9590761376007
-23.7891041060323
23.7100198489056
16.9003386814867
-21.1655678333286
7.29736135371893
-2.75549051390252
2.17791656241214
30.9871683667601
-12.0494425042387
19.4928150813481
-0.118405473890603
23.25041859664
-27.9403857658303
27.1616133912116
-5.55387093122161
-19.3223733125544
-21.9454097990809
0.951901154403802
1.45697880364955
6.12017736332752
19.464446706076
-0.783830853290025
-21.0077518804043
-22.8474491959863
14.4672528398975
-18.3956920817312
-23.9257617097704
10.7885531990711
15.7123655414479
16.1043447190946
26.5550498106136
25.8660332143217
-7.99671327739197
-10.7500613644191
12.7324315213449
2.67766123524257
-24.9375073104997
12.7920812015086
-5.02509137842597
-6.03852107127668
17.9671016781922
-17.9289459791291
23.5046768264611
9.3345610724253
19.137424611236
-0.879374041010893
2.60649857929179
-2.15056232835972
4.82957466368041
-27.7424533507103
10.3668064347085
-12.0948180489601
-25.9891574461151
3.71396445163305
-1.54174244529489
-0.778770863778227
18.7462359487664
15.1658034661352
-8.68640364081127
-7.53003566354455
-9.58860833672178
21.5599119277614
-26.3233168066964
1.14387365125763
24.7384604831677
17.3449537404338
-3.06023196069967
11.4216365862765
-20.6173839105784
21.5393524241253
-25.4289620887426
-5.22098870478109
-25.9899224058946
-23.1557515668387
15.0158932767634
6.47129063489853
4.89828482749248
-0.449458418283454
-20.7951225389529
-11.7627540299675
7.86099562395416
8.18366386282152
-23.1451487081342
18.0013709348323
-17.910558936217
9.67926495303317
7.61719156709278
16.2829128774965
20.5189971883278
-19.8765899519918
13.3824122745794
-8.07755538368055
-7.75249734105936
-19.1646943288609
-27.4833870728137
-30.1592872197924
30.3364939143018
-4.02816272863765
11.1195560493482
-19.2822879187282
-29.5837767897632
20.6793451325757
-17.3769318558279
14.6025938665706
24.4737553852684
-15.6697180103504
-18.0103935982878
-25.1873666049301
20.6421432800595
16.1011001512902
25.4761216990324
-20.2988547891559
0.57521387219186
-23.8768048959508
7.38250810026669
14.8215422071551
15.0837838177745
0.0780648279501044
-14.1585152131078
-18.8934631289222
32.5199882093615
5.66674225323818
22.7868804714261
-25.4057071685139
-25.2041503169384
18.2860154714016
-26.5946880663396
-23.8359006954061
-30.8628864288341
14.8878362973261
7.73222980779911
-26.177015548601
26.9348489476555
-26.4167234580503
-19.262299048739
21.0060468749683
-10.4683749086055
-8.7001589557708
11.5030362499616
23.4438881276502
-0.507629003360379
7.91414430447412
29.0165437090448
24.3690278732128
-12.7529186578727
0.959859270801281
21.0156988482815
-16.2528706774701
-6.47383771787822
-10.1440934769218
-13.5507937935378
-2.54194292250409
-18.7530905423617
-0.0739369014699411
-18.4019442850373
-9.05024393900912
22.753471169735
-17.1552130956908
3.4632973673155
-20.290698813309
-19.1027901102432
-21.4035254400596
-27.9628981664816
-22.6134425177918
-19.5421666543321
16.6902761645242
-11.4643488646467
-6.4419713636939
19.9532869534992
19.7005251723482
-8.85044581999784
-5.0505743138988
16.1608115986711
-11.3678995286142
13.5368496623726
-7.73104858143984
11.2336421761434
24.6538410901366
19.3702467315175
-3.00256743632745
23.4262360973899
17.6837239585462
9.97635131749384
7.37345696194856
-2.73631105043725
-20.6068674588933
28.8191680931647
-13.3274267053382
16.1229412900338
21.6871182306094
24.4512488771482
-16.0261755744188
16.9151913777628
5.60723813046427
17.4999013309618
-3.93179140518008
10.6330022624406
17.0727443110686
13.4230686508624
-9.56521427456875
-22.2794430136457
-6.07201911729275
-9.45504606662185
-11.6998593471674
22.1792712458995
18.7528113436194
4.44233542265471
18.9077276577724
22.8029860533742
15.9546385371648
5.48533151771884
-24.0887009292941
-3.88715264357132
-22.0086296843055
-9.09317247200237
-5.33172905296403
-11.2448747139453
-10.0771488142341
-2.74461603164915
-26.9457186028645
26.6811043945274
-31.5069421452765
-0.38554366443387
28.7457061093383
38.0052235092484
-25.8984301612741
9.30065112355891
-19.6082089007757
-0.450707874840777
-22.3864077140544
11.518470699928
17.6655617665689
-18.2616099813635
-10.6448081885087
-11.4277910948511
0.730337488077932
-4.6829061342789
-14.9307784841311
15.6667764242107
6.02535888783579
5.41930488674149
-27.1289784202075
-2.11646566547285
-33.4826831151413
-13.4162591995887
21.5432753215957
25.4803196898255
11.3317208456448
-16.6207877285237
-6.92269342661437
-35.0376170623576
-16.6219677962867
-15.809712173068
20.789973986539
3.32005241773509
-20.8221330734135
24.984943323571
-7.03876955406506
-3.11589466576591
18.9006252300614
-16.5302053072456
-7.13219206717239
-13.8515645045428
4.91872701153314
-23.1089249188717
14.1664752738936
24.3040926585694
22.1159718790033
11.5081167257261
13.9525350874121
20.1569440132333
-27.2778026623831
1.33740970517478
27.6353229040211
-1.42934692644862
22.8332617561339
3.87017750175205
7.82942120891625
14.7807690290236
-29.6940057434781
-13.8001456006908
18.3071504944648
27.935220490414
-20.9139733678376
-19.5111199962183
-2.11120333473038
1.00259016530609
-9.72947707013614
24.2049769140437
-24.8849797937634
8.12837341743906
-23.2897388749481
18.7671863320632
-29.1252945534911
-11.6905574806226
-21.2465056403724
16.7015672649163
17.1522571548063
19.1550060452707
-3.99307052253742
-27.5969701648425
22.9458381025725
28.3509736612412
-1.62449804949029
5.87428568733419
32.4063347023246
12.5156296224863
-10.5930662377073
-10.2412590954195
4.42710630684296
7.20075914411114
-7.73532045012991
13.6692028026403
-4.64406898132695
0.66841885495482
-11.1522456288446
-6.42957684170948
-16.3990833378119
3.20988115299825
6.08654778960613
-19.5491905221558
-0.486454835241956
-23.7052175604159
4.55668933877959
-21.3827056139864
23.4207915469249
-14.2194961455373
3.30626521248457
13.5468158935119
-7.520868772974
-18.0942847013785
11.8897703552815
10.9897294620214
-18.8474957326031
-27.868582071806
-7.9702295036916
32.8366524647078
-1.74470495574791
4.29412323830444
-25.134773759149
17.390019953708
-19.6891002624681
-26.7547009991429
-14.9074030527558
2.14190129536417
-12.1274199306049
-13.3749407473133
-3.44674000553207
4.12442166111988
-30.4450599361032
13.455777549565
-2.2836687925268
-9.54353695927384
-2.68414338374378
-3.41812188457639
4.46843027012675
19.1370636274283
-9.55596934015503
-9.49032914579669
5.34103506439749
11.8527005875966
-22.4339396702247
18.2198793771444
25.3429308099098
-10.4516120409386
21.0221786069489
9.01886700134721
2.46632152652439
-14.0870501549372
-25.5356561939715
-9.87647472242021
32.8821067695313
13.621778532261
-11.789597302027
9.45792584678904
23.6742140244202
-10.580416657442
18.6712818714963
-27.8581205042642
20.1174461711435
16.1752919290047
19.0638882595834
26.1667153329353
8.98893793462584
8.88227231472188
17.8860297305821
5.45756284788152
-18.4712543588157
12.7333498629359
5.38982484588754
-1.50884280797049
4.3155387904074
-23.5135222541643
35.4923398498795
-2.9448098694291
8.2487224762601
0.00635929986407466
-24.1561259694976
21.256360702419
8.83101623902044
4.11997544953877
6.76857150048326
-23.1402154395527
-7.57360859833576
8.56755988446219
9.38888922684354
12.1363243685795
29.4671372689481
12.3120251732466
-2.72881419554569
-29.5606187013577
-23.5729222542144
-14.1609028457369
5.02824586742764
23.4989594186988
18.5315273570979
-20.6280058955353
-22.5666826084493
-17.4411715328506
6.31110585738257
-10.0507382845259
-1.95786700691077
20.3766808491358
16.2809072512157
15.6445607249889
19.3740354518727
17.0761345413464
14.1145458879999
22.2693055231037
-33.4881070874043
-4.82519229077297
-9.06909718455402
23.1351264827751
-11.1148349798739
-20.9606827281312
31.2426870543968
16.3820341502451
3.87936136873175
20.5688818723793
25.6094259708807
-26.7528541031972
2.91755521316553
0.793484141296712
-9.93022316675745
-4.83254516388084
-6.37078987647174
-4.89987375363595
3.80606951727212
-32.3869952328745
-0.479018552678241
-7.41155174035553
-9.4422325818473
17.4319265602381
-26.5575342932373
-14.1152987988831
-21.4005975504141
13.1572764436625
-13.8024895655285
18.1885654293674
14.4334369930778
23.0648021925192
-35.6974696469449
-28.526155972261
13.5562440943318
-27.9174745881898
18.2255952000371
-22.4711024559986
21.5243178106896
-18.2875597705549
30.1196936819761
-19.3571585283697
8.56320894839915
-18.6951355450417
-10.1168466843293
5.54852565851245
16.8324323553441
21.9436719776577
4.63738926252061
-13.3764882865741
-22.0226469481034
-8.01352874905208
-22.417851774551
13.1425559514146
-13.6656498347898
6.6870258140788
-27.4998239235918
0.343443731548148
19.6104252243827
-27.7884059554873
-29.7750073123565
-22.8626373392234
-4.36306807953318
21.0125286717513
-28.2551626555448
-27.0241303409432
-30.0529595607073
2.6518047335272
27.8186290471784
-17.9274190080151
14.236239068628
-14.6108665132227
-7.34461482045081
-9.26918247951038
-20.8946874625449
-0.555485069537169
21.1331489527875
-19.2686408186457
6.431574061491
3.1211367115738
-4.42250161292623
-17.1171080405107
-16.9046280403629
-30.8147392656227
-0.979535868463626
-7.00157510431043
13.0515598797914
-13.2269129438097
9.28261463753755
31.793311252836
21.3277373839861
-17.3194937630088
-12.672096210646
15.6020521562702
-16.8291300009185
15.7673625680176
15.6730802834009
21.8844327945387
-19.4540725081472
-9.82025141163407
6.71000446563508
-6.93319222846337
24.5943159890162
-11.0107176114138
5.71370499157972
27.0737261109166
-28.5351938835062
17.3940895113324
11.8174016792978
22.2056859099152
13.5377574289183
29.1893601814045
-28.5491956722696
-11.8656734105737
8.06761861107466
14.3802584303938
31.9084923547547
-5.6460378208701
-13.7931729720848
16.5246860728795
-13.7377747235415
14.1805478755347
8.04957537826253
29.4298869787887
-8.21722537139608
-0.178550981800648
28.1168218483564
9.88771164707583
-24.3936148603075
-20.4166677120718
6.02034447599971
28.76755100807
33.5145425081171
-19.14994238324
30.5205394359034
-26.8097254469897
-11.7566107022476
23.0009242922474
-5.90324890493781
-1.06019934394756
-11.2579138099078
19.7976768062798
4.26836330974799
21.5334730281975
-19.5651087470018
23.6935112482469
-17.1245061288778
-27.2967059739186
-24.2841429477603
-3.20824706401373
18.8009928275537
-7.69958824483858
5.00233494226729
-3.40479912517385
33.4244087185889
22.2496643526254
12.6035957288706
29.5884575353898
22.2125625750298
-25.6772630538952
-28.2190831115069
-2.22025382098557
11.5766471978194
-2.89188808592827
-11.5626971805969
20.7745086835391
-29.0372963763583
13.7442650598823
-8.7794000966592
1.68838225722354
-2.7644511313521
-24.3509712245132
29.5005157269378
13.6982789756024
1.98044673094422
-0.128748969529303
-27.8731104439786
18.5794528197555
16.5413075975011
-2.16432282843748
-21.7109782579907
23.9116717840241
-4.80631277622663
11.4510757959462
-8.92045229533801
-16.3547703903547
-11.112878208141
3.63139107718777
-8.34436146371859
-30.7913228212899
-13.5796616804694
-11.8196591796037
32.8336135087426
-8.6123255443156
2.70302524102908
18.2323174147862
-26.7132787064905
-25.7294775613592
12.8659373251228
-13.6670732883141
22.9328992172639
-0.791591701471471
13.9056366700197
4.45724609696242
33.8639276882992
11.5156396960047
-3.87935062212986
21.7697042928536
23.9373414811806
-7.10881162054589
11.5341612760333
24.2121349646372
-13.3853994295262
-3.28245349490491
21.6424369456945
-21.2003482960295
27.1224454701393
-25.6756659777704
-31.2959803604171
20.3611168195725
-2.04595639026585
-5.20826892332913
-3.12884624690298
-12.0638750610167
-16.5595016234871
-24.7815373570015
-29.0064132057699
3.31015356659678
-11.8740506227579
7.04168183215687
-6.00823272673116
-34.8351271261613
-18.2027816398906
-5.27784311965828
3.91988585823688
18.7693506130199
-22.8612964438852
20.0062397738452
5.47664229399853
8.74042199216499
19.3786663099529
-0.960051639984471
5.45082522231666
20.368914809437
-14.6926336885017
-9.80601356515329
-16.8853925935433
0.133050925591828
3.7173129043574
-12.5104442657087
20.3643184467013
-32.7139235655716
-23.285688053236
14.3410660872396
15.0261293085244
-4.01769475867494
-30.2593198646667
-1.80704870360119
-15.2900318339343
17.7940208769648
9.0437757081447
15.6462158459027
8.13972431737685
-10.3818950988294
-23.2134013050594
11.7015600495979
16.9124575938959
21.2598400080737
20.3829291105244
23.929211151184
-31.3669051306447
-31.8136785632147
-0.510843980729227
-14.5620835085076
26.2029855621755
-30.5642419247077
11.5153292306906
-1.88037852350671
27.0354335046081
32.4831670155566
25.8457106917945
1.59782923196503
-24.4199294390603
24.8572196344153
15.844764963154
-8.68669873876197
26.8939461474118
-10.8586226264326
7.05371912586861
-27.9855296385077
20.6410875191714
23.10142434842
6.69071442225524
6.7748589353111
-25.5851088508438
-26.3035435915014
13.7542425817461
-8.18713886177859
14.4106971130231
6.20080273093573
-0.746649681399798
-14.5330045574572
6.62252242648261
10.793494326066
-15.8028664567046
18.274422387519
4.22685071738201
19.7025158829989
17.5569980159774
15.9176094041198
6.66652225864624
-2.21759620166289
-3.76708237870303
-5.21330087182846
20.6369331365025
-22.1838956450724
12.6222723599392
19.737671426816
10.7300952074174
7.59404441555155
17.6603415087465
-9.00734154953561
-22.1593475948666
10.9251406833563
-16.9507200141593
-11.1574029245974
1.11813920357722
15.7680802926031
-14.9220588804744
20.9202320203527
-18.612779553378
-4.26782157330388
13.5809686894148
-8.03414306993624
-11.89654934513
8.30280672539727
23.6773991475856
-0.163746046478423
0.908508871090217
14.6273469866125
20.9976582143183
-30.2897502268747
-0.961583463526684
17.3327491273375
-0.988703299834297
-8.90990138724793
-5.49254970232638
-14.0387258648221
21.8030982927747
26.5010828518671
-4.6781849121282
-23.9484523254742
6.52208550697657
-23.2478676586019
21.9115559912837
-19.7010801100954
-21.815421404705
16.4724451575743
-2.25583573682568
-28.2979640348175
-7.57955175745974
18.175756265551
11.5126625820734
-22.6924138799752
5.15939102720178
-17.4229855063245
17.641671973218
-20.5915835867313
-29.4259797921197
-11.4935703635769
-20.5682790366722
-18.2238549856285
-25.9083273044029
29.3852832542042
20.4657566270774
20.444163849534
21.6753772229473
-7.25923846498208
-15.0599305768457
19.7392253887901
18.9855481271446
-14.8298307193405
26.3812989285043
-10.9100945730339
-7.99821963009998
-28.9729055625707
14.206337014826
-0.171455636276068
4.38356948696833
-12.9576742638103
-5.79469315508464
-31.1749596815607
-32.5078634369684
2.17965874063642
-18.7714376325864
-30.2839417497902
-3.6152169308277
-3.96740758566595
-16.5173819916413
-12.3245116740406
8.66215699758344
-9.20778624645296
-23.7432327253372
2.62216532184906
15.8821292707311
-20.8234219842927
-37.424399560609
9.73390513741563
-12.3399617899837
-29.3804371718809
-26.6194988643717
24.894139928773
3.2544705882769
9.11278240524049
-17.2625977070453
-20.5561822789855
26.220994000143
-14.2127090625672
10.6781540351459
11.3182305944028
-6.1980052675407
-22.129722663265
1.27440027775116
19.8758900739617
29.1277953326872
-10.0068147371253
-14.4786133114425
7.31526551622497
0.497144834899961
20.9983897269536
-6.25640926412825
-3.55494490949864
-24.0920451384317
-21.5847341304481
-20.2969838439736
2.50847692113607
-31.7173250138111
-9.39592172724288
14.03618837755
-20.3625261729868
-31.7917550632814
-27.0374142742766
-15.0201815979966
2.86538470099533
26.9021304535759
-3.1154017473306
-2.11407708322547
-12.5892458669384
-11.3514877332201
-24.838320420281
-26.3043717437791
-18.3759256282189
14.5030662963795
-1.25887495249376
24.005179932854
-4.09728115279754
20.4759861725509
-1.20731191954872
5.78236735245494
-5.4451824640301
22.6379372194762
